tree
version=v4
num_class=1
num_tree_per_iteration=1
label_index=0
max_feature_idx=37
objective=regression
feature_names=city_enc city_vri_mean city_vri_std latitude longitude VRI_lag_1 VRI_lag_2 VRI_lag_3 VRI_lag_7 VRI_lag_10 VRI_lag_14 VRI_lag_21 VRI_lag_30 VRI_roll7_mean VRI_roll7_std VRI_roll7_max VRI_roll14_mean VRI_roll30_mean VRI_roll30_std VRI_clim_month VRI_anomaly T_opt HR_proxy P_opt S_continu temp_mean temp_roll7 precipitation_sum precip_cum15 precipitation_hours et0_fao_evapotranspiration sunshine_duration wind_speed_10m_max sin_doy cos_doy sin_month cos_month month
feature_infos=[0:39] [0.03554012740333156:0.20886571848229379] [0.072388610080435636:0.21862342722083616] [2.3799999999999999:10.74] [9.2100000000000009:15.359999999999999] [1.6274300752421529e-07:0.99999998589527472] [1.6274300752421529e-07:0.99999998589527472] [1.6274300752421529e-07:0.99999998589527472] [1.6274300752421529e-07:0.99999998589527472] [1.6274300752421529e-07:0.99999998589527472] [1.6274300752421529e-07:0.99999998589527472] [1.6274300752421529e-07:0.99999998589527472] [1.6274300752421529e-07:0.99999998589527472] [2.2033580749707175e-05:0.85330485106902809] [5.7177614800039249e-06:0.44081361464931956] [3.2637357366150614e-05:0.99999998589527472] [9.3217679480131772e-05:0.76877021343440344] [0.00022785508486488712:0.72276580579435801] [0.00015747551408822215:0.35841142194985487] [0.00096750038146271704:0.41646693487073] [-0.41200387746127637:0.80954197928809202] [0.049724873412349581:1] [0.0014184061711588723:0.99454960984595686] [1.970936059541792e-06:0.97925569451443428] [0.13720346714593173:0.96611080457150766] [15.5:37.25] [15.785714285714286:36.692857142857136] [0:137.57999999999976] [0:1514.6799999999996] [0:24] [0.90000000000000002:10.73] [12160.90857142857:41525.325000000004] [5.1530769230769238:32.570909090909069] [-0.9999994220246925:0.99998555065071859] [-0.99997919295908233:0.9999907524084426] [-1:1] [-1:1] [1:12]
tree_sizes=2838 2989 2981 2997 2997 2982 3002 2998 2996 2992 2979 3009 3001 3014 2994 3015 3012 2995 3022 3020 2986 3014 3001 3017 3022 3015 3017 2998 2992 3013 2997 2990 3013 3010 3002 3004 3011 3018 3003 3017 2972 2999 3009 3019 2998 2988 2995 3003 3029 3005 2999 2999 3003 2988 2992 2991 3012 2984 2966 2994 3007 2975 2984 2986 2970 2978 2989 2985 3008 2992 2972 2994 3015 3000 2958 3004 2988 3019 3012 3022 3018 3007 2984 3004 3018 3009 2987 2988 3008 2972 2982 2943 3009 2997 2964 3001 3000 2994 2973 2971 2993 2974 2981 3009 2998 2994 2977 2989 2989 2957 2998 2989 3008 2977 2967 2964 2986 2962 3001 2995 3011 2976 2955 2967 2968 2998 2959 2957 3010 3013 2992 2998 2949 2925 2990 2962 2975 2977 2964 2940 3006 3007 2898 2966 2946 2998 2950 2985 2998 2933 2945 2956 2978 2970 2954 2921 2992 2975 2910 2951 2973 3000 2950 2960 2946 2961 2958 2965 2946 2975 2997 2947 2946 3001 2886 2965 2978 2992 2921 2952 2938 2936 2990 2902 2967 2952 2963 2984 2989 2929 2978 2975 2960 2959 2939 2915 2958 2955 2983 2957 2943 2959 2962 3016 2983 2970 3011 2971 2981 2900 2921 2972 2952 2943 2993 2986 2895 2992 2956 2875 2913 2933 2954 2989 2925 2963 2990 2922 2937 2938 3004 2963 2975 3010 2938 2973 2927 2987 3016 2943 2916 2922 2990 2997 2959 2904 2979 2933 2933 2944 2960 2936 2966 2994 2945 2890 2965 2927 2968

Tree=0
num_leaves=31
num_cat=0
split_feature=27 15 5 15 20 15 5 27 19 31 19 27 5 27 20 15 27 31 19 20 31 31 19 27 20 33 20 19 5 31
split_gain=603.786 88.821 60.5331 15.8629 15.317 11.2699 9.28439 8.70761 5.02998 4.6461 4.22471 4.21023 2.73459 2.66971 2.64642 2.56213 2.49649 2.1821 2.04791 1.62308 1.51566 1.47806 1.4556 1.36035 1.35048 1.21253 1.16863 1.16224 1.14652 1.11831
threshold=4.5000000000000009 0.45538701593493619 0.047538079460334844 0.28693162041346137 -0.0018837849744415818 0.64761748699961041 0.013797248504505201 1.5000000000000002 0.17624040003934813 29392.903214285718 0.13951049450335112 51.050000000000004 0.16284097558781871 9.5000000000000018 0.30815030700288615 0.16240051115568158 51.050000000000004 32405.868571428578 0.20930254720669098 0.094415579404125358 29512.234642857147 29966.198159340664 0.10381806411901294 61.150000000000006 0.0090230079615324487 0.97508442350096236 0.56788285815295059 0.070153133076332932 0.081493069664354281 24415.729285714289
decision_type=2 2 2 2 2 2 2 2 2 2 2 2 2 2 2 2 2 2 2 2 2 2 2 2 2 2 2 2 2 2
left_child=2 3 6 15 16 10 -1 9 20 28 -6 18 -9 -12 -10 -2 -3 -8 19 -5 25 -15 -21 -17 -20 26 -7 -11 -4 -16
right_child=1 4 7 11 5 8 17 12 14 27 13 -13 -14 21 29 23 -18 -19 24 22 -22 -23 -24 -25 -26 -27 -28 -29 -30 -31
leaf_value=0.10038359727931226 0.10368707563860752 0.10855391351779456 0.10302056270303664 0.10658771502517611 0.10997533696676251 0.11236591097101835 0.10191354282495101 0.10400945855336169 0.11440641725988555 0.10194863828449502 0.11049037562513067 0.10361697827323831 0.10595588140163915 0.11362146792624798 0.11854368232303318 0.10606454388368354 0.10322518367262026 0.10116613714637969 0.10815250848940634 0.10715077373728439 0.10827306294041934 0.11119621839700494 0.10927474334541933 0.1019692162106532 0.11085012062483612 0.1054911765248554 0.11599082783947959 0.10267534551036166 0.10382156178374503 0.11583713197248059
leaf_weight=13667 689 181 2811 427 797 345 5999 1974 638 3048 455 150 973 1315 347 1560 138 8638 255 414 75 312 1138 75 593 20 125 5743 3746 352
leaf_count=13667 689 181 2811 427 797 345 5999 1974 638 3048 455 150 973 1315 347 1560 138 8638 255 414 75 312 1138 75 593 20 125 5743 3746 352
internal_value=0.103274 0.109809 0.101816 0.107088 0.112636 0.113061 0.100946 0.103161 0.114864 0.102874 0.111866 0.108539 0.104654 0.112584 0.115881 0.105228 0.106246 0.101472 0.108798 0.108258 0.112432 0.113163 0.108713 0.105874 0.110049 0.113051 0.113361 0.102423 0.103478 0.117205
internal_weight=57000 10401 46599 5301 5100 4781 28304 18295 1902 15348 2879 2977 2947 2082 1337 2324 319 14637 2827 1979 565 1627 1552 1635 848 490 470 8791 6557 699
internal_count=57000 10401 46599 5301 5100 4781 28304 18295 1902 15348 2879 2977 2947 2082 1337 2324 319 14637 2827 1979 565 1627 1552 1635 848 490 470 8791 6557 699
is_linear=0
shrinkage=1


Tree=1
num_leaves=31
num_cat=0
split_feature=23 5 15 23 15 29 15 19 5 31 27 31 31 31 15 5 23 19 19 5 5 27 34 19 15 31 30 26 23 15
split_gain=597.227 67.6216 63.7837 15.6639 11.0903 10.7724 9.44773 5.46848 4.33326 4.32975 3.14273 3.1401 2.60886 2.05974 1.41782 1.41592 1.3939 1.23426 1.17962 1.1336 1.05932 1.0341 1.00527 0.973966 0.93086 0.904593 0.815999 0.688719 0.681639 0.681599
threshold=0.50562395840214636 0.051436903253664963 0.47004737162648308 0.29048875886200659 0.32172188256389955 1.0000000180025095e-35 0.71544315569455808 0.14121922670346368 0.17542620732499245 29392.903214285718 9.5000000000000018 25207.117142857143 29899.785467032973 30026.969642857148 0.16240051115568158 0.017273517943897424 0.85718867687748934 0.20930254720669098 0.070153133076332932 0.081493069664354281 0.027924315509576421 12.500000000000002 -0.48313741114591585 0.14707326567055712 0.40075294313387416 24265.878214285716 2.2216666666666671 25.603571428571431 0.42351175169828431 0.12190313584569558
decision_type=2 2 2 2 2 2 2 2 2 2 2 2 2 2 2 2 2 2 2 2 2 2 2 2 2 2 2 2 2 2
left_child=1 5 4 9 14 15 7 26 29 19 -9 16 28 25 -2 -1 -8 24 -11 -3 -14 -13 -18 -10 -6 -12 27 -4 -7 -5
right_child=2 3 6 8 17 12 11 10 23 18 13 21 20 -15 -16 -17 22 -19 -20 -21 -22 -23 -24 -25 -26 -27 -28 -29 -30 -31
leaf_value=-0.0028793388147732046 0.00086598325155103919 -0.00018980371357096672 0.0060491323879315571 -0.00014692712030484791 0.0047986195931139083 -0.00099205075123174431 0.011033723642727866 0.0072190963112068983 0.0023585421357832427 -0.0012267719406334192 0.011681818278155722 0.0061530716723094594 -0.0021177250097041125 0.0078352205366698097 0.0031517792024159477 -0.0021743577697809439 0.015878181828089633 0.0069851488557094313 -0.00046407680412317154 0.00061050730222697689 -0.0015065175416005122 0.01080610851923026 0.012418471059727449 0.0040971660289245235 0.0062954296600554599 0.01001981997834334 0.0071949327692335972 0.0014657799472333863 0.0019222769730832838 0.0014100260677854526
leaf_weight=12247 296 2539 93 305 947 3936 164 444 482 2679 488 56 5711 343 1536 3319 265 704 5801 4251 4740 462 161 796 696 1324 707 47 72 1389
leaf_count=12247 296 2539 93 305 947 3936 164 444 482 2679 488 56 5711 343 1536 3319 265 704 5801 4251 4740 462 161 796 696 1324 707 47 72 1389
internal_value=3.87936e-08 -0.00130615 0.00721896 0.000134301 0.00453948 -0.00218138 0.0096756 0.00889106 0.00212667 -0.000253392 0.00957903 0.0121027 -0.00159109 0.0100603 0.00278477 -0.00272936 0.0136412 0.00590611 -0.000705497 0.00031082 -0.00184097 0.0103217 0.0146098 0.00344614 0.00543796 0.0104753 0.00676767 0.00455302 -0.000938483 0.00112801
internal_weight=57000 48267 8733 18242 4179 30025 4554 3446 2972 15270 2599 1108 14459 2155 1832 15566 590 2347 8480 6790 10451 518 426 1278 1643 1812 847 140 4008 1694
internal_count=57000 48267 8733 18242 4179 30025 4554 3446 2972 15270 2599 1108 14459 2155 1832 15566 590 2347 8480 6790 10451 518 426 1278 1643 1812 847 140 4008 1694
is_linear=0
shrinkage=0.03


Tree=2
num_leaves=31
num_cat=0
split_feature=23 5 15 23 15 24 24 24 24 19 15 31 23 15 24 19 19 15 19 24 23 21 24 19 29 23 31 19 20 33
split_gain=562.015 63.6267 60.1211 14.7397 14.2303 10.5107 8.14962 5.25155 4.2371 3.72385 3.01944 2.97467 2.67228 2.09097 1.3783 1.35896 1.3461 1.34073 1.28045 1.13248 1.09489 1.05058 1.0138 1.00928 0.98434 0.959313 0.912691 0.91061 1.19532 0.888033
threshold=0.50562395840214636 0.051436903253664963 0.51748065953654743 0.29048875886200659 0.32172188256389955 0.8423075643258261 0.2873591423524951 0.35560170315678735 0.35111373495387127 0.12762193679433639 0.7307264722547564 32536.598928571435 0.7644842744712449 0.40075294313387416 0.73848486826608806 0.13522283481963168 0.079880907189534209 0.18323412904459399 0.22783388777354244 0.70297736732350335 0.85597806172135427 0.92855733757448811 0.61059551041391269 0.12701581547991844 17.500000000000004 0.57809945777290839 23560.418928571435 0.1139705661154566 0.10145480726227411 0.79383249484937135
decision_type=2 2 2 2 2 2 2 2 2 2 2 2 2 2 2 2 2 2 2 2 2 2 2 2 2 2 2 2 2 2
left_child=1 5 4 7 17 11 10 15 18 29 23 14 -11 -6 -1 -3 -9 -2 -5 26 -12 -14 -10 -4 -23 -25 -18 -15 -29 -8
right_child=2 3 6 8 13 -7 9 16 22 12 20 -13 21 27 -16 -17 19 -19 -20 -21 -22 24 -24 25 -26 -27 -28 28 -30 -31
leaf_value=-0.00077185220022639705 0.0011790815218372375 0.00010462261479407004 0.0057696226831991226 0.0028316415176411658 0.0050823405391136074 -0.0027422558047254801 0.0073040534462627833 -0.001176890779552972 0.001515220808091742 0.0064630055361449192 0.010800334400855281 -0.0019655505037331454 0.008641225715772409 0.0051600632114158496 -0.0016035761822186224 0.0010770988887285164 0.0012353355132148033 0.0031397587039617312 0.0050940261991809076 -0.0014876273076639113 0.014482590923402006 0.009781619292408875 -0.00015158172729950193 0.0047054388266470695 0.011857684773155961 0.011049401880790429 -0.0003692830754452176 0.0054515305750126031 0.0075113319647522889 0.0043908038711944729
leaf_weight=3923 412 3077 44 957 1248 13383 385 3058 1273 255 120 9377 542 314 3342 2240 336 1420 304 791 390 915 438 26 333 682 5768 361 1145 141
leaf_count=3923 412 3077 44 957 1248 13383 385 3058 1273 255 120 9377 542 314 3342 2240 336 1420 304 791 390 915 438 26 333 682 5768 361 1145 141
internal_value=1.24233e-07 -0.00126697 0.007003 0.000130277 0.00479867 -0.00211596 0.00981819 -0.000245798 0.00206298 0.00883554 0.0118091 -0.001612 0.00942138 0.00604878 -0.00115504 0.000515007 -0.000652541 0.00270134 0.00338304 -0.000419415 0.0136449 0.00983731 0.00108694 0.0105437 0.010347 0.0108276 -0.000280276 0.00670668 0.00702352 0.00653863
internal_weight=57000 48267 8733 18242 4900 30025 3833 15270 2972 2571 1262 16642 2045 3068 7265 5317 9953 1832 1261 6895 510 1790 1711 752 1248 708 6104 1820 1506 526
internal_count=57000 48267 8733 18242 4900 30025 3833 15270 2972 2571 1262 16642 2045 3068 7265 5317 9953 1832 1261 6895 510 1790 1711 752 1248 708 6104 1820 1506 526
is_linear=0
shrinkage=0.03


Tree=3
num_leaves=31
num_cat=0
split_feature=23 5 15 23 15 29 31 5 31 35 31 23 31 23 15 15 15 5 21 6 5 5 22 31 31 31 23 6 23 31
split_gain=528.878 59.8685 56.5834 13.8701 13.39 9.69467 6.82365 3.93642 3.91028 2.84076 2.73691 2.62757 2.32617 2.0526 1.96693 1.89282 1.26853 1.24463 1.06494 1.05699 1.02129 0.950519 0.878697 0.814788 0.720724 0.68647 0.643422 0.81918 0.63767 0.618281
threshold=0.50562395840214636 0.051436903253664963 0.51748065953654743 0.29048875886200659 0.32172188256389955 1.0000000180025095e-35 24415.729285714289 0.19019770316547849 29392.903214285718 0.68301270189221941 29202.66785714286 0.72461151377208843 29899.785467032973 0.76770090502193222 0.40075294313387416 0.80187919863836699 0.16240051115568158 0.01986584377524769 0.94189164056256625 0.0825545436135567 0.081493069664354281 0.027924315509576421 0.56344546879575863 29703.992500000004 28888.465000000004 28888.465000000004 0.92165435290288633 0.40355681022932693 0.42351175169828431 23560.418928571435
decision_type=2 2 2 2 2 2 2 2 2 2 2 2 2 2 2 2 2 2 2 2 2 2 2 2 2 2 2 2 2 2
left_child=1 5 4 8 16 17 11 24 20 10 13 -4 28 -8 -6 -13 -2 -1 -15 -10 -3 -14 -20 -16 -5 -9 -12 -28 -7 -22
right_child=2 3 6 7 14 12 9 25 19 -11 26 15 21 18 23 -17 -18 -19 22 -21 29 -23 -24 -25 -26 -27 27 -29 -30 -31
leaf_value=-0.0027023356649066052 0.00080483786990387472 -0.00017737969072244926 0.0075344345077061527 0.0018409105085801377 0.0049299924307674723 -0.00092802201888683169 0.0071084065681972005 0.0039533499304745369 -0.00095512942971252227 0.004732554589269921 0.0062543983124196531 0.011228800476940944 -0.0019906593017455418 0.0087930859594660248 0.0069838239233071366 0.014400306124441242 0.0029675951248461113 -0.002009087325055284 0.0089513327668083228 -0.00027569848093792507 0.0015182680793505356 -0.0014115545244268587 0.011133969312580655 0.0055752977538675074 0.00064313091438158456 0.0023218328208652332 0.006421461364334787 0.0093806884868947032 0.0018906296297316982 0.00044075887415694651
leaf_weight=12640 296 2539 139 800 1248 3936 279 741 4892 159 323 692 5711 517 1196 263 1536 2926 272 3588 554 4740 788 624 1068 363 164 237 72 3697
leaf_count=12640 296 2539 139 800 1248 3936 279 741 4892 159 323 692 5711 517 1196 263 1536 2926 272 3588 554 4740 788 624 1068 363 164 237 72 3697
internal_value=2.08063e-07 -0.00122896 0.0067935 0.000126388 0.00465497 -0.0020525 0.00952463 0.00200121 -0.00023842 0.00871181 0.00895396 0.0115471 -0.00149249 0.00957598 0.00586763 0.0121195 0.00262042 -0.00257235 0.0100059 -0.000668073 0.00029775 -0.00172846 0.0105857 0.00650587 0.00115841 0.0034222 0.00734423 0.00819688 -0.00087618 0.000582212
internal_weight=57000 48267 8733 18242 4900 30025 3833 2972 15270 2739 2580 1094 14459 1856 3068 955 1832 15566 1577 8480 6790 10451 1060 1820 1868 1104 724 401 4008 4251
internal_count=57000 48267 8733 18242 4900 30025 3833 2972 15270 2739 2580 1094 14459 1856 3068 955 1832 15566 1577 8480 6790 10451 1060 1820 1868 1104 724 401 4008 4251
is_linear=0
shrinkage=0.03


Tree=4
num_leaves=31
num_cat=0
split_feature=23 15 5 15 24 24 24 23 23 19 15 23 15 23 19 23 19 20 19 19 20 24 23 20 24 19 24 19 26 24
split_gain=497.729 63.1087 48.3399 12.0547 9.51642 8.68634 6.10139 5.50471 4.11307 3.89891 3.83215 3.43227 1.9402 1.57846 1.52638 1.51518 1.4947 1.39505 1.30574 1.29089 1.49533 1.20853 1.05929 1.00615 0.963697 0.947546 0.901747 0.865048 0.866093 0.851997
threshold=0.47190765247526995 0.47004737162648308 0.040390081171338153 0.32172188256389955 0.3540110218611266 0.28236446525718206 0.85047539318913312 0.76770090502193222 0.3440347786478517 0.1638795259298482 0.7307264722547564 0.25354795447561296 0.20539244715344043 0.57809945777290839 0.079880907189534209 0.79776403832071296 0.070153133076332932 0.29387711915818809 0.13522283481963168 0.20930254720669098 0.11610309507737301 0.70297736732350335 0.57405160351056173 0.0090230079615324487 0.33835823500419421 0.10381806411901294 0.61535237020359912 0.12701581547991844 20.50714285714286 0.74558432389269835
decision_type=2 2 2 2 2 2 2 2 2 2 2 2 2 2 2 2 2 2 2 2 2 2 2 2 2 2 2 2 2 2
left_child=2 3 6 12 8 10 16 22 18 24 13 14 -2 -3 -6 -12 -1 -11 -4 20 -5 -16 -7 -21 -9 -22 -13 -15 -29 -18
right_child=1 5 4 19 11 7 -8 9 -10 17 15 26 -14 27 21 -17 29 -19 -20 23 25 -23 -24 -25 -26 -27 -28 28 -30 -31
leaf_value=-0.0019835987524444211 0.0011845377332989012 0.0048494476988744824 7.6179319999171181e-05 0.0031743777171970287 -0.001240925840846237 0.0035182803700816489 -0.0026006682748259415 0.0077234775902208924 0.0027253887048387555 0.0086523379032056296 0.0082944473802926948 0.00094031588805256838 0.0029591282058906276 0.0056298066166928038 -0.00038415035124574813 0.013682950714991303 -0.00092787093348958892 0.010486460070901071 0.0010156087789757696 0.0044854556684101581 0.0039020193768534391 -0.0013165247440107117 0.0062312210244526729 0.006971466495973265 0.0056727952257880736 0.0057589062062732583 -0.00048728897352370864 0.0065957584670660171 0.010584140508310597 -0.0016446856928829948
leaf_weight=6967 861 66 3218 403 4592 184 12925 613 836 1052 63 1423 1603 47 6753 414 2635 687 2280 218 355 1541 546 580 361 1030 549 65 591 3542
leaf_count=6967 861 66 3218 403 4592 184 12925 613 836 1052 63 1423 1603 47 6753 414 2635 687 2280 218 355 1541 546 580 361 1030 549 65 591 3542
internal_value=2.86746e-07 0.00617552 -0.00127227 0.00384622 -0.000207957 0.00868215 -0.00213732 0.00789655 0.000765426 0.00852261 0.0108425 -0.000623138 0.00234098 0.00948737 -0.000801599 0.0129964 -0.0016813 0.00938425 0.000466417 0.00527783 0.00481554 -0.000557882 0.00555726 0.00630255 0.00697309 0.00528828 0.000541308 0.00991103 0.0102042 -0.00133959
internal_weight=57000 9739 47261 5050 21192 4689 26069 3443 6334 2713 1246 14858 2464 769 12886 477 13144 1739 5498 2586 1788 8294 730 798 974 1385 1972 703 656 6177
internal_count=57000 9739 47261 5050 21192 4689 26069 3443 6334 2713 1246 14858 2464 769 12886 477 13144 1739 5498 2586 1788 8294 730 798 974 1385 1972 703 656 6177
is_linear=0
shrinkage=0.03


Tree=5
num_leaves=31
num_cat=0
split_feature=23 5 5 23 14 29 6 6 19 5 31 31 23 31 31 20 19 14 5 33 26 23 6 34 5 19 19 5 19 14
split_gain=468.579 53.0865 35.9136 12.2605 11.7547 8.67497 6.52613 4.75364 3.68926 3.55631 3.54584 3.5187 2.6878 2.48435 2.10149 2.05892 1.54084 1.1106 1.09302 1.04004 1.35891 1.02384 0.992468 0.983126 0.916119 0.906309 0.860613 0.841137 0.703219 0.661681
threshold=0.50562395840214636 0.051436903253664963 0.37118938316472211 0.29048875886200659 0.11962463077791723 1.0000000180025095e-35 0.523869776213855 0.23885660592910082 0.12762193679433639 0.17542620732499245 29392.903214285718 28953.294285714288 0.88255160425389145 22870.314345238101 29899.785467032973 0.18509613794808091 0.17843455009564932 0.06337969617519619 0.017273517943897424 0.69056404122701587 21.50714285714286 0.7644842744712449 0.39291695747052763 -0.10837475778693638 0.081493069664354281 0.29767206184015571 0.14707326567055712 0.02250052050575382 0.053588979749961116 0.20218777839062602
decision_type=2 2 2 2 2 2 2 2 2 2 2 2 2 2 2 2 2 2 2 2 2 2 2 2 2 2 2 2 2 2
left_child=1 5 4 10 7 18 8 17 -4 -5 24 12 -6 -8 -7 25 29 -2 -1 20 -14 -15 -9 -12 -3 -10 -11 -16 -13 -17
right_child=2 3 6 9 11 14 13 22 15 26 23 28 19 21 27 16 -18 -19 -20 -21 -22 -23 -24 -25 -26 -27 -28 -29 -30 -31
leaf_value=-0.0025557512394717551 0.0019421425420087697 -0.00016271370036698987 0.0050903461438294145 0.00097746046343696771 0.0064653213410251348 -0.0008165019620883843 0.012588840765212106 0.0046190847152333498 0.0060109175509571568 0.0020558854989238917 -0.00035571559019881874 9.462260754985941e-05 0.0064860019348561759 0.0053695012608543039 -0.0019527932515078952 0.0067418176750633869 0.0096596071766937696 0.0034074664229090273 -0.001935724483977634 0.0063242952685633839 0.011452896206418603 0.0097178131816002059 0.0068991793672374766 -0.001011340659794735 0.00055665182626384784 0.008419663410292183 0.0036893676033300797 -0.0014008149332780399 0.0052526033349110544 0.0091544469844825043
leaf_weight=12247 985 2539 439 1694 518 4008 326 1115 484 482 4906 26 70 59 4267 374 857 920 3319 76 277 962 217 3574 4251 228 796 6184 625 175
leaf_count=12247 985 2539 439 1694 518 4008 326 1115 484 482 4906 26 70 59 4267 374 857 920 3319 76 277 962 217 3574 4251 228 796 6184 625 175
internal_value=3.60529e-07 -0.00115662 0.00639468 0.000119649 0.00466185 -0.0019321 0.00853558 0.00361987 0.0076331 0.00188235 -0.000223328 0.006775 0.00795741 0.0102396 -0.00140235 0.00815607 0.00883675 0.0026528 -0.00242387 0.00975798 0.0104811 0.00947497 0.00499769 -0.000632477 0.000287232 0.00679719 0.00307773 -0.00162663 0.00505166 0.00753157
internal_weight=57000 48267 8733 18242 4829 30025 3904 3237 2557 2972 15270 1592 941 1347 14459 2118 1406 1905 15566 423 347 1021 1332 8480 6790 712 1278 10451 651 549
internal_count=57000 48267 8733 18242 4829 30025 3904 3237 2557 2972 15270 1592 941 1347 14459 2118 1406 1905 15566 423 347 1021 1332 8480 6790 712 1278 10451 651 549
is_linear=0
shrinkage=0.03


Tree=6
num_leaves=31
num_cat=0
split_feature=23 15 13 15 15 24 24 24 23 23 23 19 27 23 19 31 15 24 19 20 21 22 19 24 15 31 29 20 19 24
split_gain=441.037 56.205 41.6435 10.692 7.75072 7.63868 6.81838 5.13423 3.88444 3.02943 2.74685 2.58198 2.14718 2.1333 1.90904 1.79087 1.59467 1.38527 1.36382 1.33595 1.07673 1.064 1.05964 0.98369 0.956282 0.943534 0.921721 0.882903 0.804292 0.724949
threshold=0.47190765247526995 0.42746292457588203 0.052189895033728124 0.59239900100573317 0.26571536223060149 0.35560170315678735 0.85047539318913312 0.28236446525718206 0.29048875886200659 0.25354795447561296 0.7644842744712449 0.11552508603816987 9.5000000000000018 0.72461151377208843 0.13951049450335112 32744.314642857145 0.80187919863836699 0.67314349160506293 0.20930254720669098 0.070553050789951069 0.72323801976422286 0.4434961369950508 0.12762193679433639 0.73848486826608806 0.16240051115568158 29966.198159340664 15.500000000000002 0.0090230079615324487 0.10047197168055057 0.3239171747882823
decision_type=2 2 2 2 2 2 2 2 2 2 2 2 2 2 2 2 2 2 2 2 2 2 2 2 2 2 2 2 2 2
left_child=2 4 6 12 24 8 15 13 22 17 -9 -12 -3 -5 -14 23 -15 21 19 -6 -16 -7 -4 -1 -2 -22 29 -20 -21 -13
right_child=1 3 5 7 18 9 -8 10 -10 -11 11 26 14 16 20 -17 -18 -19 27 28 25 -23 -24 -25 -26 -27 -28 -29 -30 -31
leaf_value=-0.000690414278233577 0.00053105437722807233 0.0050926703113439616 4.8029665059008741e-06 0.0070040779310208152 0.0021151102060512047 -0.0010303197594908465 -0.0024519843653661539 0.0050002690369933466 0.0025464127163516959 0.00056159808543326979 0.0055215640248508623 0.0092816399186888311 0.0055123662868867048 0.010539516074346892 0.0059018935958861651 -0.0017700419552636377 0.013538671340224035 -0.0013548857751403769 0.0039853392696673077 0.0030211828915987895 0.0086759669237046044 -0.00032167161867658906 0.00082409556307050651 -0.0014786249809590197 0.0021330410576640823 0.0064371356713213571 0.010177943713152502 0.006246883722262426 0.0046268266805308753 0.0073570943800933862
leaf_weight=2833 468 754 2908 118 334 2893 12866 221 882 1854 217 480 554 579 273 9070 264 2595 264 395 772 5653 2791 2916 1241 255 531 454 1196 369
leaf_count=2833 468 754 2908 118 334 2893 12866 221 882 1854 217 480 554 579 273 9070 264 2595 264 395 772 5653 2791 2916 1241 255 531 454 1196 369
internal_value=4.3644e-07 0.00581335 -0.00119746 0.00786211 0.00327544 -0.000138257 -0.00194627 0.00916193 0.000694216 -0.000560095 0.00820617 0.00864453 0.00647293 0.0109565 0.0070296 -0.00150687 0.0114972 -0.000747062 0.00429414 0.00386774 0.00766914 -0.000562007 0.00040664 -0.00109092 0.00169667 0.00812979 0.00912908 0.00542621 0.00423222 0.00845835
internal_weight=57000 9739 47261 5387 4352 19576 27685 2779 6581 12995 1818 1597 2608 961 1854 14819 843 11141 2643 1925 1300 8546 5699 5749 1709 1027 1380 718 1591 849
internal_count=57000 9739 47261 5387 4352 19576 27685 2779 6581 12995 1818 1597 2608 961 1854 14819 843 11141 2643 1925 1300 8546 5699 5749 1709 1027 1380 718 1591 849
is_linear=0
shrinkage=0.03


Tree=7
num_leaves=31
num_cat=0
split_feature=23 6 24 23 26 23 23 29 24 19 24 24 33 24 31 19 26 24 26 19 19 19 19 23 26 19 24 26 24 31
split_gain=415.279 43.7561 28.1298 12.9809 11.012 8.12156 7.08542 6.10754 5.82481 5.10357 3.87504 3.5135 2.14203 1.93853 1.59979 1.56432 1.53923 1.53344 1.50957 1.33204 1.32102 1.23501 1.19265 1.15265 1.14164 1.02838 0.908347 0.906829 0.850749 0.828134
threshold=0.50562395840214636 0.041569449280913481 0.33101388539628246 0.29048875886200659 20.650000000000002 0.76770090502193222 0.83784156094924256 1.0000000180025095e-35 0.37275269540673289 0.20930254720669098 0.27021206278604554 0.3495512725427406 0.70290292807158605 0.61535237020359912 29703.992500000004 0.12762193679433639 21.01428571428572 0.77089540568897397 21.578571428571433 0.10047197168055057 0.13600785422952819 0.12882974886919268 0.10047197168055057 0.42351175169828431 22.717857142857149 0.22783388777354244 0.61059551041391269 22.00357142857143 0.52766328649775907 32138.431208791215
decision_type=2 2 2 2 2 2 2 2 2 2 2 2 2 2 2 2 2 2 2 2 2 2 2 2 2 2 2 2 2 2
left_child=1 7 4 8 20 21 13 -1 15 16 24 25 -12 18 -10 -3 -8 23 -4 -18 -2 -6 -20 29 -7 -5 -13 -11 -29 -9
right_child=2 3 6 11 5 10 9 17 14 27 12 26 -14 -15 -16 -17 19 -19 22 -21 -22 -23 -24 -25 -26 -27 -28 28 -30 -31
leaf_value=-0.0023178818638841048 0.0024374049638934444 -9.8006937269882511e-05 0.0022132560708694373 0.0024712454131289928 0.0038366573322263283 0.0093963683270982343 0.0032796096639416935 -0.00077517236363694767 -0.00030976100778264278 0.0056861105115275897 0.0090448131263198648 0.0012869818907712389 0.0057748717993920786 0.0010795113151271277 -0.0010369907737505389 0.00080780063469163227 0.0034365661085915115 -0.0018009849495465389 0.0023744291856105091 0.0060622714662192162 0.0052461359339541266 0.0066917690528815518 0.0046176205397480746 0.0012203292112404052 0.012328573662032549 0.0045253174089148465 -0.00025878519336251413 0.0086798892901002785 0.0054663229399503997 -0.0014656592829305312
leaf_weight=14823 221 3869 571 929 173 209 606 2819 4166 211 1621 1275 217 360 7937 3075 260 4832 288 606 530 895 948 186 443 297 463 471 103 3596
leaf_count=14823 221 3869 571 929 173 209 606 2819 4166 211 1621 1275 217 360 7937 3075 260 4832 288 606 530 895 948 186 443 297 463 471 103 3596
internal_value=5.1047e-07 -0.00108868 0.00602018 -0.000101989 0.00774662 0.00844483 0.00433657 -0.00191569 -0.000389537 0.0055152 0.00938809 0.00174432 0.00866374 0.00310564 -0.000786964 0.000302737 0.00446264 -0.00139382 0.00350681 0.00528229 0.00442793 0.00623611 0.0040997 -0.00109509 0.0114091 0.00297457 0.000873555 0.00747692 0.00811897 -0.00116287
internal_weight=57000 48267 8733 22011 4309 3558 4424 26256 19047 2257 2490 2964 1838 2167 12103 6944 1472 11433 1807 866 751 1068 1236 6601 652 1226 1738 785 574 6415
internal_count=57000 48267 8733 22011 4309 3558 4424 26256 19047 2257 2490 2964 1838 2167 12103 6944 1472 11433 1807 866 751 1068 1236 6601 652 1226 1738 785 574 6415
is_linear=0
shrinkage=0.03


Tree=8
num_leaves=31
num_cat=0
split_feature=5 13 15 13 19 31 19 15 31 15 5 31 30 15 15 13 13 5 5 33 28 13 30 31 15 14 19 33 7 34
split_gain=310.958 58.2996 27.275 10.1364 7.65619 6.53319 6.37893 3.97614 3.46617 2.73191 2.49229 1.90613 1.84652 1.63625 1.50216 1.45791 1.37652 1.34375 1.24375 1.19319 1.09862 1.06695 1.01464 1.00593 0.977177 0.89236 0.884365 0.944445 0.859862 0.835015
threshold=0.21423260538028768 0.066423312956355243 0.5492569072098249 0.026151641662582978 0.14121922670346368 28824.766785714291 0.13951049450335112 0.28041806940901898 24265.878214285716 0.36049670728578198 0.11882685186317347 32405.868571428578 2.7610000000000006 0.70231889974376427 0.80187919863836699 0.13785642447144822 0.21914285962321692 0.084812791704081153 0.0085261577933091314 -0.73866753694953124 66.850000000000023 0.37219146310348622 3.5908333333333338 30026.969642857148 0.34910486602893404 0.045096108098839953 0.11552508603816987 -0.71504373327588355 0.049490246888043592 0.51849435583340198
decision_type=2 2 2 2 2 2 2 2 2 2 2 2 2 2 2 2 2 2 2 2 2 2 2 2 2 2 2 2 2 2
left_child=1 3 6 18 26 7 15 17 14 -8 24 25 13 -9 -6 -2 -15 -3 -1 -16 22 -11 -14 -10 -7 -5 27 29 -26 -4
right_child=2 5 4 11 8 10 9 12 23 21 -12 -13 20 16 19 -17 -18 -19 -20 -21 -22 -23 -24 -25 28 -27 -28 -29 -30 -31
leaf_value=-0.0023320214962001583 0.00076015020856498659 -3.5115605420082013e-05 0.0033345458412143802 -0.00079050074758776738 0.0086708617791066527 -0.00044784695345448659 0.0032953215314456795 0.0024790426379818552 0.0075157155720061821 0.0048445421124893671 0.00096112869495566691 -0.0014074104555618693 0.0032685064088374132 0.0094364277238373536 0.0089756939978330955 0.0028535314795563003 0.0037335081950146706 0.0010669542632630621 -0.0017996437483791701 0.013362917954639701 0.00089187043715130529 0.0064202406258936163 0.0010621177230404793 0.0055054446365348222 0.002299279612563928 0.00081169162541262091 0.005687259222380817 0.0025023994437188548 0.0001337901322598388 0.0084355192112393271
leaf_weight=11662 385 1752 69 6523 675 5534 939 935 1661 1593 1926 7501 452 58 118 1431 124 2290 6113 148 1206 552 331 290 184 326 317 278 1571 56
leaf_count=11662 385 1752 69 6523 675 5534 939 935 1661 1593 1926 7501 452 58 118 1431 124 2290 6113 148 1206 552 331 290 184 326 317 278 1571 56
internal_value=5.69841e-07 -0.000927803 0.00528882 -0.00167022 0.00726788 0.000529598 0.00382817 0.00121016 0.00795917 0.00466003 1.29632e-06 -0.00107659 0.00201756 0.00299626 0.00947631 0.00241204 0.00560895 0.000588631 -0.00214921 0.0114688 0.0014652 0.00525424 0.00234216 0.00722142 -0.000252009 -0.000713694 0.00447983 0.00351092 0.000363716 0.0056924
internal_weight=57000 48488 8512 32125 3612 16363 4900 7148 2892 3084 9215 14350 3106 1117 941 1816 182 4042 17775 266 1989 2145 783 1951 7289 6849 720 403 1755 125
internal_count=57000 48488 8512 32125 3612 16363 4900 7148 2892 3084 9215 14350 3106 1117 941 1816 182 4042 17775 266 1989 2145 783 1951 7289 6849 720 403 1755 125
is_linear=0
shrinkage=0.03


Tree=9
num_leaves=31
num_cat=0
split_feature=27 15 13 20 15 19 27 29 20 31 20 27 19 37 31 31 27 15 19 31 20 20 6 30 15 19 19 20 25 27
split_gain=355.22 52.1072 33.5186 10.1219 9.51712 7.34485 5.84559 5.42241 4.94537 2.88147 2.73309 2.55586 2.41551 1.94273 1.84528 1.58477 1.53454 1.49891 1.43877 1.41583 1.21311 1.18198 1.14303 1.09303 1.09174 1.09006 0.977968 0.943342 0.924945 0.885167
threshold=4.5000000000000009 0.45538701593493619 0.052189895033728124 0.0065278711740845525 0.28693162041346137 0.19162312442139648 1.5000000000000002 1.0000000180025095e-35 0.28070116645242355 27442.986785714289 0.32446624522689255 51.050000000000004 0.28382594742393391 4.5000000000000009 24415.729285714289 29512.234642857147 51.050000000000004 0.16240051115568158 0.20930254720669098 28953.294285714288 0.094415579404125358 0.16819465342217357 0.075623752642096434 2.0283333333333338 0.036340539759533087 0.10381806411901294 0.10381806411901294 0.0090230079615324487 20.550000000000004 61.150000000000006
decision_type=2 2 2 2 2 2 2 2 2 2 2 2 2 2 2 2 2 2 2 2 2 2 2 2 2 2 2 2 2 2
left_child=2 4 7 16 17 10 9 -1 12 -4 26 18 21 23 -10 -15 -3 -2 20 28 -6 -7 -11 -12 -9 -22 -5 -20 -8 -19
right_child=1 3 6 5 11 8 19 24 14 22 13 -13 -14 15 -16 -17 -18 29 27 -21 25 -23 -24 -25 -26 -27 -28 -29 -30 -31
leaf_value=-0.0021588322504836753 0.000307615749783366 0.0038360410284882297 0.00030301799372203667 0.0024987984268218838 0.0023602342930898203 0.0052436855323774621 2.8328151377299487e-05 -0.0017450474970082642 0.011783359886949858 -0.00091338685671291369 0.00064946549140701155 0.000213540662746161 0.008982137382701736 0.0083937968942030469 0.0091057932063340896 0.0054463557529613946 -0.00021423461115794323 0.0021354900942327721 0.0037177018175971167 0.00043955137307667621 0.0028453160050695382 0.0074447882788427327 -0.00032512249561300632 0.0058159200128767696 -0.0011194395618487753 0.0046799220883698769 0.00536088487684963 0.0059716535177872041 0.0020938197637137314 -0.0011634034867839592
leaf_weight=15509 689 207 4151 132 427 398 237 3631 426 5859 56 150 640 744 630 230 139 1560 255 1552 414 580 6081 117 8391 1138 801 593 1188 75
leaf_count=15509 689 207 4151 132 427 398 237 3631 426 5859 56 150 640 744 630 230 139 1560 255 1552 414 580 6081 117 8391 1138 801 593 1188 75
internal_value=6.34585e-07 0.00501325 -0.00111821 0.00717838 0.00292869 0.00753922 -0.000151229 -0.0017878 0.00858484 -0.000377312 0.00619008 0.00405224 0.00752391 0.007181 0.0101989 0.00770717 0.00220433 0.00148703 0.00425471 0.00106948 0.00380173 0.00655838 -0.000614089 0.00417413 -0.00130877 0.00419462 0.00496228 0.00530258 0.00175266 0.00198171
internal_weight=57000 10401 46599 5100 5301 4754 19068 27531 2674 16091 2080 2977 1618 1147 1056 974 346 2324 2827 2977 1979 978 11940 173 12022 1552 933 848 1425 1635
internal_count=57000 10401 46599 5100 5301 4754 19068 27531 2674 16091 2080 2977 1618 1147 1056 974 346 2324 2827 2977 1979 978 11940 173 12022 1552 933 848 1425 1635
is_linear=0
shrinkage=0.03


Tree=10
num_leaves=31
num_cat=0
split_feature=23 5 15 15 23 24 24 24 19 31 24 15 23 15 22 19 24 24 23 24 15 33 23 19 31 19 36 5 31 19
split_gain=351.379 39.4449 37.8909 8.99233 8.72418 7.36789 5.4549 3.36179 2.54703 2.17961 2.11285 2.02127 1.741 1.33573 1.05561 1.00317 0.939593 0.922002 0.878591 0.874962 0.866722 0.821241 0.766052 0.753124 0.729372 0.700851 0.659434 0.657289 0.644078 0.643528
threshold=0.50562395840214636 0.055791664517505037 0.51748065953654743 0.32172188256389955 0.35419007335685532 0.8384276021244198 0.2873591423524951 0.35257712383940953 0.1638795259298482 30525.26178571429 0.35111373495387127 0.7307264722547564 0.7644842744712449 0.40075294313387416 0.43916545947928276 0.10433894188893313 0.668698529158403 0.70297736732350335 0.85597806172135427 0.52766328649775907 0.15609948960059802 0.72695311118111527 0.57809945777290839 0.12701581547991844 23560.418928571435 0.22783388777354244 -0.5 0.030702092492244638 30656.10535714286 0.095312979123474736
decision_type=2 2 2 2 2 2 2 2 2 2 2 2 2 2 2 2 2 2 2 2 2 2 2 2 2 2 2 2 2 2
left_child=1 5 3 20 7 9 11 15 21 16 25 22 -10 -5 -9 -3 -1 24 -13 -14 -2 -8 -4 -24 -16 -6 -20 -11 -15 -23
right_child=2 4 6 13 10 -7 8 14 12 27 -12 18 19 28 17 -17 -18 -19 26 -21 -22 29 23 -25 -26 -27 -28 -29 -30 -31
leaf_value=-0.00019454153306306578 0.00051634147628138274 -3.2579946700347233e-05 0.0030746303408273625 0.0040074418167175821 0.0025945270609028714 -0.0021574278423505166 0.0061895221491597222 -0.00091593350410122448 0.0050308990102274484 -0.0016547021186196762 0.001106195933648865 0.0083981145568007287 0.0081516079455048601 0.005648576214161696 0.0011897508441526075 0.0008316087463127262 -0.0010211337135531567 -0.001313113815017129 0.012637128030058257 0.0031562744173649197 0.0023886729026596698 0.0013117767762215364 0.004399704739451408 0.0088047579942430645 -0.00018677034251303776 0.0045000422453193595 0.0096282549089362918 -0.0012111453138717188 0.0042856591805641954 0.004990810315966784
leaf_weight=1942 265 1848 27 1248 669 13606 658 2675 211 6592 980 120 1438 1360 366 3459 3463 627 257 36 1567 62 43 682 6077 248 133 5715 460 166
leaf_count=1942 265 1848 27 1248 669 13606 658 2675 211 6592 980 120 1438 1360 366 3459 3463 627 257 36 1567 62 43 682 6077 248 133 5715 460 166
internal_value=6.89237e-07 -0.0010012 0.0055379 0.00378769 0.00016442 -0.0016321 0.00777297 -7.70676e-05 0.0069687 -0.00122828 0.00208115 0.00940227 0.00766281 0.00478159 -0.000408088 0.000530167 -0.000724788 -0.000215413 0.0109056 0.00803386 0.00211991 0.00563811 0.00836564 0.00855405 -0.000107938 0.00311748 0.0116459 -0.00144909 0.00530829 0.00401357
internal_weight=57000 48267 8733 4900 16949 31318 3833 15052 2571 17712 1897 1262 1685 3068 9745 5307 5405 7070 510 1474 1832 886 752 725 6443 917 390 12307 1820 228
internal_count=57000 48267 8733 4900 16949 31318 3833 15052 2571 17712 1897 1262 1685 3068 9745 5307 5405 7070 510 1474 1832 886 752 725 6443 917 390 12307 1820 228
is_linear=0
shrinkage=0.03


Tree=11
num_leaves=31
num_cat=0
split_feature=23 15 13 23 15 29 15 33 6 15 23 27 15 34 15 22 15 21 15 29 21 33 29 6 30 29 23 21 23 6
split_gain=330.663 35.663 35.4639 10.2878 8.46079 5.18722 4.03272 2.2702 2.24092 2.20469 1.48297 1.45362 1.26074 1.12427 1.02941 0.9862 0.926773 0.836406 0.826468 0.707565 0.695631 0.683615 0.648871 0.644013 0.641789 0.705389 0.590503 0.534384 0.495891 0.547286
threshold=0.50562395840214636 0.51748065953654743 0.052189895033728124 0.29048875886200659 0.32172188256389955 1.0000000180025095e-35 0.71544315569455808 0.72695311118111527 0.094492007537543679 0.22785983776124466 0.73783466229650874 13.500000000000002 0.40676906839475752 -0.48313741114591585 0.036340539759533087 0.4790237216438244 0.83430042271401905 0.85246680440855827 0.24479661026234859 10.500000000000002 0.90532217091267653 -0.55657520495441892 5.5000000000000009 0.017319247309843227 2.0283333333333338 16.500000000000004 0.35419007335685532 0.88027421491560598 0.97868934306854716 0.018590258457320201
decision_type=2 2 2 2 2 2 2 2 2 2 2 2 2 2 2 2 2 2 2 2 2 2 2 2 2 2 2 2 2 2
left_child=2 4 5 8 18 23 7 11 22 27 -8 -3 -6 16 -7 -10 -12 -11 -2 -13 -21 -15 -4 -1 -9 -26 -19 -5 29 -14
right_child=1 6 3 9 12 14 10 24 15 17 13 19 28 21 -16 -17 -18 26 -20 20 -22 -23 -24 -25 25 -27 -28 -29 -30 -31
leaf_value=-0.0021397899280821411 0.0014229597162998637 0.0060927416998108296 -0.00083493933155927411 7.5269123975014662e-05 0.0039385692832682607 -0.0016271211149049866 0.0045663012735107358 0.00062581983581185344 -0.00035711468582355621 0.0013023208800891873 0.0093118409572233423 0.0066612403200115005 0.00061553041461027329 0.0084403713100610605 -0.0010255190978669653 0.00040145856644943103 0.012021526727225722 0.0015992413778666322 0.0027110236369926799 0.007193797308014783 0.0087905974874822497 0.0034068591114013421 -0.00036523210202267758 -0.0016689916507272636 0.0039370132037184454 0.0091355612255632872 0.0031784426057850259 0.0012610127385596212 0.008414621609322567 0.0051618107927695516
leaf_weight=12049 935 809 4774 667 1357 3704 67 43 2417 520 405 495 26 402 8538 4249 204 301 897 506 679 30 6025 3460 164 29 849 714 46 1639
leaf_count=12049 935 809 4774 667 1357 3704 67 43 2417 520 405 495 26 402 8538 4249 204 301 897 506 679 30 6025 3460 164 29 849 714 46 1639
internal_value=7.37064e-07 0.00537225 -0.000971165 -2.52458e-05 0.00367424 -0.00167034 0.00754063 0.00690872 -0.000306197 0.00158161 0.00908441 0.00717789 0.00463834 0.00936766 -0.00120791 0.000125948 0.0102427 0.00231547 0.0020564 0.00769473 0.00811793 0.00810643 -0.000573215 -0.00203506 0.00403886 0.00477667 0.00276946 0.000690958 0.00518895 0.00509303
internal_weight=57000 8733 48267 20516 4900 27751 3833 2725 17465 3051 1108 2489 3068 1041 12242 6666 609 1670 1832 1680 1185 432 10799 15509 236 193 1150 1381 1711 1665
internal_count=57000 8733 48267 20516 4900 27751 3833 2725 17465 3051 1108 2489 3068 1041 12242 6666 609 1670 1832 1680 1185 432 10799 15509 236 193 1150 1381 1711 1665
is_linear=0
shrinkage=0.03


Tree=12
num_leaves=31
num_cat=0
split_feature=27 15 5 20 15 19 24 24 5 20 27 19 27 27 20 33 19 20 15 24 31 22 19 19 31 19 20 24 19 27
split_gain=296.286 43.402 29.9375 8.86411 7.95986 7.58785 5.97572 3.41589 2.81228 2.77683 2.6468 2.31696 2.14619 2.14331 2.0314 1.86043 1.39403 1.26151 1.25657 1.25595 1.23799 1.21153 1.07477 0.965961 0.921659 0.915766 0.863546 0.819033 0.809996 0.767201
threshold=4.5000000000000009 0.45538701593493619 0.03985206441901324 0.10145480726227411 0.28693162041346137 0.19162312442139648 0.35560170315678735 0.86476031113331719 0.25548590586239212 0.32446624522689255 2.5000000000000004 0.28949406732881733 64.350000000000009 1.5000000000000002 0.32446624522689255 0.71503381463111937 0.20930254720669098 0.10145480726227411 0.16240051115568158 0.30742944666636735 24415.729285714289 0.46680743095055904 0.10381806411901294 0.25806456379834708 29899.785467032973 0.10381806411901294 0.0090230079615324487 0.69844351099064783 0.13522283481963168 61.150000000000006
decision_type=2 2 2 2 2 2 2 2 2 2 2 2 2 2 2 2 2 2 2 2 2 2 2 2 2 2 2 2 2 2
left_child=2 4 7 8 18 14 10 24 -3 11 28 -7 16 21 25 19 17 -6 -2 -16 -11 -8 -19 -10 -1 -5 -18 -23 -4 -20
right_child=1 3 6 5 12 9 13 -9 23 20 -12 -13 -14 -15 15 -17 26 22 29 -21 -22 27 -24 -25 -26 -27 -28 -29 -30 -31
leaf_value=-0.00085514411417280138 0.00027727599506319878 0.00069601587157158717 5.9615613088824342e-05 0.002141923361241953 0.0020916425920468533 0.0066004886556770689 -0.00098911321601302281 -0.0020728256883583759 0.0027878552284940862 0.011202532830429933 0.0022228678270363894 0.0090748214798088197 -0.0005853883406921925 0.000418555768596028 0.008553210348970006 0.0041356766307961285 0.0034154592642433442 0.0025187364556509663 0.0019537619112048213 0.006200591143797507 0.0086213273064368219 -0.0002442714198879566 0.0043456368381628264 0.0056017517335554311 -0.0014979914031724921 0.0050060006397839559 0.0055275098219586798 -0.001037508559907422 0.0008097443991025862 -0.0011159178716081536
leaf_weight=2504 689 223 3237 123 503 991 5468 12276 169 333 788 557 100 1941 377 237 270 414 1560 533 441 5999 1097 366 10755 750 593 1461 2170 75
leaf_count=2504 689 223 3237 123 503 991 5468 12276 169 333 788 557 100 1941 377 237 270 414 1560 533 441 5999 1097 366 10755 750 593 1461 2170 75
internal_value=7.94028e-07 0.00457875 -0.00102103 0.0065548 0.00267618 0.00707836 -0.000183634 -0.00171165 0.00354636 0.00825343 0.000598908 0.00749802 0.00370375 -0.000509892 0.00572272 0.00656317 0.00385403 0.00341289 0.00135756 0.00718686 0.00974874 -0.000649542 0.00384906 0.00472533 -0.00137689 0.00460882 0.00487492 -0.000400143 0.000361315 0.00181052
internal_weight=57000 10401 46599 5100 5301 4342 21064 25535 758 2322 6195 1548 2977 14869 2020 1147 2877 2014 2324 910 774 12928 1511 535 13259 873 863 7460 5407 1635
internal_count=57000 10401 46599 5100 5301 4342 21064 25535 758 2322 6195 1548 2977 14869 2020 1147 2877 2014 2324 910 774 12928 1511 535 13259 873 863 7460 5407 1635
is_linear=0
shrinkage=0.03


Tree=13
num_leaves=31
num_cat=0
split_feature=23 5 15 15 23 29 24 24 15 19 24 24 27 15 23 19 23 19 19 29 33 15 23 21 5 23 1 20 19 20
split_gain=293.084 33.2356 31.6337 7.50782 7.23006 6.23717 4.84293 2.87074 2.0662 1.89577 1.84276 1.68065 1.45124 1.12606 1.06537 0.959001 0.925792 0.905478 0.871164 0.813956 0.759472 0.748939 0.734242 0.727897 0.719457 0.689355 0.67625 0.645245 0.79469 0.776958
threshold=0.50562395840214636 0.056413357471161649 0.51748065953654743 0.32172188256389955 0.35419007335685532 1.0000000180025095e-35 0.2991153685658175 0.35257712383940953 0.71544315569455808 0.11552508603816987 0.35723086640190821 0.77089540568897397 13.500000000000002 0.40075294313387416 0.94097233603059316 0.12701581547991844 0.2182782344169594 0.053588979749961116 0.10433894188893313 17.500000000000004 0.73865729060996177 0.18323412904459399 0.57809945777290839 0.71154508864329025 0.01986584377524769 0.42351175169828431 0.16233324945227898 -0.011030147071319897 0.26628623671897528 0.12385084361214148
decision_type=2 2 2 2 2 2 2 2 2 2 2 2 2 2 2 2 2 2 2 2 2 2 2 2 2 2 2 2 2 2
left_child=1 5 3 21 7 24 8 18 15 20 23 17 -11 -5 -10 -4 -9 -7 -3 -14 -8 -2 -17 -6 -1 -19 -24 -15 29 -29
right_child=2 4 6 13 10 11 9 16 14 12 -12 -13 19 27 -16 22 -18 25 -20 -21 -22 -23 26 -25 -26 -27 -28 28 -30 -31
leaf_value=-0.0020112901755135154 0.00079453298715890337 -2.1900599429607229e-05 0.0040075093334564918 0.0036553801418124756 0.0012796153590787906 -0.0012638190847910505 0.0050453913377440842 -0.00057743082603871972 0.0085068434882492466 0.0052341409486169064 0.0009423056895762076 -0.0014904185306604859 0.0066218743989542488 0.0019810412389704504 0.01107569554266268 0.0025345073855881179 4.6141277464877555e-05 -0.00069433030695386429 0.00078533181105270395 0.0084157283589925986 0.001962585720216686 0.0022623000580845806 0.0074192926279940388 0.0032711080000870324 -0.0014980907880823655 0.001329113321100073 0.0098395362545648044 0.0032331746611668787 0.0068198960444635966 0.0050459574230578719
leaf_weight=12640 412 1836 76 1248 221 3138 248 6330 388 555 918 5470 926 73 295 27 3226 6992 3451 354 109 1420 708 752 3140 153 147 277 197 1273
leaf_count=12640 412 1836 76 1248 221 3138 248 6330 388 555 918 5470 926 73 295 27 3226 6992 3451 354 109 1420 708 752 3140 153 147 277 197 1273
internal_value=8.37501e-07 -0.000914168 0.00505791 0.00345863 0.000166305 -0.00148764 0.00710018 -5.61225e-05 0.00834266 0.00616527 0.0019129 -0.00106481 0.00655896 0.00436686 0.00963533 0.00740884 -0.000366623 -0.000837991 0.000504488 0.00712651 0.00412063 0.00193446 0.00769365 0.00282363 -0.00190946 -0.000650401 0.00784992 0.0048508 0.0049678 0.00472622
internal_weight=57000 48267 8733 4900 16734 31533 3833 14843 1641 2192 1891 15753 1835 3068 683 958 9556 10283 5287 1280 357 1832 882 973 15780 7145 855 1820 1747 1550
internal_count=57000 48267 8733 4900 16734 31533 3833 14843 1641 2192 1891 15753 1835 3068 683 958 9556 10283 5287 1280 357 1832 882 973 15780 7145 855 1820 1747 1550
is_linear=0
shrinkage=0.03


Tree=14
num_leaves=31
num_cat=0
split_feature=23 5 15 23 15 31 31 31 20 15 33 5 5 31 15 23 23 5 23 23 15 21 10 31 31 31 21 20 23 33
split_gain=275.81 31.2765 29.7722 7.27677 7.06476 5.00917 4.14965 2.74357 2.18531 1.81286 1.69615 1.65492 1.49576 1.24693 1.06249 0.897129 0.888514 0.834275 0.783313 0.737356 0.709517 0.707021 0.618096 0.608523 0.587158 0.553929 0.552462 0.544588 0.537488 0.484654
threshold=0.50562395840214636 0.051436903253664963 0.51748065953654743 0.35419007335685532 0.32172188256389955 33367.044120879131 26195.929532967039 28824.766785714291 0.19473309297643709 0.80187919863836699 0.69056404122701587 0.20565987753622256 0.013326944318708093 30026.969642857148 0.40676906839475752 0.2182782344169594 0.81655244316346898 0.083664731021251784 0.95761533788333242 0.42351175169828431 0.24479661026234859 0.92125081603411296 0.016962238813339105 30656.10535714286 29773.876428571431 29899.785467032973 0.87125414909052312 0.1320089635488613 0.7031749144121856 0.99053107487289871
decision_type=2 2 2 2 2 2 2 2 2 2 2 2 2 2 2 2 2 2 2 2 2 2 2 2 2 2 2 2 2 2
left_child=1 5 4 7 20 19 8 15 28 18 13 24 -7 16 -6 -3 -8 -9 22 25 -2 -18 -10 27 -5 -1 -20 -16 -4 -29
right_child=2 3 6 11 14 12 10 17 9 -11 -12 -13 -14 -15 23 -17 21 -19 26 -21 -22 -23 -24 -25 -26 -27 -28 29 -30 -31
leaf_value=-0.00066444535546810889 0.0012892569838972915 8.5131664253589926e-05 0.0037338665365995519 0.001775223330695357 0.0035931286183201305 -0.0019340253414691262 0.0050697316160030854 -0.00067474699450134612 0.0018125646742326871 0.010616495251035443 0.0032991547844758843 0.002932594803790945 -0.0014123163726160472 0.004844762379315643 0.0040650471627529444 0.00080937514634812392 0.0056857729778292451 -0.0001166136123484668 0.0073863099237404216 0.0012677281294383909 0.0024832200033028605 0.0075509718311246206 0.0074731898485364467 0.0037242848488831378 0.00041256632886217377 -0.0011450391488847492 0.010265243510093268 0.0056246565914950955 0.0065628441398702109 0.0014068646122990496
leaf_weight=4129 935 4004 87 598 1357 13005 268 5489 20 311 204 759 8109 462 376 2511 279 4324 122 139 897 832 717 434 557 4643 204 873 327 28
leaf_count=4129 935 4004 87 598 1357 13005 268 5489 20 311 204 759 8109 462 376 2511 279 4324 122 139 897 832 717 434 557 4643 204 873 327 28
internal_value=8.87402e-07 -0.000886743 0.00490668 9.28428e-05 0.00335513 -0.00148198 0.00688796 -0.000112169 0.00795318 0.00853895 0.0059517 0.00184248 -0.00173388 0.00624205 0.00423617 0.00036481 0.00670415 -0.000429154 0.0079189 -0.000884677 0.00187653 0.00709081 0.00732631 0.00474202 0.0011216 -0.000919266 0.00922291 0.00508237 0.00598601 0.00549861
internal_weight=57000 48267 8733 18242 4900 30025 3833 16328 1788 1374 2045 1914 21114 1841 3068 6515 1379 9813 1063 8911 1832 1111 737 1711 1155 8772 326 1277 414 901
internal_count=57000 48267 8733 18242 4900 30025 3833 16328 1788 1374 2045 1914 21114 1841 3068 6515 1379 9813 1063 8911 1832 1111 737 1711 1155 8772 326 1277 414 901
is_linear=0
shrinkage=0.03


Tree=15
num_leaves=31
num_cat=0
split_feature=23 13 15 23 15 29 15 6 33 6 23 27 34 15 15 25 15 15 27 20 29 30 29 20 33 23 25 29 29 28
split_gain=259.557 28.0458 28.0214 8.17934 6.64767 4.14475 3.25274 1.92059 1.8418 1.4456 1.29949 1.22869 1.01372 1.00089 0.848951 0.788031 0.754586 0.691008 0.644943 0.606644 0.600186 0.598225 0.656306 0.596401 0.58182 0.547922 0.538232 0.512285 0.504046 0.583079
threshold=0.50562395840214636 0.052189895033728124 0.51748065953654743 0.23274045599357424 0.32172188256389955 1.0000000180025095e-35 0.71544315569455808 0.17546300530796241 0.72695311118111527 0.094492007537543679 0.73783466229650874 13.500000000000002 -0.48313741114591585 0.40075294313387416 0.046119077744524332 22.475000000000005 0.83430042271401905 0.15609948960059802 3.5000000000000004 0.10145480726227411 10.500000000000002 2.0283333333333338 16.500000000000004 -0.011030147071319897 -0.55657520495441892 0.35419007335685532 20.550000000000004 4.5000000000000009 5.5000000000000009 44.90000000000002
decision_type=2 2 2 2 2 2 2 2 2 2 2 2 2 2 2 2 2 2 2 2 2 2 2 2 2 2 2 2 2 2
left_child=1 5 4 9 17 -1 8 15 11 28 -8 19 16 -6 -7 -5 -12 -2 -17 -4 -13 -10 -23 -15 -14 -9 -22 -11 -3 -30
right_child=2 3 6 7 13 14 10 25 21 27 12 20 24 23 -16 18 -18 -19 -20 -21 26 22 -24 -25 -26 -27 -28 -29 29 -31
leaf_value=-0.0018079512538108457 0.00038781546055351531 -0.00076407415105941661 0.0032532800116390776 2.1504371649208376e-05 0.0034380989848183854 -0.0013419475651163504 0.0038506861210198082 0.0012387597442884372 0.00024585602398623121 -0.00028057995585527334 0.0083188859608180343 0.005881209521259147 0.0074498611466771933 0.0018078487636458533 -0.00083798289752762571 0.00064629551908033163 0.010769058559603263 0.0020602870332447252 0.0018469763197795522 0.0057063957395775897 0.0049450888407000706 0.0034329834774475204 0.0084297998134046804 0.0046783330406702187 0.0028191336865626996 0.0025249896832831016 0.0074278050163877618 0.0002789687555725649 -0.00011607926315021688 -0.00075359818344952311
leaf_weight=15509 265 4682 117 958 1248 5591 67 464 43 2493 405 495 402 73 6651 1095 204 1567 649 692 102 164 29 1747 30 914 1083 3589 3668 2004
leaf_count=15509 265 4682 117 958 1248 5591 67 464 43 2493 405 495 402 73 6651 1095 204 1567 649 692 102 164 29 1747 30 914 1083 3589 3668 2004
internal_value=9.40687e-07 -0.000860138 0.00475999 -1.89307e-05 0.00325472 -0.0014819 0.00668216 0.00118302 0.00611436 -0.000317533 0.00806912 0.00635686 0.00833379 0.00410938 -0.00106848 0.000716055 0.00916086 0.00182034 0.00109563 0.00535978 0.00683175 0.00352808 0.00423885 0.0045659 0.00714246 0.00209528 0.00722098 4.91092e-05 -0.000533174 -0.000341946
internal_weight=57000 48267 8733 20516 4900 27751 3833 4080 2725 16436 1108 2489 1041 3068 12242 2702 609 1832 1744 809 1680 236 193 1820 432 1378 1185 6082 10354 5672
internal_count=57000 48267 8733 20516 4900 27751 3833 4080 2725 16436 1108 2489 1041 3068 12242 2702 609 1832 1744 809 1680 236 193 1820 432 1378 1185 6082 10354 5672
is_linear=0
shrinkage=0.03


Tree=16
num_leaves=31
num_cat=0
split_feature=23 15 6 15 23 15 15 23 15 13 27 35 6 21 27 27 34 34 20 2 26 21 7 28 15 30 21 28 23 23
split_gain=244.33 31.0658 22.5967 6.90197 4.53912 3.98368 3.16079 2.97796 1.89991 1.80289 1.52769 1.40537 1.16927 1.09784 0.815199 0.770119 0.672662 0.606719 0.599612 0.624071 0.593238 0.567971 0.565452 1.02293 0.542382 0.526087 0.518708 0.454102 0.450125 0.446722
threshold=0.47190765247526995 0.41375191695257912 0.041569449280913481 0.59239900100573317 0.23274045599357424 0.26571536223060149 0.030641706971827779 0.72461151377208843 0.83430042271401905 0.083009764752110624 9.5000000000000018 0.68301270189221941 0.12678524825292395 0.70566385233428741 0.25000000000000006 0.15000000000000005 -0.21022037796396451 0.82293497932636273 0.32446624522689255 0.15046523909194551 26.872142857142858 0.66397235645153052 0.27214623738565102 15.100000000000007 0.16240051115568158 2.2216666666666671 0.90083960131481799 210.05000000000004 0.96102120776213262 0.79163998705294036
decision_type=2 2 2 2 2 2 2 2 2 2 2 2 2 2 2 2 2 2 2 2 2 2 2 2 2 2 2 2 2 2
left_child=2 5 6 10 9 24 -1 -5 11 15 27 17 26 -12 -8 -4 -10 18 19 -9 28 29 23 -11 -2 -13 -6 -3 -15 -7
right_child=1 3 4 7 12 21 14 8 16 22 13 25 -14 20 -16 -17 -18 -19 -20 -21 -22 -23 -24 -25 -26 -27 -28 -29 -30 -31
leaf_value=-0.0017772728434513423 0.00035682632902165256 0.0039051614256872327 -0.0010315891223171144 0.0040213630350794897 -0.00024696436705339545 0.0011056036703812424 -0.0013522046037776042 0.0052179355942833187 0.010149581379762717 0.0003552674296958666 0.0037163596790292255 0.00028085101310695924 0.0014965239137268731 0.005414662389331833 -0.00084803268488084992 -0.0004437688129000494 0.0049124395777621578 0.0017039312865923749 0.0076515370400524448 0.0070216204587498481 0.003654080132342071 0.0034221650424580202 0.00041202990799143286 -0.00041631650646018837 0.0015651718504612879 0.004858857890304465 0.00083741618337504714 0.0017336439157564505 0.0067660490202270012 0.0028624763832739968
leaf_weight=14450 468 729 3047 308 743 191 6129 270 244 2280 390 34 1513 1122 5566 5973 30 21 1063 732 152 1752 1932 4785 1241 77 843 107 335 473
leaf_count=14450 468 729 3047 308 743 191 6129 270 244 2280 390 34 1513 1122 5566 5973 30 21 1063 732 152 1752 1932 4785 1241 77 843 107 335 473
internal_value=9.82759e-07 0.00432758 -0.000890602 0.00578027 -0.000160499 0.00234887 -0.00148013 0.00684676 0.00719595 -0.000343048 0.00473175 0.00688965 0.000899605 0.00518761 -0.0011126 -0.000642762 0.00960703 0.0070669 0.00711914 0.00654428 0.00553983 0.0031337 -4.21952e-05 -0.000166873 0.00123643 0.0034984 0.000327686 0.00363322 0.00573186 0.00236404
internal_weight=57000 9739 47261 5614 21116 4125 26145 2779 2471 18017 2835 2197 3099 1999 11695 9020 274 2086 2065 1002 1609 2416 8997 7065 1709 111 1586 836 1457 664
internal_count=57000 9739 47261 5614 21116 4125 26145 2779 2471 18017 2835 2197 3099 1999 11695 9020 274 2086 2065 1002 1609 2416 8997 7065 1709 111 1586 836 1457 664
is_linear=0
shrinkage=0.03


Tree=17
num_leaves=31
num_cat=0
split_feature=23 13 20 23 6 33 29 1 20 6 1 1 34 20 21 13 7 29 34 34 1 33 8 23 6 6 13 12 23 33
split_gain=230.021 24.899 17.3019 6.39734 5.71188 5.1363 4.97257 3.63935 3.2602 1.43448 1.22649 1.09454 1.08305 1.0768 1.07305 1.05124 0.909616 0.850973 0.665799 0.605551 0.663871 0.56851 0.55827 0.556225 0.553819 0.544867 0.53351 0.502314 0.478906 0.474494
threshold=0.50562395840214636 0.062474363994786952 0.18509613794808091 0.35419007335685532 0.33153832851875303 0.73865729060996177 1.0000000180025095e-35 0.14874113676207168 0.32446624522689255 0.098622680433781224 0.098256304932568442 0.15721025902737856 0.39629089145655322 -0.013335648794084892 0.76048415688359472 0.03140269074779329 0.66262411918854724 8.5000000000000018 -0.98212955754013376 0.39629089145655322 0.11528268828562674 0.79383249484937135 0.16294661760378318 0.94915332420484333 0.24796342990855166 0.017319247309843227 0.10790876131341794 0.45034457341988798 0.91323439059725764 0.99053107487289871
decision_type=2 2 2 2 2 2 2 2 2 2 2 2 2 2 2 2 2 2 2 2 2 2 2 2 2 2 2 2 2 2
left_child=1 6 4 9 10 7 25 8 -4 22 -2 -6 23 -12 -5 -8 18 -11 -10 20 -15 -22 -3 -9 -16 -1 -20 -14 -7 -30
right_child=2 3 5 14 11 28 15 12 16 17 13 -13 27 19 24 -17 -18 -19 26 -21 21 -23 -24 -25 -26 -27 -28 -29 29 -31
leaf_value=-0.0017920776866550544 0.0014406865339248558 -0.00021825303555262444 0.0046876346307133622 0.00059175836906313775 0.0040176377868916917 0.0024989626451423748 -0.0012298870775624292 0.007445957110276253 0.0042807269889989308 -4.2844987055147407e-05 0.001481970720618974 0.005846822683800647 0.0038011303912622459 0.0027588113379431369 0.0017798318105999101 -0.00071559947047299035 0.0090746094195095633 0.00064952495531565607 0.002089111205978462 0.001204476270623116 0.0046159786856542389 0.0019871675417825734 -0.00076912415795908368 0.0091531616521610959 0.0031223847442628213 -0.0013776637655815418 0.0068125711415525578 0.0079522200657853055 0.0045985088236270375 0.00035491001207766862
leaf_weight=12052 970 6639 1600 536 822 361 6125 579 130 4125 456 495 98 721 955 8738 145 2599 25 133 461 96 2218 330 408 3872 984 41 258 28
leaf_count=12052 970 6639 1600 536 822 361 6125 579 130 4125 456 495 98 721 955 8738 145 2599 25 133 461 96 2218 330 408 3872 984 41 258 28
internal_value=1.01923e-06 -0.000809585 0.00448113 9.45283e-05 0.00307637 0.0057539 -0.001323 0.00616271 0.00560391 -0.000105692 0.00231493 0.00471134 0.00769081 0.00276652 0.00173808 -0.000927806 0.00673881 0.000224385 0.00643112 0.00317819 0.00338014 0.00417265 -0.000356614 0.00807841 0.00218591 -0.00169159 0.00670069 0.00509504 0.00325915 0.00419619
internal_weight=57000 48267 8733 17480 4154 4579 30787 3932 2884 15581 2837 1317 1048 1867 1899 14863 1284 6724 1139 1411 1278 557 8857 909 1363 15924 1009 139 647 286
internal_count=57000 48267 8733 17480 4154 4579 30787 3932 2884 15581 2837 1317 1048 1867 1899 14863 1284 6724 1139 1411 1278 557 8857 909 1363 15924 1009 139 647 286
is_linear=0
shrinkage=0.03


Tree=18
num_leaves=31
num_cat=0
split_feature=27 15 5 20 19 15 24 20 27 24 19 19 20 31 19 19 20 19 31 15 20 24 19 20 19 2 27 31 20 24
split_gain=206.426 35.1075 18.5702 8.77876 7.36768 4.34523 3.82403 2.43734 2.31753 2.0833 1.96427 1.92855 1.83206 1.29068 1.22753 1.18156 1.12295 1.44086 1.04005 0.903338 0.788113 0.671823 0.648002 0.621176 0.652253 0.563891 0.544564 0.537937 0.532793 0.523322
threshold=3.5000000000000004 0.40676906839475752 0.037735115766136119 0.10145480726227411 0.19162312442139648 0.26049003565439172 0.37275269540673289 0.32446624522689255 62.350000000000001 0.86476031113331719 0.11552508603816987 0.28949406732881733 0.29387711915818809 28824.766785714291 0.12762193679433639 0.27677105844809968 -0.023576895329130234 0.20930254720669098 24415.729285714289 0.16240051115568158 0.56788285815295059 0.66474034779160984 0.25806456379834708 0.075950542765016046 0.092772344356699635 0.1181511188098693 0.25000000000000006 29899.785467032973 -0.022248393583426975 0.30573895214952967
decision_type=2 2 2 2 2 2 2 2 2 2 2 2 2 2 2 2 2 2 2 2 2 2 2 2 2 2 2 2 2 2
left_child=2 5 9 8 10 19 14 11 15 27 -5 -6 -12 21 -4 -3 22 23 -9 -2 -14 -8 -7 -18 -25 -21 -15 -1 -17 -16
right_child=1 3 6 4 7 16 13 18 -10 -11 12 -13 20 26 29 28 17 -19 -20 25 -22 -23 -24 24 -26 -27 -28 -29 -30 -31
leaf_value=-0.00075815365610435478 0.0001867285964244575 0.0023490303407787648 -3.4214212743480182e-05 0.0032491182668456025 0.005500822510254526 -4.4149106404153941e-05 0.00023187528625575785 0.009590371450888896 -0.00054805451102503053 -0.0017388411098924078 0.0039860568145965803 0.0076619177276012248 0.0057123012460292286 -0.0010125846749259894 0.0012630580243630488 0.0031126921657926463 0.0014202954441452254 0.0043677619375615912 0.0072368502670991748 0.00050896458869401334 0.0088655212337215381 -0.00057331947725552262 0.0024269142605045815 0.0015778660746266658 0.0031117308473093794 0.0017391655516621146 -0.00054901460811646974 -0.0012784278475458891 0.005349636832734218 0.000458486133391606
leaf_weight=2217 943 531 4119 774 1195 201 2385 333 161 12268 750 573 815 3746 1147 173 389 479 441 494 86 1528 177 330 1209 1105 5978 10143 265 2045
leaf_count=2217 943 531 4119 774 1195 201 2385 333 161 12268 750 573 815 3746 1147 173 389 479 441 494 86 1528 177 330 1209 1105 5978 10143 265 2045
internal_value=1.05923e-06 0.00360693 -0.000902775 0.0051616 0.0057053 0.00182633 -0.000245977 0.00683751 0.00276615 -0.00146128 0.00451489 0.00620685 0.00510416 -0.000542826 0.000307315 0.00331989 0.00264536 0.00288493 0.00826435 0.000927144 0.0060261 -8.18475e-05 0.00110837 0.0025129 0.00278602 0.00136153 -0.000727991 -0.00118542 0.00448203 0.000748842
internal_weight=57000 11424 45576 6097 4967 5327 20948 2542 1130 24628 2425 1768 1651 13637 7311 969 2785 2407 774 2542 901 3913 378 1928 1539 1599 9724 12360 438 3192
internal_count=57000 11424 45576 6097 4967 5327 20948 2542 1130 24628 2425 1768 1651 13637 7311 969 2785 2407 774 2542 901 3913 378 1928 1539 1599 9724 12360 438 3192
is_linear=0
shrinkage=0.03


Tree=19
num_leaves=31
num_cat=0
split_feature=23 5 15 15 23 19 24 24 24 15 24 19 23 19 20 19 19 24 24 1 20 23 19 24 23 19 23 19 19 19
split_gain=203.949 23.7071 22.2736 5.26581 5.01407 4.4819 4.00491 2.08072 1.92726 1.59289 1.42481 1.26558 1.10828 1.01374 1.13793 0.954356 0.949839 0.767869 0.739271 0.735472 0.712502 0.703332 0.688302 0.660393 0.649808 0.629331 0.58178 0.573632 0.565468 0.564302
threshold=0.50562395840214636 0.056413357471161649 0.51748065953654743 0.32172188256389955 0.23274045599357424 0.045126618899539887 0.30573895214952967 0.3412613397460354 0.3540110218611266 0.71544315569455808 0.73848486826608806 0.11552508603816987 0.94915332420484333 0.13321183029469 0.094415579404125358 0.22783388777354244 0.12762193679433639 0.75807486298244775 0.54401781160104301 0.16233324945227898 0.20407197723375639 0.74789900737696124 0.25047426006586121 0.70297736732350335 0.68405481098268572 0.081666818556489787 0.77379536763948731 0.13522283481963168 0.1856616115139342 0.079880907189534209
decision_type=2 2 2 2 2 2 2 2 2 2 2 2 2 2 2 2 2 2 2 2 2 2 2 2 2 2 2 2 2 2
left_child=1 5 3 25 8 17 9 15 27 16 -7 -8 24 20 22 -6 -4 -1 -9 26 -5 -11 -15 29 -13 -2 -18 -3 -16 -10
right_child=2 4 6 13 7 10 11 18 23 21 -12 12 -14 14 28 -17 19 -19 -20 -21 -22 -23 -24 -25 -26 -27 -28 -29 -30 -31
leaf_value=-0.001246072955347398 0.00022840392131316049 6.2951375461561121e-05 0.0034602548403550037 0.001229221089549405 0.0015790143359832127 -0.00055136485426591727 0.0031962430265925399 0.00092775319258045876 -0.00071091733938428265 0.0043222344456350101 -0.0011583168420900396 0.0023553199026959751 0.0063825612800609806 0.0020048607053624002 0.0038291511013249084 0.0034415608813960549 0.0043710078510015215 -0.0016913167170567091 -0.00018495676020005843 0.0082876095750041897 0.0032533953675044094 0.0082818819298528332 0.0039557053332187932 -0.0013276723188555451 0.0049580609175004292 0.0018283997846384873 0.0064864486801301567 0.00073585708169820899 0.0050244824428087283 -0.00015312192057219582
leaf_weight=4933 263 2669 112 219 1102 7217 317 1634 2403 50 6781 103 587 360 778 326 166 12602 794 184 618 701 319 652 952 1569 661 2004 774 5150
leaf_count=4933 263 2669 112 219 1102 7217 317 1634 2403 50 6781 103 587 360 778 326 166 12602 794 184 618 701 319 652 952 1569 661 2004 774 5150
internal_value=1.08501e-06 -0.000762195 0.00421966 0.0028775 0.00015032 -0.00124654 0.00593345 0.00109927 -0.00013365 0.00693201 -0.000845664 0.00497364 0.0053128 0.00363824 0.00397646 0.00200843 0.00618968 -0.00156631 0.000562715 0.00648537 0.00272945 0.00802834 0.00293027 -0.000410766 0.00470927 0.00160059 0.00607124 0.000352262 0.00443006 -0.000331053
internal_weight=57000 48267 8733 4900 16734 31533 3833 3856 12878 1874 13998 1959 1642 3068 2231 1428 1123 17535 2428 1011 837 751 679 8205 1055 1832 827 4673 1552 7553
internal_count=57000 48267 8733 4900 16734 31533 3833 3856 12878 1874 13998 1959 1642 3068 2231 1428 1123 17535 2428 1011 837 751 679 8205 1055 1832 827 4673 1552 7553
is_linear=0
shrinkage=0.03


Tree=20
num_leaves=31
num_cat=0
split_feature=23 15 6 24 24 15 24 27 23 23 21 33 23 21 24 29 21 24 2 29 33 24 24 23 21 24 7 29 12 24
split_gain=192.015 24.5392 17.9163 5.28996 4.58134 3.78853 2.69446 2.62026 2.47016 1.84823 1.60125 1.56201 1.42615 1.29706 0.839666 0.803685 0.746821 0.729696 0.70419 0.657403 0.629473 0.626936 0.625763 0.613867 0.604005 0.586367 0.548283 0.541349 0.528592 0.520948
threshold=0.47190765247526995 0.435753335397848 0.041569449280913481 0.2991153685658175 0.36033919319326152 0.26571536223060149 0.85047539318913312 10.500000000000002 0.79776403832071296 0.3440347786478517 0.83275114687564022 0.72695311118111527 0.2182782344169594 0.92125081603411296 0.27021206278604554 17.500000000000004 0.72323801976422286 0.62007288303868613 0.12407556122291725 1.5000000000000002 0.95242846126021108 0.3211571865025491 0.47509137459977135 0.73783466229650874 0.77995520752272529 0.52766328649775907 0.033675365698492832 5.5000000000000009 0.66262411918854724 0.33835823500419421
decision_type=2 2 2 2 2 2 2 2 2 2 2 2 2 2 2 2 2 2 2 2 2 2 2 2 2 2 2 2 2 2
left_child=2 5 6 8 9 -2 19 22 24 27 -10 13 -6 18 20 26 23 -14 -9 -1 28 -18 -5 -7 -3 -17 -15 -4 -12 -28
right_child=1 3 4 7 12 16 -8 11 10 -11 14 -13 17 15 -16 25 21 -19 -20 -21 -22 -23 -24 -25 -26 -27 29 -29 -30 -31
leaf_value=-0.0012944424900124267 0.0010830960809420438 0.0018835013141448964 -1.8800675790372514e-05 0.0032656544025228399 -0.00064369368801876683 0.00074265882016723631 -0.0016247296665587512 0.002005129981605569 0.0054926504363615606 0.0017930731363405858 0.0092193316851657495 0.0027337956044865747 0.00026639382923114411 0.0018552567494017154 0.0068859286632311223 0.0073735909464421557 0.0042667955493239373 -0.00056725630355277691 0.0045955727498002705 -0.00085360321338209138 0.003551008551120758 0.0029230737953619681 0.0003073892134109613 0.0026008331329101801 0.0050050230779019851 0.0021143516571901274 0.0061212585480787994 0.00055870405293579717 0.0041389295715093611 0.0047031094298745522
leaf_weight=4843 1709 70 2543 761 9909 212 12837 119 438 869 426 260 3020 43 575 334 432 1374 629 8465 24 1371 73 735 419 23 573 3401 24 489
leaf_count=4843 1709 70 2543 761 9909 212 12837 119 438 869 426 260 3020 43 575 334 432 1374 629 8465 24 1371 73 735 419 23 573 3401 24 489
internal_value=1.11308e-06 0.00383665 -0.000789271 0.00522088 -0.000139146 0.00219607 -0.0013142 0.00448054 0.00645438 0.000500859 0.00706887 0.0049741 -0.000444226 0.00523495 0.00771828 0.00576395 0.002886 4.9598e-06 0.00419069 -0.00101434 0.00870506 0.00324888 0.00301099 0.00218924 0.00456906 0.00704999 0.00533974 0.000311166 0.00896481 0.00547613
internal_weight=57000 9739 47261 5280 21116 4459 26145 3304 1976 6813 1487 2470 14303 2210 1049 1462 2750 4394 748 13308 474 1803 834 947 489 357 1105 5944 450 1062
internal_count=57000 9739 47261 5280 21116 4459 26145 3304 1976 6813 1487 2470 14303 2210 1049 1462 2750 4394 748 13308 474 1803 834 947 489 357 1105 5944 450 1062
is_linear=0
shrinkage=0.03


Tree=21
num_leaves=31
num_cat=0
split_feature=27 20 6 19 19 20 24 19 19 20 20 19 19 20 19 20 19 22 19 33 24 24 24 24 33 21 24 22 8 19
split_gain=172.447 27.6732 14.266 10.7718 7.26125 4.43458 3.21228 2.7487 2.31717 1.94095 1.90832 1.61951 1.53676 1.33068 1.13038 1.11128 1.22327 1.07285 0.998897 0.839563 0.712596 0.611958 0.602402 0.560569 0.510712 0.478118 0.46934 0.466772 0.534485 0.462098
threshold=3.5000000000000004 0.16819465342217357 0.041569449280913481 0.17843455009564932 0.1856616115139342 0.008195400555622007 0.37275269540673289 0.090544561649050823 0.040689836046513973 0.32446624522689255 0.028324421866859115 0.2798453868780626 0.30305477957293131 0.32446624522689255 0.1320458780857682 -0.18965102218798713 0.27677105844809968 0.55291319320255539 0.12762193679433639 0.98049069993378934 0.73848486826608806 0.71193406581873064 0.27021206278604554 0.2916852453809034 -0.49064630004295678 0.66397235645153052 0.668698529158403 0.70599198607859381 0.523869776213855 0.081666818556489787
decision_type=2 2 2 2 2 2 2 2 2 2 2 2 2 2 2 2 2 2 2 2 2 2 2 2 2 2 2 2 2 2
left_child=2 4 8 7 10 15 18 -3 -1 -9 -2 13 -7 -5 29 -6 -17 26 -4 23 -10 -19 -15 -11 -13 -20 -8 -25 -29 -12
right_child=1 3 6 11 5 12 17 9 20 19 14 24 -14 22 -16 16 -18 21 25 -21 -22 -23 -24 27 -26 -27 -28 28 -30 -31
leaf_value=-0.0015179292572940421 -1.8655788720086858e-05 0.001872337743513746 -2.581986812546832e-05 0.005235783501398839 -3.9287976512123887e-05 0.0035435138510320559 -0.00058608755672068388 0.0034541610958927905 -0.0006270313568524353 0.0066401926856207889 -3.0715116867124234e-05 0.0070449612439787961 0.0057443595154720011 0.008803933301764837 0.0023661959089075341 0.0013389348487785526 0.0033731224815681735 5.6872564686856438e-05 -0.00077438795460913498 0.0007533160217213802 -0.0011439351475410833 -0.00078787677720908752 0.0064471181908773044 0.0057245808974881202 0.0089155681570368545 0.0007829655815722843 -0.0011344974142075658 0.0043598038204710442 -0.0003478194403907527 0.001273120175060709
leaf_weight=15732 1134 582 3943 952 254 1320 6428 1362 4098 265 325 444 377 158 833 685 445 3479 186 38 5934 989 407 336 253 2965 1822 296 22 936
leaf_count=15732 1134 582 3943 952 254 1320 6428 1362 4098 265 325 444 377 158 833 685 445 3479 186 38 5934 989 407 336 253 2965 1822 296 22 936
internal_value=1.15047e-06 0.00329691 -0.000824948 0.00493703 0.00196615 0.00300819 -0.000219482 0.0037296 -0.0012904 0.00419342 0.000970001 0.00651536 0.00403731 0.00594595 0.00150659 0.00174217 0.00214494 -0.000504853 0.000291703 0.0052377 -0.000933166 -0.000129577 0.00712588 0.00541884 0.00774006 0.000689868 -0.000707689 0.00490999 0.00402465 0.000934945
internal_weight=57000 11424 45576 5115 6309 3081 19812 2901 25764 2319 3228 2214 1697 1517 2094 1384 1130 12718 7094 957 10032 4468 565 919 697 3151 8250 654 318 1261
internal_count=57000 11424 45576 5115 6309 3081 19812 2901 25764 2319 3228 2214 1697 1517 2094 1384 1130 12718 7094 957 10032 4468 565 919 697 3151 8250 654 318 1261
is_linear=0
shrinkage=0.03


Tree=22
num_leaves=31
num_cat=0
split_feature=23 31 6 23 31 21 23 6 6 31 21 19 33 31 23 31 23 23 23 25 21 21 34 19 34 29 23 19 31 23
split_gain=170.212 18.4113 11.7507 6.43329 6.18789 4.5077 3.41785 2.63256 1.85276 1.8416 1.43032 1.15229 1.14366 1.04456 1.01326 0.990741 0.9597 0.880981 0.859468 0.69602 0.649301 0.624155 0.614707 0.606561 0.590831 0.563186 0.562309 0.646068 0.493796 0.477707
threshold=0.50562395840214636 32815.038681318685 0.43872267513417368 0.23274045599357424 29455.728763736264 0.72323801976422286 0.8252466344203212 0.032628505271009883 0.041569449280913481 24953.797142857147 0.8563059025560491 0.092772344356699635 0.79383249484937135 22339.084285714289 0.81417056410045319 27442.986785714289 0.35419007335685532 0.94915332420484333 0.72461151377208843 23.325000000000006 0.72323801976422286 0.95454180670632416 -0.45273527932988084 0.13361867967287061 -0.46039597980994923 1.0000000180025095e-35 0.79776403832071296 0.12882974886919268 28548.542747252748 0.19149078872480416
decision_type=2 2 2 2 2 2 2 2 2 2 2 2 2 2 2 2 2 2 2 2 2 2 2 2 2 2 2 2 2 2
left_child=1 3 4 8 5 26 13 25 -1 18 -5 -6 21 -7 -13 -10 -12 23 -4 -20 -16 -8 -21 -11 -15 -3 -2 -28 -18 -9
right_child=2 7 9 10 11 6 12 29 15 17 16 14 -14 24 20 -17 28 -19 19 22 -22 -23 -24 -25 -26 -27 27 -29 -30 -31
leaf_value=-0.0007427869585463502 0.0012754523624680381 -0.0015232061453531475 0.0037931492773500752 0.0003166072694642679 0.00088665992219198058 0.0063903877897874299 0.0052606677467552454 -0.0010172373228713473 0.00027609512848510723 0.0026984006611809851 0.00097446298518661344 0.0016771234138843281 0.0034384100296561203 0.0040179602507802274 0.0020139053894397915 -0.00027934986911345186 0.0027661040442028681 0.00597428461452678 0.0057857369738483896 0.0087276025374798238 0.0035512895285950358 0.006804076449316545 0.0064298154342911041 0.0047724233628317903 0.0026905295890008703 -0.0011452154376590672 0.00091666676177903916 0.0032761181427711206 0.0014358662314422474 -0.00054259466653484455
leaf_weight=5525 354 13698 88 1365 584 113 474 3620 4449 165 1251 959 174 619 398 8231 615 555 284 292 735 609 217 804 658 4922 137 514 453 4138
leaf_count=5525 354 13698 88 1365 584 113 474 3620 4449 165 1251 959 174 619 398 8231 615 555 284 292 735 609 217 804 658 4922 137 514 453 4138
internal_value=1.16264e-06 -0.00069613 0.00385506 -5.27779e-05 0.00317463 0.00397871 0.00462943 -0.00122986 -0.000284281 0.00564208 0.00109018 0.0020751 0.0057687 0.0035936 0.00240484 -8.42193e-05 0.00154389 0.00499504 0.00675103 0.00707031 0.00301614 0.00613681 0.00776841 0.0044255 0.00333896 -0.00142352 0.00225893 0.00278635 0.00220655 -0.000764559
internal_weight=57000 48267 8733 21889 6328 3652 2647 26378 18205 2405 3684 2676 1257 1390 2092 12680 2319 1524 881 793 1133 1083 509 969 1277 18620 1005 651 1068 7758
internal_count=57000 48267 8733 21889 6328 3652 2647 26378 18205 2405 3684 2676 1257 1390 2092 12680 2319 1524 881 793 1133 1083 509 969 1277 18620 1005 651 1068 7758
is_linear=0
shrinkage=0.03


Tree=23
num_leaves=31
num_cat=0
split_feature=20 5 19 27 15 31 20 19 20 19 31 5 19 31 20 19 19 19 20 20 27 5 20 19 20 19 12 19 11 2
split_gain=153.22 22.9991 16.1761 6.61237 5.12032 4.83725 3.5593 3.22286 1.64399 1.56698 1.49993 1.25301 1.1555 1.09428 0.974417 0.887356 0.814776 0.724792 0.680344 0.675451 0.618345 0.611648 0.584842 0.648496 0.582282 0.586092 0.57388 0.529436 0.489071 0.54512
threshold=0.075950542765016046 0.065674225097076017 0.13951049450335112 3.5000000000000004 0.55763656064099087 32885.032500000008 0.20407197723375639 0.20760691823321067 0.32446624522689255 0.30305477957293131 27442.986785714289 0.018961013827132049 0.090544561649050823 23357.485000000004 -0.084344657849344501 0.24595860135991451 0.29767206184015571 0.081123488638215682 0.18509613794808091 0.39992480612792441 3.5000000000000004 0.036171361759453576 -0.02699108733570597 0.14987665521905555 -0.04073651309474146 0.17334977946655258 0.66262411918854724 0.074108865844805874 0.022744294803879982 0.17675960581235564
decision_type=2 2 2 2 2 2 2 2 2 2 2 2 2 2 2 2 2 2 2 2 2 2 2 2 2 2 2 2 2 2
left_child=1 5 6 10 15 20 17 22 9 -6 -3 -7 -8 26 -9 18 -16 -2 -4 -14 21 -1 -5 -24 -22 -26 -10 -12 -21 -30
right_child=2 3 4 7 8 11 12 14 13 -11 27 -13 19 -15 16 -17 -18 -19 -20 28 24 -23 23 -25 25 -27 -28 -29 29 -31
leaf_value=-0.0008351220368553638 0.00019499019450647272 0.00055121233646049015 0.0031089439520250685 -0.00039188626040277474 0.0044557060717550926 -0.0014540177733151523 0.0019851606224836347 0.001383697238338532 0.0087048707185721722 0.0066383406424210083 -0.00060294056221859541 -0.00099471512753611943 0.0032666522379284713 0.0061985058006534767 0.0024995585628757233 0.0052286458886723888 0.0043119997049597437 0.0016262236292442123 0.0043159125818446002 0.0082075722924317227 -0.00018973582535341849 -0.00036522741019384209 0.00036833641334010935 0.0017059207985580746 0.00075634672780185662 0.0046334936163407196 0.0032497545610303464 -4.6345047364580449e-05 0.004882367597325684 0.00035026375792021386
leaf_weight=4575 456 3569 973 352 868 15039 476 420 301 477 2047 8400 762 802 686 422 349 1097 817 39 449 5560 728 602 135 48 22 6236 265 28
leaf_count=4575 456 3569 973 352 868 15039 476 420 301 477 2047 8400 762 802 686 422 349 1097 817 39 449 5560 728 602 135 48 22 6236 265 28
internal_value=1.19875e-06 -0.000618309 0.00390592 0.000361423 0.00502187 -0.00104771 0.00223087 0.00158597 0.00596445 0.00523636 3.69486e-05 -0.00128959 0.00323905 0.00682683 0.00262015 0.00396577 0.00311718 0.0012083 0.00366361 0.00377957 -0.000520805 -0.000577698 0.000688563 0.00097685 0.000386293 0.00180926 0.00835375 -0.000184316 0.00493445 0.00446213
internal_weight=57000 49195 7805 14989 4682 34206 3123 3137 2470 1345 11852 23439 1570 1125 1455 2212 1035 1553 1790 1094 10767 10135 1682 1330 632 183 323 8283 332 293
internal_count=57000 49195 7805 14989 4682 34206 3123 3137 2470 1345 11852 23439 1570 1125 1455 2212 1035 1553 1790 1094 10767 10135 1682 1330 632 183 323 8283 332 293
is_linear=0
shrinkage=0.03


Tree=24
num_leaves=31
num_cat=0
split_feature=23 5 15 15 23 31 24 24 24 15 19 24 23 24 19 19 20 20 19 23 24 22 21 24 23 24 23 23 19 31
split_gain=150.86 17.8817 16.623 3.99598 3.78538 3.42444 3.19506 1.6253 1.54118 1.24981 0.991323 0.962609 0.946086 0.853929 0.825748 0.814759 1.04281 0.86534 0.812053 0.748148 0.711587 0.744157 0.651702 0.646681 0.608021 0.529362 0.523531 0.517642 0.512048 0.508374
threshold=0.50562395840214636 0.056413357471161649 0.51748065953654743 0.32172188256389955 0.23274045599357424 33789.902857142864 0.30573895214952967 0.3412613397460354 0.31976867594328068 0.80187919863836699 0.11552508603816987 0.73848486826608806 0.94915332420484333 0.79690531068196002 0.12762193679433639 0.17843455009564932 0.12385084361214148 0.20407197723375639 0.22783388777354244 0.94626654071956595 0.70297736732350335 0.50858703513719716 0.77995520752272529 0.54401781160104301 0.72461151377208843 0.72022274488490934 0.68405481098268572 0.7644842744712449 0.17334977946655258 22611.480000000003
decision_type=2 2 2 2 2 2 2 2 2 2 2 2 2 2 2 2 2 2 2 2 2 2 2 2 2 2 2 2 2 2
left_child=1 5 3 25 8 11 9 18 -3 14 -8 -1 26 -7 19 17 -17 -5 -6 -4 21 -10 -16 -9 -24 28 -12 -11 -2 -29
right_child=2 4 6 15 7 13 10 23 20 27 12 -13 -14 -15 22 16 -18 -19 -20 -21 -22 -23 24 -25 -26 -27 -28 29 -30 -31
leaf_value=-0.00037396052166045242 0.0011723810658648727 0.00057486621111071425 0.0015549971153122489 0.0017788275208770975 0.0013691731724976321 -0.0010356260336259217 0.0026788037910899318 0.00082889696125551483 -0.00046100691902008906 0.0027881134644798609 0.0018847973722463046 -0.00094652349346924919 0.005539563553084677 -0.0014409597979622945 0.0044488164928952485 0.0029090947606391364 0.0045814005348332907 0.0032097742685552205 0.0030872818632291651 0.0060576897690954963 -0.00122682003954434 6.0797008923739393e-05 0.0043917929327762315 -0.00021179309214499232 0.0064881206987155377 -0.00033836417896207418 0.0042194318106137767 0.0091533095428347581 0.0023452034786809236 0.0065679242071780292
leaf_weight=5754 1204 2405 88 628 1102 7270 317 1634 4966 22 103 4930 587 13579 273 766 637 1037 326 56 652 4855 166 794 931 149 952 174 479 164
leaf_count=5754 1204 2405 88 628 1102 7270 317 1634 4966 22 103 4930 587 13579 273 766 637 1037 326 56 652 4855 166 794 931 149 952 174 479 164
internal_value=1.22371e-06 -0.000655231 0.00362943 0.0024698 0.000137259 -0.00107588 0.00511005 0.000961786 -0.000109448 0.00600196 0.00425268 -0.000638507 0.00455289 -0.00129982 0.00560727 0.00313256 0.00367323 0.00267325 0.00176539 0.00335643 -0.000266919 -0.000202768 0.00583905 0.00048739 0.00617792 0.00135715 0.00399634 0.00763342 0.00150915 0.00793079
internal_weight=57000 48267 8733 4900 16734 31533 3833 3856 12878 1874 1959 10684 1642 20849 1514 3068 1403 1665 1428 144 10473 9821 1370 2428 1097 1832 1055 360 1683 338
internal_count=57000 48267 8733 4900 16734 31533 3833 3856 12878 1874 1959 10684 1642 20849 1514 3068 1403 1665 1428 144 10473 9821 1370 2428 1097 1832 1055 360 1683 338
is_linear=0
shrinkage=0.03


Tree=25
num_leaves=31
num_cat=0
split_feature=23 20 5 19 19 24 20 19 19 31 19 23 19 24 23 20 19 24 23 19 19 26 32 20 24 31 3 34 31 19
split_gain=142.08 14.5933 14.5776 7.94828 5.63234 3.33125 2.33521 2.08469 1.77157 1.60982 1.38529 1.32435 1.03257 1.03028 1.02729 0.962292 0.864471 0.755389 0.709237 0.695116 0.646531 0.582535 0.577639 0.548365 0.530631 0.498258 0.499074 0.497119 0.470314 0.458645
threshold=0.47190765247526995 0.18509613794808091 0.040390081171338153 0.17843455009564932 0.1856616115139342 0.36033919319326152 0.011833907191175587 0.096272205188652163 0.045126618899539887 24415.729285714289 0.30305477957293131 0.3440347786478517 0.079880907189534209 0.59520617235883844 0.96500717174159822 0.052340111464556437 0.1320458780857682 0.33541576246716914 0.27688819027385608 0.27677105844809968 0.13522283481963168 22.575000000000006 9.1169630642954882 0.37793968566359915 0.77089540568897397 25085.267554945061 9.2000000000000011 -0.17646730165275518 26791.781098901101 0.2798453868780626
decision_type=2 2 2 2 2 2 2 2 2 2 2 2 2 2 2 2 2 2 2 2 2 2 2 2 2 2 2 2 2 2
left_child=2 4 8 7 15 11 19 22 -1 23 -8 20 -7 18 17 -2 -17 27 -14 -6 -4 -16 -3 -5 -10 26 -15 -9 -23 -11
right_child=1 3 5 9 6 12 10 14 24 29 -12 -13 13 25 21 16 -18 -19 -20 -21 -22 28 -24 -25 -26 -27 -28 -29 -30 -31
leaf_value=-0.0013441489594553623 0.00023797833962718135 0.0035131774342454527 3.4391820422083659e-05 0.0064041361653394743 0.0011548242032920163 -0.00072111668397645734 0.0032863127828151617 0.0043608531009575935 -0.00060746015997187211 0.004945649519629898 0.0052873501744127175 0.0015300559068974469 -7.9134928630227909e-05 1.1200636275111799e-05 0.003246107855708235 0.00090924335582774521 0.0023090736543372346 0.0026410216457373333 0.00077919738293771368 0.0028690107875246136 0.00067160180035509846 0.0075862193689104655 0.0014624365150606262 0.0082948518921528887 -0.0010541627774417065 -0.00069066132988540672 0.0035265576514200525 0.0025083727708449912 0.0049729491850333419 0.0063240509499920836
leaf_weight=16384 760 169 3636 431 527 4680 1384 845 4846 966 416 886 4589 561 107 903 726 548 1066 370 2376 112 507 264 4839 3360 38 170 200 334
leaf_count=16384 760 169 3636 431 527 4680 1384 845 4846 966 416 886 4589 561 107 903 726 548 1066 370 2376 112 507 264 4839 3360 38 170 200 334
internal_value=1.24682e-06 0.00330058 -0.000678634 0.00451534 0.00218798 -9.40978e-05 0.00312806 0.00343613 -0.00115368 0.00594926 0.00375312 0.000447114 -0.000355499 -0.000177151 0.00392865 0.00112458 0.00153598 0.00356402 8.22444e-05 0.00186765 0.000286792 0.00526996 0.00198399 0.00713753 -0.000831046 -0.000548354 0.000244718 0.00405631 0.00594187 0.00530669
internal_weight=57000 9739 47261 4653 5086 21192 2697 2658 26069 1995 1800 6898 14294 9614 1982 2389 1629 1563 5655 897 6012 419 676 695 9685 3959 599 1015 312 1300
internal_count=57000 9739 47261 4653 5086 21192 2697 2658 26069 1995 1800 6898 14294 9614 1982 2389 1629 1563 5655 897 6012 419 676 695 9685 3959 599 1015 312 1300
is_linear=0
shrinkage=0.03


Tree=26
num_leaves=31
num_cat=0
split_feature=20 5 19 27 20 19 20 19 19 24 24 24 30 20 24 20 19 19 24 19 19 37 19 19 19 20 19 12 20 25
split_gain=128.157 19.1316 13.6726 5.4437 4.3174 4.0846 2.94676 2.78106 2.43748 1.43837 1.32952 1.28315 1.09106 1.15766 0.926127 0.829314 0.709438 0.699949 0.666418 0.643172 0.624021 0.60862 0.606115 0.603464 0.569302 0.527281 0.563079 0.509382 0.488179 0.452361
threshold=0.075950542765016046 0.065674225097076017 0.13951049450335112 3.5000000000000004 0.28070116645242355 0.065520085968840722 0.20407197723375639 0.20760691823321067 0.2798453868780626 0.71593641668571817 0.31836802560578364 0.27021206278604554 2.2812500000000004 0.39992480612792441 0.77717022681500392 -0.084344657849344501 0.17843455009564932 0.29767206184015571 0.61535237020359912 0.081123488638215682 0.13057138202152349 4.5000000000000009 0.098650744215178957 0.22827931423314773 0.084857994615228777 -0.02699108733570597 0.14987665521905555 0.66262411918854724 0.18509613794808091 23.975000000000005
decision_type=2 2 2 2 2 2 2 2 2 2 2 2 2 2 2 2 2 2 2 2 2 2 2 2 2 2 2 2 2 2
left_child=1 5 6 10 8 14 19 25 16 -7 -3 27 21 22 -1 -9 -4 -17 20 -2 -12 -8 -14 -13 -15 -5 -27 29 -18 -6
right_child=2 3 4 7 11 9 12 15 -10 -11 18 23 13 24 -16 17 28 -19 -20 -21 -22 -23 -24 -25 -26 26 -28 -29 -30 -31
leaf_value=-0.00095226273581479988 0.00014686317285361058 0.00067143238194500277 0.0027895359666412975 -0.00042022351518205089 0.0061140572934538211 -0.00023735103632473587 -0.00080735551244739826 0.0012584994416012657 0.0056073032963867998 -0.00085731777524755324 -0.00023752113741746099 0.0047515243096526577 0.0019113876229497014 0.0024523703136673089 -0.0013727376364161042 0.0022856666731414805 0.0034260778662235838 0.0039667101877887863 -0.00079610402672786195 0.0014952103052134982 0.00029486765579307168 0.0021580251131892761 0.0034579925290638071 0.0062146169120375324 0.0057485031092663601 0.000312226939730889 0.0015587717209646821 0.0028167089919249218 0.0045741544184080291 0.0083424658700392285
leaf_weight=7434 456 2358 891 352 168 6687 86 420 620 6822 5086 755 404 67 13263 686 919 349 1165 1097 3243 210 579 448 224 728 602 26 597 258
leaf_count=7434 456 2358 891 352 168 6687 86 420 620 6822 5086 755 404 67 13263 686 919 349 1165 1097 3243 210 579 448 224 728 602 26 597 258
internal_value=1.27697e-06 -0.000565297 0.0035724 0.000328257 0.00459839 -0.000956937 0.00203229 0.00143934 0.003919 -0.000550695 3.38254e-05 0.00583608 0.00294973 0.00333249 -0.00122191 0.00240002 0.00348073 0.00285869 -0.000124273 0.00110158 -2.98583e-05 0.00128654 0.002828 0.00530358 0.00501087 0.000605594 0.000879454 0.00723184 0.00388288 0.00748706
internal_weight=57000 49195 7805 14989 4682 34206 3123 3137 3027 13509 11852 1655 1570 1274 20697 1455 2407 1035 9494 1553 8329 296 983 1203 291 1682 1330 452 1516 426
internal_count=57000 49195 7805 14989 4682 34206 3123 3137 3027 13509 11852 1655 1570 1274 20697 1455 2407 1035 9494 1553 8329 296 983 1203 291 1682 1330 452 1516 426
is_linear=0
shrinkage=0.03


Tree=27
num_leaves=31
num_cat=0
split_feature=23 20 5 19 19 5 19 20 29 31 23 20 19 31 20 33 31 19 19 20 31 23 19 31 31 19 7 25 3 11
split_gain=125.95 12.9934 12.9531 7.70044 4.35138 2.75627 1.93005 1.73562 1.60612 1.51857 1.38641 1.37403 1.07196 0.826539 0.73493 0.710675 0.658005 0.655007 0.617388 0.606663 0.581077 0.545116 0.518145 0.512228 0.499998 0.427795 0.501349 0.381164 0.379947 0.377661
threshold=0.47190765247526995 0.16819465342217357 0.040390081171338153 0.17843455009564932 0.1856616115139342 0.081493069664354281 0.090544561649050823 0.008195400555622007 1.0000000180025095e-35 24415.729285714289 0.23274045599357424 0.32446624522689255 0.30305477957293131 30588.268571428573 0.052340111464556437 0.98049069993378934 27010.361153846159 0.11659099217087106 0.27677105844809968 0.37793968566359915 29512.234642857147 0.76770090502193222 0.22932319521316094 29899.785467032973 30026.969642857148 0.32143892744384334 0.10328376146465316 22.975000000000005 10.135000000000002 0.022350873969712116
decision_type=2 2 2 2 2 2 2 2 2 2 2 2 2 2 2 2 2 2 2 2 2 2 2 2 2 2 2 2 2 2
left_child=2 4 8 6 14 13 -3 18 -1 19 16 -8 -9 -4 -2 20 28 -16 -6 25 29 -11 -12 -10 27 26 -5 -23 -7 -13
right_child=1 3 5 9 7 10 11 12 23 21 22 15 -14 -15 17 -17 -18 -19 -20 -21 -22 24 -24 -25 -26 -27 -28 -29 -30 -31
leaf_value=-0.0012909701662646824 0.00022042140651979355 0.00155396056878527 -0.00010896582587594748 0.008346358283544365 0.001024011275114444 0.00042860560756885296 0.0028863186635587593 0.002964321336488592 -0.00045461487018133356 0.0033036983304027766 0.0006732739122398679 0.0072110499628952563 0.0048189729829893179 -0.00062440977327179819 0.00063557451934187915 0.00028070400511989225 -0.00011223070031942589 0.0019500841120013797 0.0026667166432342748 0.0078373699110378028 0.0030569636125490065 0.0044590083514031743 0.00175917514120727 -0.00092985179804383282 0.00372733571892169 0.0073873214138992895 0.0047657454702971702 0.0058068289577130928 0.0024195174622569479 0.0047136024536127141
leaf_weight=14894 760 571 4927 45 500 2040 1340 1251 2734 184 2000 69 376 6535 612 38 5100 799 363 264 199 316 500 8441 213 144 295 749 90 651
leaf_count=14894 760 571 4927 45 500 2040 1340 1251 2734 184 2000 69 376 6535 612 38 5100 799 363 264 199 316 500 8441 213 144 295 749 90 651
internal_value=1.29586e-06 0.00310771 -0.000638828 0.00415809 0.00196208 -8.78161e-05 0.0031282 0.00281847 -0.00108662 0.00549123 0.000283325 0.00351738 0.00339747 -0.000403134 0.000977631 0.00439393 7.22544e-05 0.00138291 0.00172073 0.00661103 0.00456026 0.00491214 0.00089227 -0.000813903 0.00513861 0.00592114 0.00527153 0.00541428 0.000515232 0.00496677
internal_weight=57000 9739 47261 5078 4661 21192 2868 2490 26069 2210 9730 2297 1627 11462 2171 957 7230 1411 863 748 919 1462 2500 11175 1278 484 340 1065 2130 720
internal_count=57000 9739 47261 5078 4661 21192 2868 2490 26069 2210 9730 2297 1627 11462 2171 957 7230 1411 863 748 919 1462 2500 11175 1278 484 340 1065 2130 720
is_linear=0
shrinkage=0.03


Tree=28
num_leaves=31
num_cat=0
split_feature=23 20 5 31 5 24 24 29 23 21 33 23 2 23 24 2 23 21 34 27 31 26 29 2 33 24 4 30 5 31
split_gain=118.535 12.2441 12.1905 5.03567 3.92875 2.93365 1.66535 1.47198 1.362 1.43125 1.26954 1.16013 0.962919 0.916511 0.885889 1.01493 0.849846 0.732658 0.643853 0.592635 0.58557 0.541336 0.529848 0.529693 0.534696 0.492427 0.481536 0.471794 0.596827 0.458428
threshold=0.47190765247526995 0.18509613794808091 0.03985206441901324 26285.992142857147 0.28173831219105366 0.36033919319326152 0.3441086147324478 1.0000000180025095e-35 0.91018558698577545 0.82257129668846496 0.88621069759564464 0.3440347786478517 0.14983340735575293 0.2182782344169594 0.5902497631714364 0.11781442403222038 0.72461151377208843 0.92125081603411296 -0.48313741114591585 15.500000000000002 26195.929532967039 28.18928571428572 5.5000000000000009 0.11781442403222038 0.73865729060996177 0.60021147820868592 9.9200000000000017 2.2812500000000004 0.47612535142911966 29899.785467032973
decision_type=2 2 2 2 2 2 2 2 2 2 2 2 2 2 2 2 2 2 2 2 2 2 2 2 2 2 2 2 2 2
left_child=2 4 7 8 14 11 10 -1 23 -10 16 22 -6 -7 15 -2 -5 -18 -11 -14 -15 -8 -4 -3 -25 -22 -17 -12 -29 -9
right_child=1 3 5 6 12 13 21 29 9 18 27 -13 19 20 -16 26 17 -19 -20 -21 25 -23 -24 24 -26 -27 -28 28 -30 -31
leaf_value=-0.0012532311026380034 0.00056863538489666007 0.0018297968525177156 -5.3807295737389826e-05 0.0024820206000739213 0.0022208961092778411 -0.00049699090240775551 0.0025216260612217511 -0.00044846401908038444 0.0042426967383561208 0.0077085949350598022 -0.001131928359291383 0.0014312061998724046 0.0029384976756216875 0.00080128454879846412 0.00039504991183213597 0.0035105608419859721 0.0034766901082410994 0.005046821410032939 0.00577622639259966 0.0043166784555482788 0.00010399102435806826 -0.0015273620694410052 0.00051293195035393042 0.0049357553302371588 0.0021498684203742368 -0.00060979871132414839 0.0018078698624222908 0.0031222435229768353 -0.0019464247669093309 -0.00090377165590462959
leaf_weight=14852 634 70 2599 227 851 9829 1080 2657 280 390 41 887 669 718 737 172 431 852 328 538 2643 29 3434 684 75 1292 1485 143 23 8350
leaf_count=14852 634 70 2599 227 851 9829 1080 2657 280 390 41 887 669 718 737 172 431 852 328 538 2643 29 3434 684 75 1292 1485 143 23 8350
internal_value=1.32823e-06 0.00301491 -0.000619664 0.00412766 0.0019957 -8.98884e-05 0.00332903 -0.00105799 0.00535883 0.00611876 0.003918 0.000417994 0.0030081 -0.000332791 0.00130586 0.00159725 0.00422155 0.00452482 0.00683928 0.00355835 1.34521e-05 0.00241176 0.000268317 0.00443409 0.00466761 -0.000129705 0.00198843 0.00167956 0.00239454 -0.000794187
internal_weight=57000 9739 47261 4653 5086 21402 2826 25859 1827 998 1717 6920 2058 14482 3028 2291 1510 1283 718 1207 4653 1109 6033 829 759 3935 1657 207 166 11007
internal_count=57000 9739 47261 4653 5086 21402 2826 25859 1827 998 1717 6920 2058 14482 3028 2291 1510 1283 718 1207 4653 1109 6033 829 759 3935 1657 207 166 11007
is_linear=0
shrinkage=0.03


Tree=29
num_leaves=31
num_cat=0
split_feature=23 5 15 15 23 24 24 24 24 21 23 19 19 27 29 19 19 20 19 14 26 24 19 20 24 19 24 22 14 19
split_gain=111.662 13.2755 12.4031 2.95853 2.82982 2.64528 2.52974 1.28828 1.23147 0.97108 1.05802 0.880536 0.874472 0.816328 0.743611 0.689943 0.652238 0.768758 0.62639 0.540821 0.529165 0.528865 0.524722 0.492828 0.48931 0.468476 0.447525 0.494453 0.463415 0.468919
threshold=0.50562395840214636 0.056413357471161649 0.51748065953654743 0.32172188256389955 0.23274045599357424 0.79690531068196002 0.30573895214952967 0.3412613397460354 0.38132924801543139 0.91325097271591782 0.94626654071956595 0.074108865844805874 0.12762193679433639 13.500000000000002 16.500000000000004 0.22783388777354244 0.13321183029469 0.094415579404125358 0.12762193679433639 0.31863542700485409 26.246428571428577 0.54401781160104301 0.25047426006586121 0.20407197723375639 0.66474034779160984 0.081666818556489787 0.72022274488490934 0.43916545947928276 0.046186454111591273 0.20760691823321067
decision_type=2 2 2 2 2 2 2 2 2 2 2 2 2 2 2 2 2 2 2 2 2 2 2 2 2 2 2 2 2 2
left_child=1 5 3 25 8 11 9 15 18 -4 12 -1 -11 -8 20 -6 23 22 -3 -14 -15 -9 -18 -5 -13 -2 27 -10 29 -29
right_child=2 4 6 16 7 -7 13 21 26 10 -12 24 19 14 -16 -17 17 -19 -20 -21 -22 -23 -24 -25 -26 -27 -28 28 -30 -31
leaf_value=-0.0008585155364212334 0 -6.0858866517279187e-05 0.0041843164024385517 0.000715004651343704 0.0011824568145890172 -0.0011975423137602647 0.0027018885659053919 0.00071872877046650642 -0.00073616593158057429 0.0012983698724327902 0.0068987953457566144 -0.00010230488471454341 0.0050412406362974112 0.0038265135252558424 0.0051359637382443618 0.0027661701089226201 0.0012973433469496815 0.003335374704036497 0.00053511298507802351 0.0083695124716691247 0.0015154806721063021 -0.00022230598881999543 0.0029956292767252305 0.0023968834642611719 -0.00060624666112526213 0.0013594988567780092 -0.0012322224926564576 -3.3432047116363858e-05 -0.00058050768581023116 0.0013179037492813022
leaf_weight=8308 263 3621 616 219 1102 15959 608 1634 1748 56 442 2906 708 828 416 326 360 1552 2814 52 107 794 319 618 4360 1569 520 2528 1394 253
leaf_count=8308 263 3621 616 219 1102 15959 608 1634 1748 56 442 2906 708 828 416 326 360 1552 2814 52 107 794 319 618 4360 1569 520 2528 1394 253
internal_value=1.33551e-06 -0.000563427 0.00312281 0.00212097 0.000119387 -0.000925871 0.00440186 0.000832299 -9.38924e-05 0.00519558 0.00568467 -0.000647233 0.0050157 0.00363877 0.00405588 0.00154779 0.00269135 0.00296271 0.000199334 0.00528361 0.00356715 0.000409793 0.00210286 0.00196178 -0.000405152 0.0011632 -0.000387206 -0.000312317 -0.000134006 8.88562e-05
internal_weight=57000 48267 8733 4900 16734 31533 3833 3856 12878 1874 1258 15574 816 1959 1351 1428 3068 2231 6435 760 935 2428 679 837 7266 1832 6443 5923 4175 2781
internal_count=57000 48267 8733 4900 16734 31533 3833 3856 12878 1874 1258 15574 816 1959 1351 1428 3068 2231 6435 760 935 2428 679 837 7266 1832 6443 5923 4175 2781
is_linear=0
shrinkage=0.03


Tree=30
num_leaves=31
num_cat=0
split_feature=23 31 24 24 25 23 23 23 24 24 25 31 22 25 33 24 31 33 22 31 12 25 26 29 31 3 22 25 24 26
split_gain=105.082 11.967 9.21058 4.35387 4.07945 3.04444 2.7455 2.20324 2.13948 1.50542 1.39609 1.11039 0.803674 0.77468 0.682847 0.640037 0.62349 0.61456 0.560053 0.530938 0.496603 0.53413 0.490817 0.481934 0.476034 0.537209 0.453489 0.450813 0.429883 0.42575
threshold=0.50562395840214636 32405.868571428578 0.33101388539628246 0.59520617235883844 20.550000000000004 0.23274045599357424 0.81655244316346898 0.83784156094924256 0.68562860773488532 0.27021206278604554 21.050000000000004 31817.610357142865 0.39836272995779209 22.475000000000005 0.78325454425165997 0.61535237020359912 22870.314345238101 0.72695311118111527 0.48896572637441776 26195.929532967039 0.66262411918854724 23.325000000000006 21.578571428571433 16.500000000000004 25410.836071428577 9.2000000000000011 0.47108387976997024 19.250000000000004 0.53354742327513371 21.50714285714286
decision_type=2 2 2 2 2 2 2 2 2 2 2 2 2 2 2 2 2 2 2 2 2 2 2 2 2 2 2 2 2 2
left_child=1 3 4 5 27 18 16 15 12 20 -9 14 -3 -7 28 22 -6 26 -1 -15 21 -8 -4 -24 25 -5 -11 -2 -12 -20
right_child=2 8 7 24 6 13 9 10 -10 17 11 -13 -14 19 -16 -17 -18 -19 29 -21 -22 -23 23 -25 -26 -27 -28 -29 -30 -31
leaf_value=-0.00018137478968283167 0.0011020651550818063 -0.0008760646008232763 0.00086968955788492715 -9.3003702873799558e-05 0.0048581862020680129 0.00050521191695873148 0.0052847677451050411 0.0016344719819312737 -0.0011638378171668097 0.0027878442432692201 0.0043130308800498236 0.0020146316405933915 -0.000349572162839348 0.0023553907678313156 0.0014675905755678312 0.00021319649200367293 0.0030312971502142699 0.0030076643474427839 -0.00040222535518677884 0.0012356549559870568 0.0017594955686641774 0.0074033428192948518 0.0016653228994786382 0.0032496126058901985 -0.00063351630323274142 0.0031258229598764104 0.0050016155270514884 0.002613093976199321 0.0023728795779223385 0.00037543462248357251
leaf_weight=3918 284 5357 571 963 212 935 197 732 17050 100 813 473 5142 553 108 360 1063 200 717 1323 22 344 1020 216 7058 48 1360 527 131 5203
leaf_count=3918 284 5357 571 963 212 935 197 732 17050 100 813 473 5142 553 108 360 1063 200 717 1323 22 344 1020 216 7058 48 1360 527 131 5203
internal_value=1.3358e-06 -0.000546531 0.00302944 -1.66773e-06 0.00401745 0.000345528 0.00446282 0.00206574 -0.000956167 0.00510311 0.00272321 0.00324242 -0.000618553 0.00121614 0.00378917 0.00137864 0.00334098 0.00463535 9.63671e-05 0.0015684 0.00646632 0.00664859 0.00160892 0.00194702 -0.00054628 5.97922e-05 0.00485405 0.00208966 0.00404976 0.00028069
internal_weight=57000 48267 8733 20718 4309 12649 3498 4424 27549 2223 2257 1525 10499 2811 1052 2167 1275 1660 9838 1876 563 541 1807 1236 8069 1011 1460 811 944 5920
internal_count=57000 48267 8733 20718 4309 12649 3498 4424 27549 2223 2257 1525 10499 2811 1052 2167 1275 1660 9838 1876 563 541 1807 1236 8069 1011 1460 811 944 5920
is_linear=0
shrinkage=0.03


Tree=31
num_leaves=31
num_cat=0
split_feature=23 20 5 31 5 23 31 21 31 29 2 6 33 25 5 23 23 2 20 30 34 31 31 1 23 3 23 31 5 21
split_gain=99.0143 12.7915 8.82066 4.53165 3.42746 2.28284 2.05006 1.55571 1.19236 1.01429 1.00168 0.845674 0.772297 0.684777 0.668761 0.617454 0.608802 0.605814 0.60032 0.586049 0.559736 0.554754 0.461451 0.393271 0.390934 0.379081 0.35469 0.345152 0.336468 0.334395
threshold=0.35419007335685532 0.16819465342217357 0.036171361759453576 28953.294285714288 0.23880403271320541 0.72461151377208843 28824.766785714291 0.94854724588480643 23357.485000000004 1.0000000180025095e-35 0.11781442403222038 0.37118938316472211 0.99053107487289871 26.125000000000004 0.081493069664354281 0.94915332420484333 0.2182782344169594 0.11909339830505371 -0.044428332508224609 1.9616666666666669 0.41202506375868281 31817.610357142865 28160.678928571433 0.15448750558884008 0.7031749144121856 8.115000000000002 0.9125965706807232 26285.992142857147 0.073666559343068871 0.59137090638976686
decision_type=2 2 2 2 2 2 2 2 2 2 2 2 2 2 2 2 2 2 2 2 2 2 2 2 2 2 2 2 2 2
left_child=2 4 9 5 10 -3 16 17 26 -1 -2 -6 15 21 -8 20 25 -7 -12 23 -10 24 28 -17 -5 -4 -9 -19 -20 -18
right_child=1 3 6 13 11 7 14 8 12 -11 18 -13 -14 -15 -16 19 29 27 22 -21 -22 -23 -24 -25 -26 -27 -28 -29 -30 -31
leaf_value=-0.001157179156371167 3.6951384859870819e-05 0.0025413041073181998 -5.8876448389184177e-05 0.0012916218213414631 0.0020203849593035264 0.0024309609398545165 -0.00053177349482671327 0.0053887894601667412 0.0046811514806277847 -0.0007602531483274687 0.00047353995739038765 0.0031824010539418441 -0.00029846054888688604 0.00097209860245113392 -8.8595416766877792e-05 0.00038230527215637268 -0.0010211575727650188 0.0046355831448916121 0.0037871851402110825 0.0062513505362130949 0.002178099412964657 0.0018250650861384682 0.0011687103240710711 0.0056894069613645914 0.0033219488028581306 0.00086036853174682119 0.0075452160566007783 0.0034088629854383346 0.0018787136934092132 0.00063561775392808521
leaf_weight=14534 821 568 4645 103 1686 244 9359 137 709 9757 646 880 25 267 4583 31 112 589 105 389 99 497 1063 22 810 441 236 388 521 2733
leaf_count=14534 821 568 4645 103 1686 244 9359 137 709 9757 646 880 25 267 4583 31 112 589 105 389 99 497 1063 22 810 441 236 388 521 2733
internal_value=1.35181e-06 0.00258204 -0.000604387 0.00367275 0.00160623 0.00429793 -0.000167203 0.00464365 0.00525267 -0.000997907 0.000942158 0.00242115 0.0047992 0.00238786 -0.000386324 0.00490371 0.000217616 0.00381557 0.001259 0.00583999 0.00438125 0.00265295 0.00155718 0.00270537 0.00309784 2.03937e-05 0.00677773 0.00415546 0.00220914 0.000569005
internal_weight=57000 10836 46164 5114 5722 3437 21873 2869 1648 24291 3156 2566 1275 1677 13942 1250 7931 1221 2335 442 808 1410 1689 53 913 5086 373 977 626 2845
internal_count=57000 10836 46164 5114 5722 3437 21873 2869 1648 24291 3156 2566 1275 1677 13942 1250 7931 1221 2335 442 808 1410 1689 53 913 5086 373 977 626 2845
is_linear=0
shrinkage=0.03


Tree=32
num_leaves=31
num_cat=0
split_feature=23 13 24 21 23 24 21 24 24 24 19 23 19 23 19 24 19 24 21 21 19 12 24 30 22 23 24 13 26 21
split_gain=93.2795 11.7886 6.93773 3.9171 3.64389 2.75545 1.8672 1.83352 1.4721 1.31014 1.22012 1.15002 1.07888 0.908992 0.716861 0.661412 0.652388 0.602051 0.557975 0.555337 0.506387 0.549731 0.492903 0.461504 0.460223 0.456824 0.41083 0.410953 0.436561 0.410065
