tree
version=v4
num_class=1
num_tree_per_iteration=1
label_index=0
max_feature_idx=31
objective=regression
feature_names=city_enc city_vri_mean city_vri_std T_opt HR_opt P_opt is_dry_season VRI_lag_7 VRI_lag_14 VRI_lag_21 VRI_lag_30 VRI_roll7_mean VRI_roll14_mean VRI_roll30_mean VRI_clim_month VRI_anomaly VRI_v2 VRI_v2_lag_7 VRI_v2_lag_14 VRI_v2_roll7_mean temperature_2m_mean precipitation_sum precipitation_hours et0_fao_evapotranspiration rain_sum precip_cum7 precip_cum15 sin_doy cos_doy sin_month cos_month month
feature_infos=[0:39] [0.27966883248320173:0.46491554946664737] [0.28939940401449943:0.40495503710160097] [0.049724873412349581:1] [1.9505669223180358e-05:0.99999999990688804] [0.5:1] [0:1] [0:0.99999851324048272] [0:0.99999851324048272] [0:0.99999851324048272] [0:0.99999851324048272] [0:0.98988412058830189] [0:0.97019752110803359] [0:0.94402003300445625] [0:0.86712873164281012] [-0.45611903000564569:0.56876996250199108] [0:0.9629900419462859] [0:0.9629900419462859] [0:0.9629900419462859] [0:0.95809718901207719] [16:36.91999999999998] [0:137.57999999999976] [0:24] [0.90000000000000002:10.73] [0:219.80000000000001] [0:828.17999999999972] [0:1514.6799999999996] [-0.9999994220246925:0.99998555065071859] [-0.99997919295908233:0.9999907524084426] [-1:1] [-1:1] [1:12]
tree_sizes=2836 2943 2964 2946 2955 2960 2965 2975 2930 2963 2986 2978 2974 2956 2985 2994 2993 2986 2994 2994 2966 2994 3005 3001 3020 2992 3001 2988 3008 2962 3017 3014 2977 3010 2992 3017 2997 3004 2993 3017 3003 3009 3007 2991 3013 2993 3023 3043 3021 3035 3025 3017 3040 2989 2995 3038 3048 3014 3035 3030 3025 3028 3024 2996 3025 3029 2992 3019 3022 3030 3027 2969 3032 3011 3005 3020 3023 3016 3019 3027 2999 3064

Tree=0
num_leaves=31
num_cat=0
split_feature=14 27 31 27 14 6 14 1 14 14 14 14 14 16 27 4 16 14 1 27 16 21 16 27 1 2 16 26 0 16
split_gain=5767.5 250.606 153.715 372.037 100.725 92.0824 28.377 23.9961 23.0759 21.7657 4.99082 4.55691 4.39311 3.88643 3.73169 3.73661 3.57414 3.52305 2.57129 2.12534 6.46179 1.66065 1.49022 1.37708 1.10778 1.06322 1.05041 0.839854 0.829127 0.771946
threshold=0.33236870786281342 0.99053107487289871 9.5000000000000018 -0.91597725483594616 0.65647070312781641 1.0000000180025095e-35 0.66264056750288947 0.35671837222554786 0.52120811583377169 0.77168050731310411 0.61347510098485436 0.74048921659722622 0.73445104016775486 0.36150330634366518 -0.90893996196865023 0.88352182246723754 0.26896693303678915 0.58698408746328323 0.3815160975373047 0.99374995976406788 4.4411908172229984e-10 4.5000000000000009 0.71860610228726829 -0.94705910369513524 0.35671837222554786 0.38021675504892877 0.37762586875265253 1.2000000000000017 27.500000000000004 0.44589878977583669
decision_type=2 2 2 2 2 2 2 2 2 2 2 2 2 2 2 2 2 2 2 2 2 2 2 2 2 2 2 2 2 2
left_child=1 5 4 6 8 16 17 -3 13 12 24 -8 22 27 15 -5 -1 -4 28 20 -20 -11 -6 -19 26 -23 -10 -2 -9 -15
right_child=2 7 3 14 9 -7 11 18 10 21 -12 -13 -14 29 -16 -17 -18 23 19 -21 -22 25 -24 -25 -26 -27 -28 -29 -30 -31
leaf_value=0.39923479392150535 0.4053499756634712 0.39941357784102477 0.40991242704643999 0.39085175161317492 0.42219336545497199 0.38702360103956318 0.42153918337666574 0.41233066275010011 0.41081799171480854 0.4263425003129041 0.42011072773522795 0.42606003541257387 0.42455860072969437 0.41122099944676738 0.38706223789082983 0.40748600230757825 0.40500562186078687 0.41711188076375094 0.38907474677105669 0.41581408441166107 0.41546837645709439 0.42692206711663339 0.42368070689838822 0.41268390307111352 0.41802466287683515 0.42941904678455217 0.41646958290714603 0.40993216738299665 0.40480630747720286 0.41515222998304507
leaf_weight=801 270 413 285 114 5468 21840 1140 58 100 2699 3776 1235 5972 248 1000 46 414 900 30 725 86 1061 3108 240 2420 1372 872 156 93 298
leaf_count=801 270 413 285 114 5468 21840 1140 58 100 2699 3776 1235 5972 248 1000 46 414 900 30 725 86 1061 3108 240 2420 1372 872 156 93 298
internal_value=0.407391 0.389019 0.421101 0.412987 0.422547 0.387769 0.420554 0.409511 0.417862 0.424483 0.418843 0.423905 0.423487 0.410613 0.388222 0.395652 0.401188 0.414951 0.413731 0.414808 0.408411 0.427301 0.422736 0.416197 0.417424 0.428347 0.415905 0.407054 0.407651 0.4134
internal_weight=57240 24460 32780 4960 27820 23055 3800 1405 8140 19680 7168 2375 14548 972 1160 160 1215 1425 992 841 116 5132 8576 1140 3392 2433 972 426 151 546
internal_count=57240 24460 32780 4960 27820 23055 3800 1405 8140 19680 7168 2375 14548 972 1160 160 1215 1425 992 841 116 5132 8576 1140 3392 2433 972 426 151 546
is_linear=0
shrinkage=1


Tree=1
num_leaves=31
num_cat=0
split_feature=6 23 27 30 27 19 26 1 1 12 3 3 19 1 30 27 1 27 12 1 4 19 3 27 27 27 11 27 17 1
split_gain=5080.2 250.681 239.464 106.26 296.201 57.792 23.5793 18.2712 12.1573 10.7029 7.85705 7.5622 5.45543 4.27655 3.92087 7.90142 3.82759 3.6459 3.61134 3.16512 3.02361 2.75571 2.73152 2.44185 2.42897 8.78794 4.47192 2.03813 6.66651 1.57741
threshold=1.0000000180025095e-35 5.2516666666666678 0.9916835347852474 0.25000000000000017 -0.91597725483594616 0.65505090343354377 1.100000000000001 0.40953224086772105 0.35671837222554786 0.77642269543255027 0.44361212982263393 0.65193246433705654 0.37917149958570484 0.40383561366786586 0.25000000000000017 -0.91597725483594616 0.43956858637763968 -0.90893996196865023 0.46105656227932329 0.36830558580577905 0.88352182246723754 0.55941785703513414 0.66397235645153052 0.46800856592688472 -0.91597725483594616 -0.065535378769913874 0.26570819677422886 0.99374995976406788 7.3468118289863275e-10 0.43956858637763968
decision_type=2 2 2 2 2 2 2 2 2 2 2 2 2 2 2 2 2 2 2 2 2 2 2 2 2 2 2 2 2 2
left_child=1 3 -2 5 7 11 13 19 -4 22 -8 12 -1 24 18 -16 -11 20 -12 -5 -6 -13 -7 29 -3 -26 -27 28 -10 -24
right_child=2 6 8 4 17 9 10 -9 27 16 14 21 -14 -15 15 -17 -18 -19 -20 -21 -22 -23 23 -25 25 26 -28 -29 -30 -31
leaf_value=0.0012143915682390665 -0.01934939308049486 0.0015684898271176376 -0.0071019387081670202 0.0061915576125153382 -0.015324373300921507 0.013071637679536348 -0.0027501739305624789 0.016254263209357352 -0.018431074619293216 0.017182269007126282 0.0042584017924311244 0.010842297397370158 0.0094219548437430092 0.011164899790200635 0.0051372067705496034 -0.018532796371114126 0.020095912760606356 -0.019306398432530167 0.012057961801041239 0.010858705766760963 9.0107740540253491e-05 0.012917045055776042 0.0158332693891245 0.014117240619527766 -0.018804600232612715 -0.0078978100739779903 -0.0017714682567389513 0.0072368481591916032 0.0070354526101226991 0.018441215860959127
leaf_weight=239 21840 84 203 628 93 1241 385 1995 33 4383 330 2976 1456 33 155 44 1702 834 281 939 46 3998 7926 2260 143 857 465 825 99 747
leaf_count=239 21840 84 203 628 93 1241 385 1995 33 4383 330 2976 1456 33 155 44 1702 834 281 939 46 3998 7926 2260 143 857 465 825 99 747
internal_value=1.11813e-07 0.0122085 -0.0181736 0.0134795 0.00639203 0.0146723 -0.0021878 0.0130719 0.00395187 0.0162705 0.00310558 0.0113026 0.00827266 -0.00619175 0.00590113 -0.000145982 0.0180036 -0.0180342 0.00788251 0.00900236 -0.0102055 0.0120356 0.0154014 0.0156631 -0.00657841 -0.00705348 -0.00575494 0.0063145 0.000458359 0.0160622
internal_weight=57240 34240 23000 31463 4535 26928 2777 3562 1160 18259 1195 8669 1695 1582 810 199 6085 973 611 1567 139 6974 12174 10933 1549 1465 1322 957 132 8673
internal_count=57240 34240 23000 31463 4535 26928 2777 3562 1160 18259 1195 8669 1695 1582 810 199 6085 973 611 1567 139 6974 12174 10933 1549 1465 1322 957 132 8673
is_linear=0
shrinkage=0.05


Tree=2
num_leaves=31
num_cat=0
split_feature=14 30 30 14 13 19 6 19 14 14 3 19 15 13 23 14 14 12 14 11 15 23 21 20 12 15 22 19 25 2
split_gain=4700.55 125.333 88.4781 83.6607 41.9087 25.8742 58.5091 32.608 18.8872 18.1913 14.975 9.64144 6.69699 6.19351 4.27267 4.22624 3.6636 3.65405 3.57014 2.98885 2.61527 2.00325 2.32934 1.91636 1.95769 1.90833 2.32564 1.81541 1.60641 1.55352
threshold=0.33236870786281342 0.25000000000000017 0.25000000000000017 0.65647070312781641 0.68799203819009014 1.1622992753309562e-09 1.0000000180025095e-35 1.0000000180025095e-35 0.52120811583377169 0.77168050731310411 0.69976124918221638 9.1066281332865982e-10 -0.080946620214731077 0.77898438086342059 5.1710000000000003 0.61347510098485436 0.23852174347279625 0.60599538352030613 0.71759806862359843 0.43997970834830991 -0.14531906669459352 3.2258333333333336 21.500000000000004 24.500000000000004 0.83107446700625631 -0.099280743683552317 7.5000000000000009 5.4525547903158312e-10 11.000000000000009 0.34707435472460618
decision_type=2 2 2 2 2 2 2 2 2 2 2 2 2 2 2 2 2 2 2 2 2 2 2 2 2 2 2 2 2 2
left_child=2 3 5 8 12 7 16 14 19 18 27 29 17 25 -1 -10 -7 -3 -5 -2 -15 22 23 24 -22 26 -6 -9 -13 -12
right_child=1 4 -4 9 13 6 -8 10 15 -11 11 28 -14 20 -16 -17 -18 -19 -20 -21 21 -23 -24 -25 -26 -27 -28 -29 -30 -31
leaf_value=-0.010620190836557977 0.00051661750919807826 -0.0077683051558508649 -0.018381627356798266 0.013616947493459578 0.0021009226578572195 -0.0084099383039950692 -0.018369485000171333 -0.0065892466875873404 0.0089945903649071395 0.018023678145187325 0.00080476396994834604 -0.010932278235547276 0.0012663484015599455 0.0045148810059842419 -0.01692457080925799 0.011467382395137065 -0.003359618868691436 -6.3953727095866672e-05 0.015248465009043869 0.0061695821293927715 0.013663715611054348 0.01392340040666005 0.01612684240676291 0.0026143636771673649 0.0050197732484775041 0.0073525940663151787 0.010543413354614796 -0.014696872182251734 -0.00013921686155455451 0.0069570904594854341
leaf_weight=811 573 485 18040 6368 416 724 2640 158 3392 5132 136 119 835 146 429 3776 736 229 8180 399 161 573 107 134 122 1650 102 139 51 477
leaf_count=811 573 485 18040 6368 416 724 2640 158 3392 5132 136 119 835 146 429 3776 736 229 8180 399 161 573 107 134 122 1650 102 139 51 477
internal_value=3.0591e-07 0.0123773 -0.0165861 0.013683 0.00505003 -0.0115359 -0.0139271 -0.00729953 0.00941336 0.0154477 -0.00093474 0.00268321 -0.00176377 0.00814665 -0.0128272 0.0103007 -0.00587693 -0.00531659 0.0145365 0.00285333 0.0109757 0.0118191 0.00946585 0.0076811 0.0100186 0.00651357 0.00380824 -0.010472 -0.00778221 0.00561371
internal_weight=57240 32780 24460 27820 4960 6420 4100 2320 8140 19680 1080 783 1549 3411 1240 7168 1460 714 14548 972 1243 1097 524 417 283 2168 518 297 170 613
internal_count=57240 32780 24460 27820 4960 6420 4100 2320 8140 19680 1080 783 1549 3411 1240 7168 1460 714 14548 972 1243 1097 524 417 283 2168 518 297 170 613
is_linear=0
shrinkage=0.05


Tree=3
num_leaves=31
num_cat=0
split_feature=6 23 27 30 27 19 26 2 20 2 3 3 12 19 1 27 30 27 12 22 1 27 1 27 27 12 27 17 5 2
split_gain=4138.26 205.555 200.566 86.3278 264.28 47.2063 19.5242 15.568 11.3258 9.3724 6.50558 6.4376 4.43111 4.3802 3.52214 3.22401 3.14571 7.01602 2.90717 2.63462 2.51071 2.49172 2.48288 2.16701 7.81162 3.35592 1.82089 5.645 1.7547 1.62921
threshold=1.0000000180025095e-35 5.2516666666666678 0.9916835347852474 0.25000000000000017 -0.91597725483594616 0.65505090343354377 1.100000000000001 0.35500952675048664 29.600000000000005 0.38208665255910917 0.65193246433705654 0.44361212982263393 0.72994414564155485 0.37917149958570484 0.40383561366786586 -0.90893996196865023 0.25000000000000017 -0.91597725483594616 0.46105656227932329 15.500000000000002 0.35671837222554786 -0.099819732675876835 0.40383561366786586 -0.91597725483594616 -0.065535378769913874 0.27940092239492498 0.99374995976406788 9.402682438592669e-10 0.75000000000000011 0.32804777357150888
decision_type=2 2 2 2 2 2 2 2 2 2 2 2 2 2 2 2 2 2 2 2 2 2 2 2 2 2 2 2 2 2
left_child=1 3 -2 5 7 10 14 20 26 12 13 -8 29 -1 23 19 18 -18 -13 -6 -5 -12 -23 -3 -25 -26 27 -4 -11 -7
right_child=2 6 8 4 15 9 11 -9 -10 28 21 16 -14 -15 -16 -17 17 -19 -20 -21 -22 22 -24 24 25 -27 -28 -29 -30 -31
leaf_value=0.0010596593470785093 -0.017478250209505195 0.0016780077331094889 -0.016698094904422763 0.0050370817854585694 -0.013792306535741745 0.0104267134183725 -0.0024995311738925151 0.014873009546415645 -0.0063991104548762924 0.016003575433482672 0.013832133739260823 0.0038480120828932015 0.014953661107162633 0.0084187879323844531 0.010080940291501474 -0.018489165010386638 0.0048940056253235029 -0.017411001488402651 0.010853371699662072 0.0018749893593116547 0.0095516431317267149 0.0093378446867132363 0.011413067501081365 -0.017539765501207959 -0.0066535277231383394 -0.00072026469784993103 0.0070950125165627435 0.0068246956371153028 0.018757157782756252 0.013447088806513553
leaf_weight=239 21840 84 33 470 105 548 385 2090 217 1341 682 330 8881 1456 33 834 155 44 281 34 1002 2616 3676 143 1004 318 814 96 1395 6094
leaf_count=239 21840 84 33 470 105 548 385 2090 217 1341 682 330 8881 1456 33 834 155 44 281 34 1002 2616 3676 143 1004 318 814 96 1395 6094
internal_value=3.98821e-07 0.011019 -0.0164022 0.0121699 0.00578132 0.0132451 -0.00201697 0.0120912 0.00384598 0.0146897 0.0101993 0.00279928 0.0142061 0.00738888 -0.00566055 -0.0172909 0.00533014 -8.12403e-05 0.00710481 -0.00990974 0.00812355 0.0108792 0.0105543 -0.00601179 -0.00646079 -0.0052363 0.00622055 0.000607843 0.0174207 0.0132018
internal_weight=57240 34240 23000 31463 4535 26928 2777 3562 1160 18259 8669 1195 15523 1695 1582 973 810 199 611 139 1472 6974 6292 1549 1465 1322 943 129 2736 6642
internal_count=57240 34240 23000 31463 4535 26928 2777 3562 1160 18259 8669 1195 15523 1695 1582 973 810 199 611 139 1472 6974 6292 1549 1465 1322 943 129 2736 6642
is_linear=0
shrinkage=0.05


Tree=4
num_leaves=31
num_cat=0
split_feature=14 27 30 27 14 6 14 3 14 14 14 14 14 14 27 4 26 12 27 18 3 21 18 27 12 3 12 23 3 3
split_gain=3831.18 170.728 102.157 269.652 69.3755 59.5455 19.8954 18.3206 15.4 15.3728 3.63017 3.53227 3.0893 2.67727 2.67725 2.80385 2.48994 2.4438 1.55968 5.13554 1.2918 1.29122 1.20688 1.09524 0.865286 0.814997 0.793178 0.769415 0.749887 0.725258
threshold=0.33236870786281342 0.99053107487289871 0.25000000000000017 -0.91597725483594616 0.65647070312781641 1.0000000180025095e-35 0.66264056750288947 0.66397235645153052 0.52120811583377169 0.77168050731310411 0.74048921659722622 0.61347510098485436 0.73445104016775486 0.58698408746328323 -0.90893996196865023 0.88352182246723754 1.2000000000000017 0.27940092239492498 0.99374995976406788 3.3149499543807292e-10 0.63985490630510777 4.5000000000000009 4.4035811010421e-10 -0.94705910369513524 0.46105656227932329 0.66397235645153052 0.35354135715641871 6.7950000000000008 0.8563059025560491 0.62774995054069516
decision_type=2 2 2 2 2 2 2 2 2 2 2 2 2 2 2 2 2 2 2 2 2 2 2 2 2 2 2 2 2 2
left_child=1 5 4 6 8 17 13 27 16 12 -8 20 25 -4 15 -5 -2 -1 19 -9 26 -11 -20 -15 -18 -6 -10 -3 -24 -13
right_child=2 7 3 14 9 -7 10 18 11 21 -12 29 -14 23 -16 -17 24 -19 22 -21 -22 -23 28 -25 -26 -27 -28 -29 -30 -31
leaf_value=-0.0067272047173249309 -0.0010272540981212696 -0.0019415388109029403 0.0019133515766284221 -0.014357521523725547 0.011104610516349658 -0.016604397356192239 0.011699601421993434 -0.01619798517049249 0.0016309656737622811 0.015488741653041087 0.015729047387247438 0.0085475362517419794 0.014022556339087664 0.0082093617133056924 -0.017509365655515294 2.4099337427239661e-05 0.0027891755633890798 -0.0018414760346691949 0.0098771798298223287 0.0063672450839959349 0.0087087903744044199 0.017246180413769813 0.0023275528404103703 0.0042622177551575697 0.0066103649406956087 0.012701384814636854 0.0069105772166690744 -0.0074152998650334132 0.0064867408487759839 0.010650890570850807
leaf_weight=835 322 86 285 114 1139 21840 1140 32 84 2699 1235 581 5972 900 1000 46 394 380 221 100 2418 2433 157 240 256 7437 890 361 448 3195
leaf_count=835 322 86 285 114 1139 21840 1140 32 84 2699 1235 581 5972 900 1000 46 394 380 221 100 2418 2433 157 240 256 7437 890 361 448 3195
internal_value=5.66749e-07 -0.0149736 0.0111746 0.00455901 0.0123534 -0.0160048 0.0110015 0.00193963 0.0084651 0.0139604 0.0138077 0.00926643 0.0131226 0.00630791 -0.0165241 -0.0101991 0.00254029 -0.00521153 0.00584265 0.000701445 0.00807165 0.0163287 0.0066494 0.00739384 0.00432124 0.0124925 0.00646871 -0.00639449 0.00543233 0.0103334
internal_weight=57240 24460 32780 4960 27820 23055 3800 1405 8140 19680 2375 7168 14548 1425 1160 160 972 1215 958 132 3392 5132 826 1140 650 8576 974 447 605 3776
internal_count=57240 24460 32780 4960 27820 23055 3800 1405 8140 19680 2375 7168 14548 1425 1160 160 972 1215 958 132 3392 5132 826 1140 650 8576 974 447 605 3776
is_linear=0
shrinkage=0.05


Tree=5
num_leaves=31
num_cat=0
split_feature=14 27 31 27 14 6 14 3 14 14 16 14 14 14 27 4 16 16 27 17 14 27 17 27 27 14 24 1 3 27
split_gain=3457.8 154.09 92.1936 243.426 62.6511 53.7249 17.9495 16.5476 16.0888 11.5156 4.11814 3.52754 3.27129 2.41455 2.40816 2.53777 2.2956 1.81655 1.4117 4.65711 1.26104 1.19643 1.08743 1.06878 0.985261 0.936321 0.72798 0.718245 0.707017 0.699215
threshold=0.33236870786281342 0.99053107487289871 9.5000000000000018 -0.91597725483594616 0.67868161283987127 1.0000000180025095e-35 0.66264056750288947 0.66397235645153052 0.55960476088692912 0.77168050731310411 0.37762586875265253 0.62660713681565416 0.74048921659722622 0.58698408746328323 -0.90893996196865023 0.88352182246723754 0.2242955954733222 0.73503651581532015 0.99374995976406788 9.402682438592669e-10 0.79788351812878056 0.49812943072827093 1.0000000180025095e-35 -0.97113884758256674 -0.94705910369513524 0.73721867951639919 4.5000000000000009 0.40383561366786586 0.42121858117570837 -0.94705910369513524
decision_type=2 2 2 2 2 2 2 2 2 2 2 2 2 2 2 2 2 2 2 2 2 2 2 2 2 2 2 2 2 2
left_child=1 5 4 6 8 16 13 28 10 17 -2 -10 29 -4 15 -5 -1 23 19 -9 -11 -12 -20 27 -15 -25 -22 -6 -3 -8
right_child=2 7 3 14 9 -7 12 18 11 20 21 -13 -14 24 -16 -17 -18 -19 22 -21 26 -23 -24 25 -26 -27 -28 -29 -30 -31
leaf_value=-0.0073439034767904896 0.00051817520943624185 -0.0075749440017202786 0.0018181848960618656 -0.013648968645012678 0.0081628434923220246 -0.015774234686827749 0.011802746066203754 -0.014814810595462023 0.0083212561810402583 0.014508643847977476 0.0078300031380275532 0.010424779667460955 0.014943549076040242 0.007799576682947589 -0.016635208607196073 2.2932403966000194e-05 -0.0029332286218339623 0.013381112211416009 0.0093866499971096105 0.0062678311238692488 0.015167285726457811 0.0042503208441723632 0.0051626262087981481 0.011908824784465781 0.0040504305213044465 0.01339161066544285 0.017046162048129469 0.012386367132347077 -0.0032301869809256757 0.0084390984918575346
leaf_weight=552 581 289 285 114 328 21840 900 34 4000 2196 436 4268 1235 900 1000 46 663 5720 221 98 1258 563 605 4872 240 1734 1678 186 158 240
leaf_count=552 581 289 285 114 328 21840 900 34 4000 2196 436 4268 1235 900 1000 46 663 5720 221 98 1258 563 605 4872 240 1734 1678 186 158 240
internal_value=7.73792e-07 -0.014225 0.0106163 0.00433151 0.0117362 -0.0152047 0.0104528 0.00184262 0.0085256 0.0134941 0.00388667 0.00941001 0.0131184 0.00599398 -0.0157 -0.00969267 -0.0049519 0.0126847 0.00555225 0.000657104 0.0155128 0.00583202 0.00631983 0.0121212 0.0070254 0.0123025 0.0162527 0.00974219 -0.00607745 0.0111154
internal_weight=57240 24460 32780 4960 27820 23055 3800 1405 9848 17972 1580 8268 2375 1425 1160 160 1215 12840 958 132 5132 999 826 7120 1140 6606 2936 514 447 1140
internal_count=57240 24460 32780 4960 27820 23055 3800 1405 9848 17972 1580 8268 2375 1425 1160 160 1215 12840 958 132 5132 999 826 7120 1140 6606 2936 514 447 1140
is_linear=0
shrinkage=0.05


Tree=6
num_leaves=31
num_cat=0
split_feature=28 27 20 16 2 16 12 16 2 3 28 18 2 1 28 27 16 27 15 1 3 27 20 13 13 2 30 2 2 28
split_gain=2896.09 557.68 172.173 48.6314 11.3902 10.8312 7.76465 5.01692 3.69795 3.22614 2.44604 4.21032 2.4195 2.30147 2.27037 1.91201 1.69698 1.64864 1.47046 1.18155 1.17261 1.05281 1.21692 1.04079 0.98819 0.987286 0.912839 0.899025 0.789474 0.699991
threshold=0.1318557721318592 -0.91597725483594616 30.100000000000005 0.64805397580982171 0.35500952675048664 0.76030713146797235 0.27940092239492498 0.58700902066146143 0.38208665255910917 0.65193246433705654 0.11478523713130605 2.491675120141438e-09 0.34456399280900657 0.35671837222554786 -0.89404254237865755 -0.90893996196865023 0.39409581517655706 0.79383249484937135 0.023116607999338654 0.34345435232071453 0.92494310664709556 -0.97113884758256674 22.500000000000004 0.81698194556357784 0.19828034112111773 0.31309228017571505 -0.24999999999999994 0.36816089217535103 0.32804777357150888 -0.6523320455745395
decision_type=2 2 2 2 2 2 2 2 2 2 2 2 2 2 2 2 2 2 2 2 2 2 2 2 2 2 2 2 2 2
left_child=2 4 3 7 13 12 19 9 -7 16 20 -12 21 28 -8 18 -1 27 -3 24 26 -5 -23 -6 -4 -9 -11 -14 -2 -27
right_child=1 15 6 5 23 8 14 25 -10 10 11 -13 17 -15 -16 -17 -18 -19 -20 -21 -22 22 -24 -25 -26 29 -28 -29 -30 -31
leaf_value=0.00096317662315612495 0.0005517845624306983 -0.013545449790466766 -0.0073715732011079733 0.0080391954381445301 0.011835530761165525 0.013257241352166505 0.0048918086307982375 0.0072584508511460552 0.015786459979012051 0.0076007148933855519 -0.014381808258259477 0.0061219083475951251 0.011699256351015437 0.0076870568782068513 -0.0011393267504655254 -0.015022914165310989 0.0057263413024921999 0.0097551504823726563 -0.0036095571274660076 -0.0022057141436903137 0.0089656160793071382 0.0097189709594328877 0.012231305184710529 0.015430578847908081 -0.004222604798145597 0.010712787746354591 0.0046981358544341302 0.012859058005972144 0.0048572320210910182 0.0090935812619260727
leaf_weight=246 192 88 784 525 1104 5969 216 472 2063 2207 32 97 5282 704 547 22840 866 882 72 217 1763 1433 872 304 405 1503 342 3258 256 1699
leaf_count=246 192 88 784 525 1104 5969 216 472 2063 2207 32 97 5282 704 547 22840 866 882 72 217 1763 1433 872 304 405 1503 342 3258 256 1699
internal_value=1.021e-06 -0.0125194 0.0101032 0.0111025 0.00961114 0.0124728 -0.00348757 0.00808744 0.0139109 0.00712702 0.00773462 0.000852241 0.0115277 0.00589573 0.000561213 -0.0149835 0.00468432 0.011924 -0.00921127 -0.00569009 0.00793783 0.010199 0.0106811 0.0126344 -0.00631404 0.00953283 0.00721819 0.0121451 0.00304229 0.00986141
internal_weight=57240 25560 31680 29511 2560 20284 2169 9227 8032 5553 4441 129 12252 1152 763 23000 1112 9422 160 1406 4312 2830 2305 1408 1189 3674 2549 8540 448 3202
internal_count=57240 25560 31680 29511 2560 20284 2169 9227 8032 5553 4441 129 12252 1152 763 23000 1112 9422 160 1406 4312 2830 2305 1408 1189 3674 2549 8540 448 3202
is_linear=0
shrinkage=0.05


Tree=7
num_leaves=31
num_cat=0
split_feature=6 23 30 19 18 19 13 26 18 20 11 29 20 11 12 2 30 2 26 20 13 2 2 4 2 4 18 13 12 30
split_gain=2745.85 137.745 57.4172 37.4917 38.0714 30.9831 14.823 13.5868 10.269 6.65045 6.57848 4.52653 4.27063 4.00872 3.5829 2.83704 2.73278 2.43266 2.39396 2.31102 1.98896 1.87039 1.71172 1.62618 1.57571 1.49911 1.4438 1.44137 1.36242 1.34804
threshold=1.0000000180025095e-35 5.2312500000000011 0.25000000000000017 1.1622992753309562e-09 1.1939584431522217e-09 0.65505090343354377 0.73208761347189932 1.100000000000001 4.1724020260873905e-09 29.600000000000005 0.77461328337894286 0.93301270189221952 30.100000000000005 0.57035763436629927 0.61454017490112478 0.38208665255910917 0.25000000000000017 0.35034158627758777 4.0999999999999925 30.100000000000005 0.86439431565364166 0.32804777357150888 0.31309228017571505 0.26208623911825096 0.35838039432244467 0.3715818551225068 0.67015499782752486 0.2702621541678088 0.46105656227932329 0.25000000000000017
decision_type=2 2 2 2 2 2 2 2 2 2 2 2 2 2 2 2 2 2 2 2 2 2 2 2 2 2 2 2 2 2
left_child=1 2 5 4 11 13 14 17 9 -6 21 -2 16 19 23 -12 28 29 -13 24 25 -7 -15 -4 -1 -8 -18 -14 -9 -3
right_child=3 7 6 -5 8 10 20 12 -10 -11 15 18 27 22 -16 -17 26 -19 -20 -21 -22 -23 -24 -25 -26 -27 -28 -29 -30 -31
leaf_value=0.0063235559425994835 -0.014194562037289762 -0.0043169392708568479 -0.0052107480223283929 -0.01421911271920645 0.0041024661433429034 0.0086661711650365316 0.0045822601106183395 0.0036966224601805348 -0.010839775536237783 -0.0068917917736934205 0.012589305264039617 -0.011626593278324847 -0.0035975947663946838 0.0066505304615204867 0.0029374396247284309 0.015000471734394036 -0.0060221482834577275 0.0082196204217386912 -0.0070963186637975455 0.0012893984939778844 0.012855747571429266 0.011396626858646213 0.0094031394109236523 0.00016064842754414635 0.0091047916088555815 0.0076240507157789017 0.0027956105451051464 0.0017688231741088843 0.0088732763951826828 -0.0085580682269291424
leaf_weight=1856 1200 1324 207 19480 671 728 561 243 195 171 5141 772 282 684 1391 1757 69 34 511 186 155 10625 5157 424 755 1783 134 220 297 227
leaf_count=1856 1200 1324 207 19480 671 728 561 243 195 171 5141 772 282 684 1391 1757 69 34 511 186 155 10625 5157 424 755 1783 134 220 297 227
internal_value=1.27364e-06 0.00897675 0.00992867 -0.0133598 -0.00859712 0.0108056 0.00470909 -0.00158475 -0.000539183 0.00184953 0.0119752 -0.011956 0.00231738 0.00833157 0.00151831 0.013208 0.00472363 -0.00465542 -0.00984043 0.00675203 0.00728437 0.0112236 0.0090843 -0.00159381 0.00713638 0.0069037 -0.000174847 -0.00122765 0.00657894 -0.00495177
internal_weight=57240 34240 31410 23000 3520 26889 4521 2830 1037 842 18251 2483 1245 8638 2022 6898 743 1585 1283 2797 2499 11353 5841 631 2611 2344 203 502 540 1551
internal_count=57240 34240 31410 23000 3520 26889 4521 2830 1037 842 18251 2483 1245 8638 2022 6898 743 1585 1283 2797 2499 11353 5841 631 2611 2344 203 502 540 1551
is_linear=0
shrinkage=0.05


Tree=8
num_leaves=31
num_cat=0
split_feature=28 29 28 20 16 1 16 19 16 2 1 12 28 22 2 2 28 28 2 22 20 29 20 28 20 28 1 28 2 20
split_gain=2368.38 294.385 172.229 140.48 39.5379 9.47971 8.59176 6.58828 4.56077 3.03526 2.24939 2.3846 1.93196 2.1604 1.81851 1.65408 1.59744 1.39829 1.36678 1.3311 1.18006 1.03281 1.02041 0.846308 0.995507 0.819148 0.836961 0.767884 0.729958 0.701966
threshold=0.1318557721318592 -0.6830127018922193 0.39629089145655322 30.100000000000005 0.65247244483972677 0.39569893375516624 0.76030713146797235 0.28618245082841953 0.59467034712298117 0.38208665255910917 0.40383561366786586 0.46105656227932329 0.41202506375868281 15.500000000000002 0.34456399280900657 0.36409207446671082 -0.89404254237865755 0.11478523713130605 0.30611639470090379 8.5000000000000018 33.150000000000013 0.25000000000000011 25.500000000000004 -0.24372464231556024 22.500000000000004 -0.78324956448884031 0.37536720608578283 0.31595530242620651 0.31309228017571505 19.500000000000004
decision_type=2 2 2 2 2 2 2 2 2 2 2 2 2 2 2 2 2 2 2 2 2 2 2 2 2 2 2 2 2 2
left_child=3 2 5 4 8 18 14 20 10 -8 11 22 13 -4 23 -7 -9 -12 -2 -19 -5 -16 -1 24 -6 -24 -27 -17 -10 -13
right_child=1 -3 12 7 6 15 9 16 28 -11 17 29 -14 -15 21 27 -18 19 -20 -21 -22 -23 25 -25 -26 26 -28 -29 -30 -31
leaf_value=0.0051652390572472506 0 -0.013535534430794034 -0.011886797259251278 -0.0033869045671490587 0.0087916857674598514 0.0088743394945437707 0.011992900212755826 0.0049137237970865374 0.0067175800361289704 0.014287543739766229 0.0078634575233859465 0.0053030987987685201 -0.015129998352488339 0.0019827635397373792 0.011106727665249411 0.013318205317414011 -0.00050830057752991598 0.0058598596611764376 0.005539603911386682 -0.0064787197944277258 -0.0062162599759219101 0.0097653104740411459 0.0046779257379496444 0.0072624394948121174 0.011124572109388572 -0.0018130810863876729 0.0031867266551493037 0.010123492079326068 0.0090626543238058726 0.0072832585196862037
leaf_weight=589 128 21840 126 727 1344 576 5969 195 435 2063 2519 760 1000 34 7028 748 431 60 768 32 816 2158 191 500 843 174 157 340 3252 1437
leaf_count=589 128 21840 126 727 1344 576 5969 195 435 2063 2519 760 1000 34 7028 748 431 60 768 32 816 2158 191 500 843 174 157 340 3252 1437
internal_value=1.33929e-06 -0.011321 0.00167776 0.00913685 0.0100396 0.0089212 0.0113123 -0.00313911 0.00739979 0.0125861 0.00652917 0.00564519 -0.01429 -0.00888655 0.0104484 0.0111583 0.00117244 0.00764141 0.00474378 0.00142614 -0.00489424 0.0107943 0.00372807 0.00925647 0.0097025 0.00207718 0.000532031 0.0123443 0.00879153 0.0066069
internal_weight=57240 25560 3720 31680 29511 2560 19905 2169 9606 8032 5919 3308 1160 160 11873 1664 626 2611 896 92 1543 9186 1111 2687 2187 522 331 1088 3687 2197
internal_count=57240 25560 3720 31680 29511 2560 19905 2169 9606 8032 5919 3308 1160 160 11873 1664 626 2611 896 92 1543 9186 1111 2687 2187 522 331 1088 3687 2197
is_linear=0
shrinkage=0.05


Tree=9
num_leaves=31
num_cat=0
split_feature=14 28 28 14 3 14 14 14 14 14 27 22 14 26 27 16 16 28 28 3 28 3 14 1 3 3 27 16 1 21
split_gain=2297.85 238.101 130.229 56.2643 19.7076 12.5298 10.7549 2.99082 2.04934 1.78484 1.73789 1.9564 1.62343 1.62197 1.39193 3.17241 1.29957 0.752333 0.747035 0.751032 0.672182 0.605711 0.749516 0.584406 0.582892 0.56008 0.534384 0.514841 0.694947 0.508947
threshold=0.33236870786281342 0.39629089145655322 0.1318557721318592 0.65647070312781641 0.65795776626523483 0.7679876435079952 0.52120811583377169 0.60479784873894971 0.73445104016775486 0.23852174347279625 -0.90893996196865023 15.500000000000002 0.79788351812878056 1.2000000000000017 0.99374995976406788 3.335754870534221e-10 1.0000000180025095e-35 0.31595530242620651 0.26659387353423869 0.63985490630510777 0.31595530242620651 0.62774995054069516 0.62778936677878316 0.39569893375516624 0.48383717227007905 0.8563059025560491 0.99907018497641664 0.72996325292800857 0.29727051116548481 4.5000000000000009
decision_type=2 2 2 2 2 2 2 2 2 2 2 2 2 2 2 2 2 2 2 2 2 2 2 2 2 2 2 2 2 2
left_child=2 3 4 6 9 8 13 18 20 24 11 -3 -7 -2 15 -6 26 21 19 -8 27 -9 -23 -17 -1 -18 -16 28 -5 -14
right_child=1 10 -4 5 14 12 7 17 -10 -11 -12 -13 29 -15 16 23 25 -19 -20 -21 -22 22 -24 -25 -26 -27 -28 -29 -30 -31
leaf_value=-0.0063051037427755662 -0.0009518948819677754 -0.011299449710577142 -0.012858804254223708 0.0042256997438342454 -0.013475799765159835 0.011876413393634379 0.0044807308927872214 0.0064246209219008966 0.010840881995299147 -0.0024613946997454148 -0.014374631272216946 0.0018878144319628327 0.01262912206828355 0.0030277768661091187 0.010845265850590176 -0.00013962239834454355 0.0014168773073123528 0.0037740500818513496 0.0024639681594576259 0.006355226876592077 0.006619785931849597 0.0072143055991042721 0.0086115877735518497 0.0064570335754480391 -0.0021921641539142805 0.0049940688183942438 0.00540170615509389 0.010278075568721975 0.0094422551994993338 0.01414863997461735
leaf_weight=838 373 126 21840 75 32 3568 823 905 5645 685 1000 34 1361 789 128 53 158 140 192 1975 220 2070 2298 78 107 448 93 2957 6369 1860
leaf_count=838 373 126 21840 75 32 3568 823 905 5645 685 1000 34 1361 789 128 53 158 140 192 1975 220 2070 2298 78 107 448 93 2957 6369 1860
internal_value=1.53232e-06 0.00865531 -0.0115952 0.00947184 -0.00105691 0.0108616 0.00626498 0.00688881 0.0100607 -0.00443808 -0.0135771 -0.00844373 0.0126585 0.00174213 0.00449827 0.000208422 0.00532981 0.00759714 0.00559995 0.00581013 0.00960032 0.00769565 0.00795441 0.00374132 -0.00585418 0.00408366 0.00865134 0.00966794 0.00938409 0.0135159
internal_weight=57240 32780 24460 31620 2620 22055 9565 8403 15266 1630 1160 160 6789 1162 990 163 827 5413 2990 2798 9621 5273 4368 131 945 606 221 9401 6444 3221
internal_count=57240 32780 24460 31620 2620 22055 9565 8403 15266 1630 1160 160 6789 1162 990 163 827 5413 2990 2798 9621 5273 4368 131 945 606 221 9401 6444 3221
is_linear=0
shrinkage=0.05


Tree=10
num_leaves=31
num_cat=0
split_feature=11 28 28 16 20 16 11 16 3 27 18 28 18 3 27 4 16 28 20 28 20 20 27 20 15 3 16 27 28 3
split_gain=1948.61 273.641 179.927 33.867 27.4494 7.51271 6.71968 2.18341 2.10275 1.66777 3.12589 1.63407 1.59764 1.4979 1.34073 1.89919 1.27867 1.12955 1.00699 0.977182 0.908197 0.872455 0.80451 0.785379 0.771533 0.833467 0.757064 0.739214 0.901084 0.720319
threshold=0.3530298731687937 0.39629089145655322 0.1318557721318592 0.6640496589261099 29.600000000000005 0.76030713146797235 0.55168825451536974 0.2242955954733222 0.66397235645153052 0.99374995976406788 1.0000000180025095e-35 -0.30164489695395946 4.4035811010421e-10 0.94854724588480643 -0.90893996196865023 0.88352182246723754 0.83042057410299164 -0.8142754349318998 21.500000000000004 -0.88620506325989179 27.500000000000004 25.500000000000004 0.80417553764032002 27.500000000000004 -1.0000000180025095e-35 0.8563059025560491 0.71860610228726829 0.94704596667653973 -0.6523320455745395 0.4156951687109266
decision_type=2 2 2 2 2 2 2 2 2 2 2 2 2 2 2 2 2 2 2 2 2 2 2 2 2 2 2 2 2 2
left_child=2 3 4 6 9 13 8 29 17 10 -1 18 -11 19 15 -3 -7 -2 -8 -5 -10 -19 -15 -13 -14 -26 -21 28 -20 -6
right_child=1 14 -4 5 7 16 11 -9 20 12 -12 23 24 22 -16 -17 -18 21 27 26 -22 -23 -24 -25 25 -27 -28 -29 -30 -31
leaf_value=-0.012352858028591499 0.0049258075843779383 -0.011542999670885536 -0.012214763847299553 0.0097279810475241202 -0.0059037180440708542 0.010967611180555212 0.0070078402086742103 -0.0017901466602613038 0.0068391859768812237 0.0090273106773986374 0.0042615198178506232 0.0065907570605390087 0.0069085414683791218 0.010163589818129712 -0.013273876392615581 0.00026921361998507855 0.012391978626001242 0.0033808715505589701 0.009137773026078197 0.0076036906240920929 0.0041522375967140901 -7.2147950645981787e-05 0.0079174835424252413 0.002731560705119253 0.00077444630083607635 0.0049258809583441823 0.0091645423469695394 0.013425762177559367 0.0073828346983697045 -0.0023383186074818338
leaf_weight=35 430 113 21498 2064 858 6255 1926 804 861 327 124 2208 336 5724 1345 46 2493 361 1868 2049 553 358 508 153 170 483 1562 84 1459 185
leaf_count=35 430 113 21498 2064 858 6255 1926 804 861 327 124 2208 336 5724 1345 46 2493 361 1868 2049 553 358 508 153 170 483 1562 84 1459 185
internal_value=1.67765e-06 0.00807363 -0.0105414 0.00908713 0.000285286 0.0102549 0.00673441 -0.00377187 0.00450237 0.00537112 0.000460694 0.00747523 0.00595561 0.00942846 -0.0127414 -0.00809275 0.0113767 0.00289015 0.00797063 0.00881411 0.00580093 0.00165112 0.00998405 0.0063468 0.00491776 0.00386464 0.00828516 0.00850801 0.00837485 -0.00528515
internal_weight=57240 32420 24820 30916 3322 20655 10261 1847 2563 1475 159 7698 1316 11907 1504 159 8748 1149 5337 5675 1414 719 6232 2361 989 653 3611 3411 3327 1043
internal_count=57240 32420 24820 30916 3322 20655 10261 1847 2563 1475 159 7698 1316 11907 1504 159 8748 1149 5337 5675 1414 719 6232 2361 989 653 3611 3411 3327 1043
is_linear=0
shrinkage=0.05


Tree=11
num_leaves=31
num_cat=0
split_feature=14 27 30 27 14 14 14 14 3 14 14 14 14 27 22 11 3 26 14 27 27 16 16 3 27 13 14 14 14 21
split_gain=1872.28 84.6263 51.0194 144.08 36.3345 28.1377 10.9519 9.89519 9.531 6.339 2.10833 1.90615 1.54541 1.41953 1.66839 1.33559 1.19958 1.10654 1.00326 0.966122 0.777655 2.97629 1.03501 0.736114 0.690276 0.6741 0.547569 0.546632 0.518131 0.493644
threshold=0.33236870786281342 0.99053107487289871 0.25000000000000017 -0.91597725483594616 0.64029129159389697 1.0000000180025095e-35 0.66481505182088929 0.7679876435079952 0.65795776626523483 0.52120811583377169 0.703394610766649 0.74048921659722622 0.58698408746328323 -0.90893996196865023 15.500000000000002 0.26570819677422886 0.60956321167155536 1.3000000000000014 0.79788351812878056 -0.97113884758256674 0.99374995976406788 3.335754870534221e-10 1.0000000180025095e-35 0.70566385233428741 -0.94705910369513524 0.7372706309289041 0.74688367129694677 0.6223282389602649 0.80047479044456382 7.5000000000000009
decision_type=2 2 2 2 2 2 2 2 2 2 2 2 2 2 2 2 2 2 2 2 2 2 2 2 2 2 2 2 2 2
left_child=1 5 4 6 9 -1 12 10 -3 17 23 -8 -4 14 -5 -7 -11 -2 -9 25 21 -10 -22 -6 -14 -12 -21 -18 -13 -25
right_child=2 8 3 13 7 15 11 18 20 16 19 28 24 -15 -16 -17 27 -19 -20 26 22 -23 -24 29 -26 -27 -28 -29 -30 -31
leaf_value=-0.011604336566925104 -0.00062788960591100254 -0.0045882017687681386 0.0011691488454145392 -0.010258512965604372 0.0071819749469314801 -0.0051605327573617235 0.0084040418145653623 0.010709508663959443 -0.012257139745043286 0.0046653069294574617 0.0063642312869390573 0.01074042099406675 0.0059304307384053269 -0.012995122482612382 0.0019009784115871916 -0.0017480419223289195 0.0060545893411678309 0.0028988198654097104 0.012138740210800055 0.0093949033857831186 0.0077883904164008201 0.0048957812291819877 0.0037027973553185912 0.0083611565218634342 0.0029163345604080772 0.0091354416607834239 0.010408558919761489 0.0073312238919623117 0.013533762322745269 0.010008181009202251
leaf_weight=21840 334 445 285 126 1381 715 1045 2808 32 1268 443 950 975 1000 34 500 3054 638 2936 5668 221 101 606 4335 260 583 2342 1390 285 640
leaf_count=21840 334 445 285 126 1381 715 1045 2808 32 1268 443 950 975 1000 34 500 3054 638 2936 5668 221 101 606 4335 260 583 2342 1390 285 640
internal_value=1.84734e-06 -0.0104661 0.00781328 0.00313722 0.0086464 -0.0111921 0.00784701 0.00966334 0.0014397 0.00542771 0.00899684 0.0100424 0.00454068 -0.012273 -0.00761904 -0.00376832 0.0060635 0.00167759 0.0114448 0.00949991 0.00424708 0.000603743 0.00481879 0.00827802 0.00530828 0.00795968 0.00969442 0.00645849 0.0114088 0.008578
internal_weight=57240 24460 32780 4960 27820 23055 3800 21136 1405 6684 15392 2280 1520 1160 160 1215 5712 972 5744 9036 960 133 827 6356 1235 1026 8010 4444 1235 4975
internal_count=57240 24460 32780 4960 27820 23055 3800 21136 1405 6684 15392 2280 1520 1160 160 1215 5712 972 5744 9036 960 133 827 6356 1235 1026 8010 4444 1235 4975
is_linear=0
shrinkage=0.05


Tree=12
num_leaves=31
num_cat=0
split_feature=14 28 28 14 1 14 14 26 14 14 20 27 14 15 28 27 16 16 18 28 28 27 13 14 18 27 20 1 20 28
split_gain=1689.85 175.446 95.3686 42.4605 14.7361 9.60254 7.93858 1.95522 1.83801 1.46046 1.42674 1.27655 1.01757 0.952827 0.848419 0.666576 2.70046 0.71262 0.612059 0.593125 0.588656 0.553134 0.512311 0.438767 0.416284 0.414472 0.453337 0.40626 0.453059 0.426686
threshold=0.33236870786281342 0.39629089145655322 0.1318557721318592 0.65647070312781641 0.36830558580577905 0.77168050731310411 0.55960476088692912 1.3000000000000014 0.73445104016775486 0.60479784873894971 32.95000000000001 -0.90893996196865023 0.83619883363571712 0.023116607999338654 -0.88620506325989179 0.99374995976406788 3.335754870534221e-10 1.0000000180025095e-35 0.30974387365633332 0.31595530242620651 0.31595530242620651 0.99907018497641664 0.2044989568853913 0.62778936677878316 0.55114856565323123 0.57077594689671507 26.500000000000004 0.29727051116548481 23.500000000000004 -0.99273797715557011
decision_type=2 2 2 2 2 2 2 2 2 2 2 2 2 2 2 2 2 2 2 2 2 2 2 2 2 2 2 2 2 2
left_child=2 3 4 6 10 8 7 -2 20 24 25 13 -7 -3 18 16 -6 21 -9 23 27 -17 -12 -11 -8 -1 -27 -5 -29 -30
right_child=1 11 -4 5 15 12 9 14 -10 19 22 -13 -14 -15 -16 17 -18 -19 -20 -21 -22 -23 -24 -25 -26 26 -28 28 29 -31
leaf_value=0.0023896016458888631 -0.00029317166148374636 -0.010732148901543805 -0.011024159470513073 0.005061638219058689 -0.011605254462132087 0.010752163760411819 0.0055481810577531288 0.0027936040677863073 0.0093612142860433466 0.0060581376162988062 -0.0057806716002346843 -0.012346339614999575 0.012785515902013168 -0.0027013794925748085 0.002576336455808043 0.0095369297960787962 0.0050849265676631145 0.0037993234148741319 0.0070850362016584029 0.0031033163547002493 0.0054608034626601803 0.0040783471389422348 -0.0027903571887039594 0.0070507222871049827 0.0040894105614694446 0.0016927833465014059 -0.002759761028922426 0.0080699172079660136 0.0066702488129857422 0.009111158165981641
leaf_weight=44 490 88 21840 120 31 5259 1355 151 6352 2462 656 1000 823 72 998 124 93 558 226 140 220 93 208 2811 932 58 755 6380 249 2652
leaf_count=44 490 88 21840 120 31 5259 1355 151 6352 2462 656 1000 823 72 998 124 93 558 226 140 220 93 208 2811 932 58 755 6380 249 2652
internal_value=2.0167e-06 0.00742315 -0.00994283 0.00812409 -0.00092402 0.00933149 0.00533799 0.00239958 0.00868237 0.00604779 -0.00363639 -0.0116607 0.011032 -0.00723888 0.00336572 0.00425471 0.000743863 0.00480104 0.00541049 0.00650355 0.00823176 0.00728736 -0.00507842 0.00659103 0.00496114 -0.0021646 -0.0024273 0.00829466 0.00833456 0.00890865
internal_weight=57240 32780 24460 31620 2620 22055 9565 1865 15973 7700 1721 1160 6082 160 1375 899 124 775 377 5413 9621 217 864 5273 2287 857 813 9401 9281 2901
internal_count=57240 32780 24460 31620 2620 22055 9565 1865 15973 7700 1721 1160 6082 160 1375 899 124 775 377 5413 9621 217 864 5273 2287 857 813 9401 9281 2901
is_linear=0
shrinkage=0.05


Tree=13
num_leaves=31
num_cat=0
split_feature=14 14 30 30 23 18 18 6 30 14 3 12 14 18 29 14 17 22 23 14 11 14 21 12 14 3 25 19 11 15
split_gain=1525.54 48.4019 20.7975 20.1044 16.2072 14.0595 15.1521 7.98116 7.69365 6.41722 3.67023 3.17647 3.14162 2.68892 2.48375 2.7599 2.33442 2.09855 1.81181 1.41678 1.20336 1.13311 1.08914 0.898911 0.820229 0.816372 0.741664 0.984486 0.737042 1.04307
threshold=0.28260388653530472 0.66578483236203867 0.25000000000000017 0.25000000000000017 5.1516666666666682 4.1724020260873905e-09 1.5279791070904496e-09 1.0000000180025095e-35 0.25000000000000017 0.77476271597266588 0.76609430748397156 0.61454017490112478 0.60479784873894971 0.71494094194526958 -0.5 0.43270567776136065 0.63423157004467146 7.5000000000000009 3.0641666666666674 0.43270567776136065 0.6588485415496691 0.73445104016775486 20.699999999999822 0.72332700122343063 0.71311745999525333 0.36229386402280656 3.200000000000002 1.0000000180025095e-35 0.77223628326920757 0.096867538339858408
decision_type=2 2 2 2 2 2 2 2 2 2 2 2 2 2 2 2 2 2 2 2 2 2 2 2 2 2 2 2 2 2
left_child=3 4 9 5 8 6 26 -7 12 21 -8 -10 19 -4 16 -16 -6 20 22 -2 24 -3 28 -13 -15 -17 27 -1 -19 -30
right_child=1 2 13 -5 14 7 10 -9 11 -11 -12 23 -14 17 15 25 -18 18 -20 -21 -22 -23 -24 -25 -26 -27 -28 -29 29 -31
leaf_value=-0.0085044611581193055 0 0.0079515039862219014 0.00090808789508409573 -0.01044540296477575 -0.0056253999834162127 -0.0042427546846437441 -0.0044725981513456508 -0.010272839997533674 -0.0010028269854827575 0.010501177032862442 0.0034061242566378832 0.0026352883378355659 0.0064553631700801353 0.0030823654023039598 -0.00072618153674637196 -0.00041389598927392976 0.0014067984880266546 0.0051948180816786815 0.0075529377395299902 0.0046525245403154815 0.0037788804409570696 0.0089009584108288384 0.0083246188691581593 0.005932312838022852 -0.0047298125823022454 0.0047385645466197267 -0.0049126420239265414 -0.0052584748731183319 -0.0020471903947273306 0.0038054523428493157
leaf_weight=853 178 7724 483 18040 313 692 193 2832 575 4888 607 732 5432 56 798 88 185 229 913 2530 662 6216 123 303 77 454 391 364 126 183
leaf_count=853 178 7724 483 18040 313 692 193 2832 575 4888 607 732 5432 56 798 88 185 229 913 2530 662 6216 123 303 77 454 391 364 126 183
internal_value=2.115e-06 0.00693118 0.00832608 -0.00961335 0.00431985 -0.00707929 -0.00412307 -0.00909387 0.00513162 0.00892942 0.00148809 0.00196168 0.00575689 0.00433688 7.59442e-06 0.00113365 -0.00299664 0.00503071 0.00609462 0.00434934 0.00290425 0.00837651 0.00405269 0.00361734 -0.00136843 0.00388477 -0.00691969 -0.00754947 0.00303706 0.00138837
internal_weight=57240 33268 21680 23972 11588 5932 2408 3524 9750 18828 800 1610 8140 2852 1838 1340 498 2369 1574 2708 795 13940 661 1035 133 542 1608 1217 538 309
internal_count=57240 33268 21680 23972 11588 5932 2408 3524 9750 18828 800 1610 8140 2852 1838 1340 498 2369 1574 2708 795 13940 661 1035 133 542 1608 1217 538 309
is_linear=0
shrinkage=0.05


Tree=14
num_leaves=31
num_cat=0
split_feature=14 28 28 14 1 14 14 14 14 26 27 1 24 15 11 3 3 28 11 27 28 27 19 16 5 28 28 27 18 27
split_gain=1376.9 150.858 67.0744 42.4827 14.0828 10.5403 9.1618 2.2109 1.93599 1.30684 1.11633 0.877883 0.847337 0.821077 0.836938 0.659039 0.64762 0.61602 0.592686 0.484418 0.711074 0.48084 0.84919 0.725473 0.469434 0.459897 0.412965 0.406195 0.569641 0.482474
threshold=0.28260388653530472 0.39629089145655322 0.1318557721318592 0.62833389999358558 0.35671837222554786 0.74688367129694677 0.52120811583377169 0.79788351812878056 0.67868161283987127 1.5000000000000011 -0.90893996196865023 0.34345435232071453 5.5000000000000009 0.023116607999338654 0.76851281594253418 0.86433055200959041 0.86151430785934358 -0.82413948779581736 0.58520107197656002 -0.9905448150984083 -0.039769286347669845 0.99374995976406788 9.1066281332865982e-10 1.0000000180025095e-35 0.75000000000000011 -0.9292178835113839 0.31595530242620651 0.12545942051955489 0.683024313584775 0.3744682635859638
decision_type=2 2 2 2 2 2 2 2 2 2 2 2 2 2 2 2 2 2 2 2 2 2 2 2 2 2 2 2 2 2
left_child=2 3 4 6 -1 8 9 19 26 -2 13 25 15 18 -15 -10 -6 -11 -3 20 -7 22 -18 -23 -9 -8 -5 28 -17 -29
right_child=1 10 -4 5 16 7 11 24 12 17 -12 -13 -14 14 -16 27 21 -19 -20 -21 -22 23 -24 -25 -26 -27 -28 29 -30 -31
leaf_value=-0.0043312681627528998 -0.00093150244016742103 -0.0037633839628053085 -0.0099592591505280673 0.0065897154145689186 0.001582296071583277 0.0062389645064033347 0.0052919394154222104 0.0098273136768179843 0.0065923729471206649 0.0039168230679735858 -0.011758708791826824 0.005178155011401714 0.0085282317192237125 0.0018895548366638553 -0.0086228304211773098 0.0086151280868585322 -0.0030209837683311132 0.00099603155876739507 -0.013203489369704944 0.0091336652911013765 0.0092219460716214258 0.0080342499219756853 0.0059686928615896124 0.0040181167194092513 0.011220526092556853 0.0030983881226141967 0.0033712541402380822 0.0096837975504767398 0.0069860923552574521 0.0078256457515379404
leaf_weight=1175 767 30 21840 4594 252 456 346 1475 1871 263 1000 4235 2885 40 32 812 52 620 58 5669 450 166 49 438 1746 1006 120 590 2657 1546
leaf_count=1175 767 30 21840 4594 252 456 346 1475 1871 263 1000 4235 2885 40 32 812 52 620 58 5669 450 166 49 438 1746 1006 120 590 2657 1546
internal_value=2.07606e-06 0.00658492 -0.00913293 0.00722522 -0.000662353 0.0082067 0.00384983 0.00948899 0.00737192 0.000568679 -0.0111158 0.00481665 0.00776164 -0.00696348 -0.00272719 0.00746283 0.00383162 0.00188246 -0.010214 0.00894556 0.00774439 0.00461641 0.00126631 0.00515557 0.0105905 0.00367239 0.00651101 0.00774977 0.00737385 0.00835001
internal_weight=57240 33268 23972 32108 2132 24871 7237 9796 15075 1650 1160 5587 10361 160 72 7476 957 883 88 6575 906 705 101 604 3221 1352 4714 5605 3469 2136
internal_count=57240 33268 23972 32108 2132 24871 7237 9796 15075 1650 1160 5587 10361 160 72 7476 957 883 88 6575 906 705 101 604 3221 1352 4714 5605 3469 2136
is_linear=0
shrinkage=0.05


Tree=15
num_leaves=31
num_cat=0
split_feature=14 30 14 30 13 18 17 18 14 14 1 4 13 18 14 14 21 12 3 12 13 12 14 1 18 3 17 13 25 3
split_gain=1242.8 33.807 24.1803 22.1502 11.7517 9.29924 12.5547 11.6341 6.58756 4.22046 3.03057 2.25585 2.08773 1.79996 1.43512 1.16825 1.00802 1.06088 0.926389 0.857803 0.774244 0.769964 0.769915 0.652423 1.19053 0.651643 0.629148 0.838152 0.626454 0.557132
threshold=0.33236870786281342 0.25000000000000017 0.64029129159389697 0.25000000000000017 0.69017372625543438 4.1724020260873905e-09 0.16340644854832173 1.5279791070904496e-09 0.7679876435079952 0.52120811583377169 0.35671837222554786 0.26208623911825096 0.80387429494373319 0.65743094318293172 0.703394610766649 0.30757101941517201 5.5000000000000009 0.83637456960453271 0.63985490630510777 0.44805417015580323 0.53298712282433625 0.29047731220844702 0.83477862873238351 0.44101059519462144 0.74989286101187991 0.66397235645153052 0.63170437266548773 0.63056065063471045 42.850000000000016 0.83275114687564022
decision_type=2 2 2 2 2 2 2 2 2 2 2 2 2 2 2 2 2 2 2 2 2 2 2 2 2 2 2 2 2 2
left_child=3 2 9 5 11 7 -7 15 14 19 -9 13 23 -3 25 28 17 -14 -11 -2 -13 -8 -10 -6 -25 -4 27 -15 -1 -12
right_child=1 4 8 -5 12 6 21 10 22 18 29 20 16 26 -16 -17 -18 -19 -20 -21 -22 -23 -24 24 -26 -27 -28 -29 -30 -31
leaf_value=-0.0065007549251799059 0.00035872871653140132 -0.0056648346922848324 0.0055065729575697227 -0.009425254505099484 0.0037334654554713347 -0.0092254149886905629 -0.0036798699593958285 -0.0055069209312608516 0.0090647817552198702 0.0037323692527889427 -0.0003230426785024522 -0.0051997248971274177 0.0060573856520523307 5.7867291173146609e-05 0.0077461976229622025 -0.00087976242739980074 0.0079640301681382936 0.00011768237278876801 0.0052910825869424303 0.0036079688735015519 0.0010962250031430196 -0.00067067222007505711 0.010824534791897425 -0.0072981667061646771 0.0025577732182103597 0.0069670702638854332 0.00090730007501627552 -0.0076653376594185835 -0.0015991920942830199 0.0033957258921725793
leaf_weight=1533 678 343 1022 18040 2319 2874 709 132 4896 1307 117 50 269 76 9036 112 472 109 4405 294 827 317 848 36 162 5334 237 60 75 551
leaf_count=1533 678 343 1022 18040 2319 2874 709 132 4896 1307 117 50 269 76 9036 112 472 109 4405 294 827 317 848 36 162 5334 237 60 75 551
internal_value=2.21023e-06 0.00636649 0.0070447 -0.00852632 0.00255948 -0.00599716 -0.00752937 -0.00361884 0.00787441 0.00441835 0.00135082 -0.000973121 0.00423349 -0.00305516 0.00733004 -0.00593529 0.00639166 0.0043782 0.00493725 0.00135584 0.000717628 -0.0027622 0.00932908 0.00349733 0.000674259 0.00673516 -0.000615601 -0.00332315 -0.00628005 0.00273018
internal_weight=57240 32780 27820 24460 4960 6420 3900 2520 21136 6684 800 1593 3367 716 15392 1720 850 378 5712 972 877 1026 5744 2517 198 6356 373 136 1608 668
internal_count=57240 32780 27820 24460 4960 6420 3900 2520 21136 6684 800 1593 3367 716 15392 1720 850 378 5712 972 877 1026 5744 2517 198 6356 373 136 1608 668
is_linear=0
shrinkage=0.05


Tree=16
num_leaves=31
num_cat=0
split_feature=6 28 27 11 3 16 1 12 1 28 1 3 3 27 27 27 1 26 1 26 27 18 16 27 3 30 28 28 16 28
split_gain=1091.9 127.007 57.4082 50.9082 14.5828 11.9575 3.5011 3.44635 2.40441 2.28078 2.61924 1.91934 1.33466 0.970834 0.934296 0.836626 0.76273 0.643748 0.62408 0.604836 0.466016 2.06697 0.999425 0.506795 0.431479 0.497533 0.448564 0.430376 0.423944 0.401246
threshold=1.0000000180025095e-35 0.39629089145655322 0.9916835347852474 0.55168825451536974 0.48383717227007905 0.72670248569360396 0.3815160975373047 0.27940092239492498 0.43591405559230673 -0.59177783207548873 0.3815160975373047 0.66397235645153052 0.86151430785934358 -0.90893996196865023 -0.93545489084327571 0.45273815774107123 0.40383561366786586 1.4000000000000024 0.45906811991321278 0.099999999999999992 0.99374995976406788 3.21335296077609e-09 1.0000000180025095e-35 0.99907018497641664 0.95454180670632416 -0.68301270189221952 -0.30164489695395946 -0.25206183926700709 0.20032449042454561 -0.9292178835113839
decision_type=2 2 2 2 2 2 2 2 2 2 2 2 2 2 2 2 2 2 2 2 2 2 2 2 2 2 2 2 2 2
left_child=1 3 -2 4 7 9 19 28 -7 12 27 17 -5 -3 -12 -9 -13 -6 -10 -4 21 -8 23 -22 25 -16 -27 -11 -1 -14
right_child=2 13 6 5 11 8 20 15 18 10 14 16 29 -15 24 -17 -18 -19 -20 -21 22 -23 -24 -25 -26 26 -28 -29 -30 -31
leaf_value=-0.0047074651144352331 -0.0089989920059526055 -0.0066966347866936745 -0.0039563481139199439 0.0058579801242309793 -0.00010463490444966831 0.0076351487328279889 -0.0096307851993120627 0.0022443371650902144 0.008835955313028148 0.0046765008519694395 0.0069927113261069101 0.0038121205040762374 0.0078891244167469659 -0.011188760200590737 0.0030109144335286131 -0.00098480907915020994 0.005934958402481409 0.0027288362984910601 0.010748856860463738 0.00035648990623048397 0.0098275634436298456 0.0051309124581149727 0.0033654331298506195 0.0043712101122732726 0.0059850671056858561 0.006053321982853411 0.0041726111692817159 0.002828117522933749 -0.0026927452938532103 0.0068273357866767666
leaf_weight=549 21840 160 178 3392 291 8568 31 393 3990 531 1516 1181 1632 1000 329 402 727 598 583 141 116 85 522 87 2163 846 620 945 586 3238
leaf_count=549 21840 160 178 3392 291 8568 31 393 3990 531 1516 1181 1632 1000 329 402 727 598 583 141 116 85 522 87 2163 846 620 945 586 3238
internal_value=2.15475e-06 0.00566213 -0.00842322 0.0062327 0.00142569 0.00703365 0.00240625 -0.00191324 0.00814159 0.00607519 0.00539621 0.00373299 0.00664405 -0.0105872 0.00590351 0.000600151 0.00463024 0.0017915 0.00908546 -0.0020261 0.00409996 0.00102828 0.00457453 0.00758724 0.00548131 0.00486422 0.00526983 0.00350393 -0.00368099 0.00718753
internal_weight=57240 34240 23000 33080 4727 28353 1160 1930 13141 15212 6950 2797 8262 1160 5474 795 1908 889 4573 319 841 116 725 203 3958 1795 1466 1476 1135 4870
internal_count=57240 34240 23000 33080 4727 28353 1160 1930 13141 15212 6950 2797 8262 1160 5474 795 1908 889 4573 319 841 116 725 203 3958 1795 1466 1476 1135 4870
is_linear=0
shrinkage=0.05


Tree=17
num_leaves=31
num_cat=0
split_feature=14 27 14 6 31 27 31 27 3 14 14 14 14 14 14 19 27 19 14 27 4 27 27 3 27 3 25 21 3 27
split_gain=1012.76 48.7519 28.0475 15.0314 13.7563 69.3515 9.80101 25.7745 5.69001 4.49994 4.43953 1.56329 1.20655 1.0129 0.859956 0.85333 0.80978 0.712372 0.61331 0.598078 1.23264 0.597134 0.577177 0.482452 0.478387 0.447177 0.39239 0.39022 0.618056 0.385117
threshold=0.33236870786281342 0.99053107487289871 0.66578483236203867 1.0000000180025095e-35 9.5000000000000018 -0.91597725483594616 9.5000000000000018 -0.91597725483594616 0.65795776626523483 0.52120811583377169 0.77853156173947113 0.61804550674205094 0.74048921659722622 0.58698408746328323 0.73445104016775486 0.2127918350786199 -0.9905448150984083 0.42976125796597581 0.83477862873238351 -0.90893996196865023 0.88352182246723754 -0.94705910369513524 -0.97113884758256674 0.86151430785934358 -0.9905448150984083 0.60956321167155536 2.0000000000000031 8.5000000000000018 0.66397235645153052 -0.94705910369513524
decision_type=2 2 2 2 2 2 2 2 2 2 2 2 2 2 2 2 2 2 2 2 2 2 2 2 2 2 2 2 2 2
left_child=1 3 6 15 10 12 9 13 -3 17 14 25 -6 -8 24 -1 -12 -2 -18 20 -7 26 -16 -10 -4 -11 -15 28 -26 -14
right_child=2 8 4 -5 5 19 7 -9 23 11 16 -13 29 21 22 -17 18 -19 -20 -21 -22 -23 -24 -25 27 -27 -28 -29 -30 -31
leaf_value=-0.0043812376229165478 0.0002945407455960539 -0.0033163670015175627 0.0040574918374768464 -0.0085490733894788128 0.0064560969802421736 -0.011109770313576538 0.00092961468688743825 -0.0093578806536081943 0.0015316729691505519 0.0030652550317056475 0.0065963285301825119 0.0054743116388736015 0.0094238027888584458 0.0033261104069928892 0.0059816714322200454 -0.001658750067060487 0.0085692557566036578 0.0032738967590872042 0.010324695321749525 -0.011175446468441775 0.00032076815261116511 0.00213386135259362 0.0074800712504433644 0.0041779422591056627 0.0044274691976089447 0.0043790023580024219 0.0055197239287474104 0.0072790981977309587 0.0064786967219496658 0.0069521027521798331
leaf_weight=512 684 445 231 21840 950 54 285 493 248 946 495 4260 975 341 855 703 3433 288 716 575 38 280 5605 712 444 2814 709 1650 5399 260
leaf_count=512 684 445 231 21840 950 54 285 493 248 946 495 4260 975 341 855 703 3433 288 716 575 38 280 5605 712 444 2814 709 1650 5399 260
internal_value=2.24394e-06 -0.00769661 0.00574742 -0.00824769 0.00679458 0.00354888 0.00370062 0.000625978 0.00133833 0.00442007 0.00728537 0.00480985 0.00785881 0.00368572 0.00684049 -0.00281821 0.00863936 0.00119127 0.00887823 -0.0105409 -0.00635211 0.0042671 0.00728474 0.00350818 0.0064663 0.00405248 0.00482259 0.0065384 0.00632571 0.0089206
internal_weight=57240 24460 32780 23055 21680 2852 11100 2108 1405 8992 18828 8020 2185 1615 14184 1215 4644 972 4149 667 92 1330 6460 960 7724 3760 1050 7493 5843 1235
internal_count=57240 24460 32780 23055 21680 2852 11100 2108 1405 8992 18828 8020 2185 1615 14184 1215 4644 972 4149 667 92 1330 6460 960 7724 3760 1050 7493 5843 1235
is_linear=0
shrinkage=0.05


Tree=18
num_leaves=31
num_cat=0
split_feature=14 28 28 14 20 14 14 14 14 14 27 4 25 1 18 27 17 17 28 27 27 11 14 1 27 28 3 20 27 28
split_gain=914.26 107.268 45.4592 29.0279 10.2298 7.38111 5.98841 1.54211 1.29374 0.909128 0.815406 1.245 0.726657 0.568115 0.559737 0.541923 2.02523 1.19355 0.521689 0.550309 0.498284 0.448484 0.45879 0.436313 0.424652 0.400014 0.421318 0.399293 0.391076 0.648576
threshold=0.28260388653530472 0.39629089145655322 0.1318557721318592 0.62833389999358558 28.500000000000004 0.74688367129694677 0.52120811583377169 0.79788351812878056 0.686464635071795 0.43270567776136065 -0.90893996196865023 0.88352182246723754 1.2000000000000017 0.34345435232071453 0.683024313584775 0.99374995976406788 1.2036180783672095e-09 4.4300922579454385e-10 -0.99864786094873803 -0.97113884758256674 0.99907018497641664 0.71018612902512757 0.70392702020364706 0.34345435232071453 -0.099819732675876835 0.16587474750015932 0.31739878148087192 22.500000000000004 -0.9905448150984083 -0.039769286347669845
decision_type=2 2 2 2 2 2 2 2 2 2 2 2 2 2 2 2 2 2 2 2 2 2 2 2 2 2 2 2 2 2
left_child=2 3 4 6 15 8 9 28 27 -2 11 12 -3 -8 18 16 -1 20 -10 -20 -17 22 -16 -6 -21 26 -11 -5 29 -7
right_child=1 10 -4 5 23 7 13 -9 14 25 -12 -13 -14 -15 21 17 -18 -19 19 24 -22 -23 -24 -25 -26 -27 -28 -29 -30 -31
leaf_value=-0.010076099382852441 -0.00050532418132424384 -0.0023944487214088445 -0.0081216488452241307 0.0049509776948826007 -0.003740602918250117 0.0048417960929689431 0.0029719404312883268 0.0087133713924945153 0.0041097498610853178 -0.0015073321960293331 -0.01011079009925492 0.00074921860036097085 -0.011478311706264066 0.0041896263120263918 0.0043321848454799484 0.009389141930274696 0.0042196611768538974 0.0027951099634974221 0.0037408431935078757 0.0080474026735410289 0.0041640346086702293 0.006458348656239208 0.0059691093349396596 -0.00033310934903195151 0.0066923471154734923 -0.00077807587986844821 0.0028889420456544895 0.0058445841537876795 0.0075041961620771914 0.0076602515945983001
leaf_weight=32 976 36 21840 2802 1117 456 1352 3221 175 57 1000 46 78 4235 675 123 93 564 132 1218 93 3739 1727 110 1645 112 505 2962 5669 450
leaf_count=32 976 36 21840 2802 1117 456 1352 3221 175 57 1000 46 78 4235 675 123 93 564 132 1218 93 3739 1727 110 1645 112 505 2962 5669 450
internal_value=2.36187e-06 0.0053665 -0.00744137 0.00590646 -0.000467173 0.00671782 0.00311593 0.00779128 0.00601889 0.000461886 -0.00955892 -0.00598594 -0.00876465 0.00389762 0.00639177 0.00355686 0.000404811 0.00404745 0.00696438 0.0071257 0.00722965 0.00609292 0.00551626 -0.00344404 0.00727623 0.00187529 0.00242248 0.00541332 0.00733616 0.00626306
internal_weight=57240 33268 23972 32108 2132 24871 7237 9796 15075 1650 1160 160 114 5587 9311 905 125 780 3170 2995 216 6141 2402 1227 2863 674 562 5764 6575 906
internal_count=57240 33268 23972 32108 2132 24871 7237 9796 15075 1650 1160 160 114 5587 9311 905 125 780 3170 2995 216 6141 2402 1227 2863 674 562 5764 6575 906
is_linear=0
shrinkage=0.05


Tree=19
num_leaves=31
num_cat=0
split_feature=14 27 14 31 27 14 31 27 6 1 14 14 14 27 14 12 27 13 27 14 1 27 22 27 1 27 27 18 16 27
split_gain=825.157 39.4088 26.7622 11.986 60.8214 6.45073 6.68812 15.7755 6.00517 4.59706 4.14677 1.14348 0.964024 0.819338 0.9028 0.779154 0.871151 0.626315 0.622554 0.721553 0.526874 0.516397 0.98441 0.47029 0.442345 0.429272 0.383547 1.70796 0.815048 0.410739
threshold=0.28260388653530472 0.9916835347852474 0.65339480095810065 9.5000000000000018 -0.91597725483594616 0.52120811583377169 9.5000000000000018 -0.91597725483594616 1.0000000180025095e-35 0.35671837222554786 0.7679876435079952 0.74048921659722622 0.61804550674205094 -0.96689237009891416 0.70547631561941027 0.46105656227932329 1.0000000180025095e-35 0.7372706309289041 -0.9905448150984083 0.83477862873238351 0.3815160975373047 -0.90893996196865023 15.500000000000002 -0.94705910369513524 0.3815160975373047 -0.94705910369513524 0.99374995976406788 3.21335296077609e-09 1.0000000180025095e-35 0.99907018497641664
decision_type=2 2 2 2 2 2 2 2 2 2 2 2 2 2 2 2 2 2 2 2 2 2 2 2 2 2 2 2 2 2
left_child=1 8 5 10 11 15 12 23 -1 -3 13 25 -7 17 -15 16 -2 20 -12 -20 -4 22 -6 -8 -11 -5 27 -26 29 -28
right_child=2 9 3 4 21 6 7 -9 -10 24 18 -13 -14 14 -16 -17 -18 -19 19 -21 -22 -23 -24 -25 26 -27 28 -29 -30 -31
leaf_value=-0.0033190585034671666 -0.0060157284003994251 -0.0034727304332085075 0.0015645649566017083 0.0063375905412830381 -0.0090001697431911134 0.0036564742455576608 0.0038655867227082165 -0.0083084017701712757 -0.007715594123881714 0.00016192692765926427 0.0059279816739488157 0.0080900104167376946 0.0048803230389563761 0.0056252188025899914 0.006504925897904597 0.0019410521980822504 -0.00016428141736025178 0.0058606185149740787 0.0075531698260107088 0.0093747820560252538 0.0046873483658630855 -0.010088440267114952 0.001466504288098169 0.0013944546594099724 -0.0089206519081042376 0.0037862203627856933 0.0087216012596519326 0.0044998584142643848 0.0028861588411097476 0.0037928187086820435
leaf_weight=817 66 358 227 900 70 3760 975 377 21840 116 561 1235 3044 5329 7690 446 1196 664 4467 716 390 625 30 260 31 240 116 85 522 87
leaf_count=817 66 358 227 900 70 3760 975 377 21840 116 561 1235 3044 5329 7690 446 1196 664 4467 716 390 625 30 260 31 240 116 85 522 87
internal_value=2.41136e-06 -0.00706929 0.00509847 0.00603686 0.00313503 0.00295169 0.00352023 0.000616464 -0.00755773 0.00133783 0.00648489 0.00700653 0.00420643 0.00602389 0.0061463 0.000143804 -0.000484993 0.00476635 0.00762897 0.00780938 0.0035612 -0.00952199 -0.00578638 0.00335576 0.00315044 0.0058149 0.00354976 0.000760141 0.00397984 0.00670148
internal_weight=57240 23972 33268 23144 3100 10124 8416 1612 22657 1315 20044 2375 6804 14300 13019 1708 1262 1281 5744 5183 617 725 100 1235 957 1140 841 116 725 203
internal_count=57240 23972 33268 23144 3100 10124 8416 1612 22657 1315 20044 2375 6804 14300 13019 1708 1262 1281 5744 5183 617 725 100 1235 957 1140 841 116 725 203
is_linear=0
shrinkage=0.05


Tree=20
num_leaves=31
num_cat=0
split_feature=6 28 20 28 12 1 28 1 13 2 18 20 21 20 19 28 22 20 25 31 23 25 20 0 2 28 28 1 28 28
split_gain=724.477 84.507 38.2415 38.1503 11.1688 3.31817 2.69452 2.41695 2.28227 2.07745 0.98741 0.76548 0.74962 0.70751 0.691292 0.679303 1.10588 0.631539 0.604855 0.580912 0.50445 0.490211 0.425791 0.389698 0.38833 0.375982 0.586997 0.55134 0.370184 0.347273
threshold=1.0000000180025095e-35 0.39629089145655322 30.100000000000005 0.1318557721318592 0.71456270379889586 0.3815160975373047 -0.82413948779581736 0.3815160975373047 0.2702621541678088 0.38021675504892877 0.55114856565323123 20.500000000000004 5.5000000000000009 22.500000000000004 0.46107552219250103 0.41202506375868281 15.500000000000002 27.500000000000004 2.0000000000000031 5.5000000000000009 6.9416666666666673 0.80000000000000071 32.95000000000001 27.500000000000004 0.35211104998191295 -0.99052477729077237 -0.24372464231556024 0.40756595563122439 0.31595530242620651 0.11478523713130605
decision_type=2 2 2 2 2 2 2 2 2 2 2 2 2 2 2 2 2 2 2 2 2 2 2 2 2 2 2 2 2 2
left_child=1 2 4 7 5 6 11 20 22 19 -7 -1 -11 28 -13 16 18 -8 -3 24 -2 -10 -4 -23 -6 -21 -27 -28 -12 -9
right_child=3 15 8 -5 9 10 17 29 21 12 13 14 -14 -15 -16 -17 -18 -19 -20 25 -22 23 -24 -25 -26 26 27 -29 -30 -31
leaf_value=0.003578357129690503 0.00051475506936559724 -0.0022094361090112011 -0.001615309020756501 -0.007329841301053572 0.0019227803081274032 0.004328035699028147 0.0028899703417754122 0.0037838182075801969 -0.00021474070579607877 0.006728026239455575 0.0049588564786216902 0.0030313098697245192 0.0083354431343146095 0.0058259404039283725 0.0062188822084812767 -0.0091457597187502189 0.0023318886169245547 0.0010665060602383103 -0.009987527682767278 0.0053282756909770182 -0.0034346448428096499 0.0042163267302775947 -0.0034505510430653378 0 0.0052759087370187786 0.0066633680282977836 0.0047055157429969734 0.0062698331784314335 0.0023810075612440873 0.00071505683353368906
leaf_weight=750 137 42 550 21840 111 3388 2176 725 335 1473 3608 225 1836 4318 1037 1000 34 635 84 1103 182 153 856 84 767 6690 949 1871 165 116
leaf_count=750 137 42 550 21840 111 3388 2176 725 335 1473 3608 225 1836 4318 1037 1000 34 635 84 1103 182 153 856 84 767 6690 949 1871 165 116
internal_value=2.45518e-06 0.00461286 0.00507831 -0.00686045 0.00550709 0.00460123 0.00349171 0.00196642 -0.00165789 0.00650364 0.00506602 0.00489398 0.0076263 0.00537295 0.00566276 -0.00864119 -0.00537004 0.0024824 -0.00752976 0.00617853 -0.00171284 0.000990237 -0.00274223 0.00272604 0.00486737 0.00628535 0.00639445 0.00574973 0.00484976 0.00337444
internal_weight=57240 34240 33080 23000 31102 16302 4823 1160 1978 14800 11479 2012 3309 8091 1262 1160 160 2811 126 11491 319 572 1406 237 878 10613 9510 2820 3773 841
internal_count=57240 34240 33080 23000 31102 16302 4823 1160 1978 14800 11479 2012 3309 8091 1262 1160 160 2811 126 11491 319 572 1406 237 878 10613 9510 2820 3773 841
is_linear=0
shrinkage=0.05


Tree=21
num_leaves=31
num_cat=0
split_feature=14 28 28 14 20 14 14 3 16 28 14 14 27 22 14 3 25 18 27 18 16 28 28 20 21 29 22 27 22 23
split_gain=672.472 80.1154 39.1054 17.8464 6.86265 4.36366 3.21252 0.898468 0.762927 0.910131 0.701611 0.668149 0.608211 1.00345 0.578727 0.564611 0.543746 0.42764 0.391 1.59247 0.835722 0.378068 0.35472 0.401677 0.512792 0.41467 0.315314 0.315238 0.307829 0.294243
threshold=0.33236870786281342 0.39629089145655322 0.1318557721318592 0.65647070312781641 27.500000000000004 0.77017416895407831 0.55960476088692912 0.42121858117570837 0.36150330634366518 -0.82413948779581736 0.73445104016775486 0.62778936677878316 -0.90893996196865023 15.500000000000002 0.83619883363571712 0.60956321167155536 2.0000000000000031 0.18745992837651274 0.99374995976406788 3.21335296077609e-09 1.0000000180025095e-35 0.26659387353423869 -0.99052477729077237 22.500000000000004 5.5000000000000009 -0.93301270189221908 2.5000000000000004 0.99907018497641664 6.5000000000000009 4.2983333333333347
decision_type=2 2 2 2 2 2 2 2 2 2 2 2 2 2 2 2 2 2 2 2 2 2 2 2 2 2 2 2 2 2
left_child=2 3 4 6 18 10 8 17 26 -10 22 21 13 16 29 -13 -3 -6 19 -1 27 -8 -5 24 -24 -25 -2 -20 -12 -7
right_child=1 12 -4 5 7 14 11 -9 9 -11 28 15 -14 -15 -16 -17 -18 -19 20 -21 -22 -23 23 25 -26 -27 -28 -29 -30 -31
leaf_value=-0.0091727383245551394 -0.00075701021959030451 -0.0021027737342078109 -0.0069633740724842786 0.0041388141779357818 -0.0037571588914046871 0.0069607997481492268 0.0035269070449748282 -0.00048052494099658986 0.0040072114712479722 0.0011978969089967756 0.0053243903616740753 0.0028878894439205993 -0.0086891566985437887 0.0022202205322158172 0.0083549578651317385 0.0047541570322065935 -0.0094969122922211376 -0.0018126781966545345 0.0081446761393404819 0.0038655197135692475 0.0025276919118417426 0.0013362143264287335 0.0043862006959111844 0.0034612574622923929 0.0055818677582369775 0.005746223031921481 0.0024908855836323941 0.0037445264856198002 0.0061899326613447268 0.0055446530103621262
leaf_weight=30 417 42 21840 832 756 5207 4565 511 429 930 1813 537 1000 34 823 2374 84 501 117 89 530 224 2289 240 1744 4516 89 86 4076 515
leaf_count=30 417 42 21840 832 756 5207 4565 511 429 930 1813 537 1000 34 823 2374 84 501 117 89 530 224 2289 240 1744 4516 89 86 4076 515
internal_value=2.51534e-06 0.00468406 -0.00627094 0.0051578 -0.000494389 0.00594075 0.00335077 -0.00227363 0.00147847 0.00209551 0.00547945 0.00380258 -0.00821079 -0.00510612 0.0070309 0.00441498 -0.00716437 -0.00299318 0.00318353 0.000422309 0.00361642 0.00342698 0.00520383 0.00530279 0.00490761 0.00563415 -0.000160362 0.00637061 0.00592659 0.00683658
internal_weight=57240 32780 24460 31620 2620 22055 9565 1768 1865 1359 15510 7700 1160 160 6545 2911 126 1257 852 119 733 4789 9621 8789 4033 4756 506 203 5889 5722
internal_count=57240 32780 24460 31620 2620 22055 9565 1768 1865 1359 15510 7700 1160 160 6545 2911 126 1257 852 119 733 4789 9621 8789 4033 4756 506 203 5889 5722
is_linear=0
shrinkage=0.05


Tree=22
num_leaves=31
num_cat=0
split_feature=14 27 14 30 27 14 30 27 6 20 14 14 3 14 3 27 27 3 27 1 13 18 14 27 5 27 4 27 17 17
split_gain=606.948 28.9357 19.974 8.8038 45.2029 4.80004 4.89672 11.42 4.33995 3.70674 3.08847 0.8912 0.756768 0.711978 0.647819 0.634979 0.555987 0.436613 0.404659 0.432788 0.591365 0.410665 0.402402 0.384587 0.383387 0.379744 0.78387 0.378801 1.54192 0.909935
threshold=0.28260388653530472 0.9916835347852474 0.65399127648202915 0.25000000000000017 -0.91597725483594616 0.52120811583377169 0.25000000000000017 -0.91597725483594616 1.0000000180025095e-35 28.500000000000004 0.77853156173947113 0.74048921659722622 0.63985490630510777 0.73445104016775486 0.65193246433705654 -0.9905448150984083 0.57077594689671507 0.70566385233428741 -0.97113884758256674 0.40383561366786586 0.7741741634379028 0.77105474042212729 0.83477862873238351 -0.94705910369513524 0.75000000000000011 -0.90893996196865023 0.88352182246723754 0.99374995976406788 1.2036180783672095e-09 4.4300922579454385e-10
decision_type=2 2 2 2 2 2 2 2 2 2 2 2 2 2 2 2 2 2 2 2 2 2 2 2 2 2 2 2 2 2
left_child=1 8 5 10 11 14 12 23 -1 27 13 -5 -7 17 -2 -12 -14 -4 19 20 -15 -20 -17 -8 -19 26 -6 28 -3 -29
right_child=2 9 3 4 25 6 7 -9 -10 -11 15 -13 16 18 -16 22 -18 24 21 -21 -22 -23 -24 -25 -26 -27 -28 29 -30 -31
leaf_value=-0.0028740126354209242 -0.00052140472917775284 -0.0088513669727453542 0.0041832786535722557 0.0049878038766864811 -0.0085897638186935559 0.0025644143649325001 0.0033206411045998115 -0.0070639053302050574 -0.0066152293592370084 -0.0027842782800817719 0.0049184461764332187 0.0070000848175036648 0.0048502263856123155 0.0015806562670661101 0.0016011515031157707 0.0066748940847650463 0.0035908077869128106 0.0049275916930536824 0.0060771946427032354 0.0056393323970215566 0.0055823439422198586 0.0050261110014981417 0.0081065190396805448 0.0010851673710136141 0.0059741752120081931 -0.0086956151599229467 0.00012813074097913854 0.0061206558263678665 0.0036228900525605589 0.0022461284404416931
leaf_weight=817 1197 32 1787 1140 59 1472 975 377 21840 410 495 1235 1204 235 511 3433 4252 5817 4146 456 164 1459 716 260 1212 625 41 216 93 564
leaf_count=817 1197 32 1787 1140 59 1472 975 377 21840 410 495 1235 1204 235 511 3433 4252 5817 4146 456 164 1459 716 260 1212 625 41 216 93 564
internal_value=2.56401e-06 -0.00606242 0.0043732 0.00519109 0.00270422 0.00253451 0.00301842 0.000528472 -0.00648096 0.00114055 0.00557737 0.00604216 0.00359609 0.00522966 0.00010862 0.0067169 0.00387182 0.0049246 0.00564319 0.00455073 0.00326518 0.0058068 0.0069272 0.00285999 0.00511071 -0.00820652 -0.00496783 0.00293135 0.000283338 0.00334156
internal_weight=57240 23972 33268 23020 3100 10248 8540 1612 22657 1315 19920 2375 6928 15276 1708 4644 5456 8816 6460 855 399 5605 4149 1235 7029 725 100 905 125 780
internal_count=57240 23972 33268 23020 3100 10248 8540 1612 22657 1315 19920 2375 6928 15276 1708 4644 5456 8816 6460 855 399 5605 4149 1235 7029 725 100 905 125 780
is_linear=0
shrinkage=0.05


Tree=23
num_leaves=31
num_cat=0
split_feature=28 11 27 28 16 20 16 2 3 2 28 11 13 11 18 27 21 27 18 18 20 2 10 27 15 27 12 27 2 27
split_gain=516.104 82.7747 25.1062 20.954 8.98812 8.70557 3.15285 1.42897 1.17664 0.941685 1.22231 0.728687 0.704304 0.682918 0.64051 0.60563 0.572238 0.556011 1.38963 1.19941 0.449288 0.445385 0.443309 0.430188 1.05791 0.424845 0.402307 0.39251 0.390023 0.374313
threshold=0.31595530242620651 0.3530298731687937 -0.91597725483594616 0.1318557721318592 0.72670248569360396 29.600000000000005 0.59467034712298117 0.38021675504892877 0.77995520752272529 0.35034158627758777 -0.82413948779581736 0.68829602696592829 0.2044989568853913 0.66542099376839825 0.61895461810175967 0.79383249484937135 5.5000000000000009 0.99374995976406788 1.0000000180025095e-35 4.4035811010421e-10 22.500000000000004 0.33241044064408104 0.36259444341085867 -0.90893996196865023 -0.067480370186265445 0.62587949062545845 0.46105656227932329 -0.20180236284700911 0.35922392274917608 -0.99866806308218525
decision_type=2 2 2 2 2 2 2 2 2 2 2 2 2 2 2 2 2 2 2 2 2 2 2 2 2 2 2 2 2 2
left_child=1 3 11 5 6 17 8 -6 25 10 14 -2 21 23 -8 20 -9 18 -1 -19 -11 -7 -17 24 -4 -3 -27 -16 -21 -22
right_child=2 4 13 -5 7 12 9 16 -10 15 -12 -13 -14 -15 27 22 -18 19 -20 28 29 -23 -24 -25 -26 26 -28 -29 -30 -31
leaf_value=-0.0083230237785267506 0.0010966279416793772 0.0025980052867229258 -0.007819465825074836 -0.00654497370998414 0.0054594158971858417 -0.0034343445999236314 0.0058540600379927629 0.0058549465283468556 0.0036634653218652032 0.0044306913810301263 0.0031598826944913404 0.0041626635576973332 -0.00089578472638234181 -0.0080493442312425927 0.0052280899621717503 0.0046118233708423084 0.0073445614534246584 0.0060421687905045686 0.0027541313603134509 0.0013288908546470711 0.0088487674128053719 -0.00089065936294456917 0.0028512527506197611 -0.0062859219494858804 0.0039916719811063416 5.5917986599761523e-05 0.0023340899191423912 0.0032816515887475611 0.003388698066796203 0.0053016050867428968
leaf_weight=35 390 1528 38 1762 9807 858 880 1260 2662 2164 2697 410 758 616 454 951 1765 327 124 430 87 231 659 20552 34 421 373 771 559 3637
leaf_count=35 390 1528 38 1762 9807 858 880 1260 2662 2164 2697 410 758 616 454 951 1765 327 124 430 87 231 659 20552 34 421 373 771 559 3637
internal_value=2.62851e-06 0.0037596 -0.00599701 -0.00213977 0.00475588 0.00019565 0.00400894 0.00576062 0.00294033 0.00444071 0.00387921 0.0026853 -0.00208777 -0.00632466 0.00479318 0.00479814 0.00673061 0.00306095 0.000198462 0.00339858 0.00504078 -0.00290591 0.00390072 -0.00627208 -0.00213829 0.00210518 0.0011411 0.00401669 0.00250659 0.00539069
internal_weight=57240 35200 22040 5084 30116 3322 17284 12832 4984 12300 4802 800 1847 21240 2105 7498 3025 1475 159 1316 5888 1089 1610 20624 72 2322 794 1225 989 3724
internal_count=57240 35200 22040 5084 30116 3322 17284 12832 4984 12300 4802 800 1847 21240 2105 7498 3025 1475 159 1316 5888 1089 1610 20624 72 2322 794 1225 989 3724
is_linear=0
shrinkage=0.05


Tree=24
num_leaves=31
num_cat=0
split_feature=14 27 14 14 30 27 30 27 23 14 14 14 14 14 27 5 27 13 14 27 27 2 26 26 27 19 19 14 15 14
split_gain=494.592 23.7217 14.213 7.21507 6.54787 34.6696 4.88805 12.4984 2.83121 2.34185 2.32295 0.823965 0.742349 0.633043 0.577451 0.536584 0.574237 0.609929 0.524339 0.495882 0.448597 0.383441 0.377315 0.372736 0.365136 1.39224 0.657751 0.348015 0.34188 0.330142
threshold=0.33236870786281342 0.99053107487289871 0.66578483236203867 0.20695373475386283 0.25000000000000017 -0.91597725483594616 0.25000000000000017 -0.91597725483594616 6.7950000000000008 0.58919246410789217 0.77853156173947113 0.43270567776136065 0.80047479044456382 0.62731302501051167 -0.9905448150984083 0.75000000000000011 -0.97113884758256674 0.71212508592488966 0.74688367129694677 -0.94705910369513524 0.58481550752069722 0.33241044064408104 15.100000000000007 45.200000000000017 0.99274428880883148 4.1488336056774042e-10 1.0000000180025095e-35 0.62833389999358558 -0.11669852808660645 0.83477862873238351
decision_type=2 2 2 2 2 2 2 2 2 2 2 2 2 2 2 2 2 2 2 2 2 2 2 2 2 2 2 2 2 2
left_child=1 3 6 -1 10 12 9 13 24 11 15 -2 19 -8 -12 16 17 -4 22 -6 -5 -10 -18 -11 25 -3 -26 -25 -13 -16
right_child=2 8 4 20 5 -7 7 -9 21 23 14 28 -14 -15 29 -17 18 -19 -20 -21 -22 -23 -24 27 26 -27 -28 -29 -30 -31
leaf_value=-0.0059509608305678566 -8.4963737678047247e-05 -0.0085352017678005602 0.0011289286638094277 0.0018089933912896099 0.0056205241053007924 -0.0074385789411230245 0.0015608223718379215 -0.0065634145959081736 -0.0033949164549408398 0.0038397189643705741 0.0043715647931472368 0.00057470841286831988 0.0080327625738425956 0.003579327105859815 0.0060531875575130702 0.0053197134438815671 0.0049057059558784942 0.0041521269935006809 0.0053339072083311767 0.0035305760681973069 -0.0019286312193820022 -1.6905742503952628e-05 0.0041216970889208599 0.0022754405565449621 0.0050594344646339396 0.0028198760535309299 0.0018923407526219953 0.0035869476936397715 0.0024759502412182778 0.0073577916819050548
leaf_weight=22049 488 34 247 84 1500 667 855 493 305 4349 495 294 285 760 3433 3705 3044 599 2594 400 922 124 3995 993 238 111 593 1222 1646 716
leaf_count=22049 488 34 247 84 1500 667 855 493 305 4349 495 294 285 760 3433 3705 3044 599 2594 400 922 124 3995 993 238 111 593 1222 1646 716
internal_value=2.6868e-06 -0.00537742 0.00401762 -0.00576185 0.00476319 0.00252162 0.00256006 0.000387245 0.000923074 0.00306817 0.00510197 0.00173178 0.00556969 0.00251933 0.00608317 0.00477941 0.00458668 0.00328483 0.00469945 0.00518893 -0.00160439 -0.00244521 0.00446313 0.00356047 0.00241531 2.89174e-05 0.0028189 0.00300544 0.00219364 0.00628331
internal_weight=57240 24460 32780 23055 21680 2852 11100 2108 1405 8992 18828 2428 2185 1615 4644 14184 10479 846 9633 1900 1006 429 7039 6564 976 145 831 2215 1940 4149
internal_count=57240 24460 32780 23055 21680 2852 11100 2108 1405 8992 18828 2428 2185 1615 4644 14184 10479 846 9633 1900 1006 429 7039 6564 976 145 831 2215 1940 4149
is_linear=0
shrinkage=0.05


Tree=25
num_leaves=31
num_cat=0
split_feature=14 28 28 14 1 14 14 3 3 21 11 28 4 25 21 14 13 20 13 14 14 28 28 14 28 28 3 18 12 28
split_gain=446.409 53.6178 25.85 12.1776 4.68919 3.33147 1.84506 0.660424 0.627349 0.729094 0.617171 0.485797 0.904852 0.544911 0.473362 0.416254 0.49158 0.404403 0.374224 0.372993 0.338882 0.368198 0.311541 0.293761 0.289466 0.273086 0.437185 0.270984 0.270005 0.278808
threshold=0.33236870786281342 0.39629089145655322 0.1318557721318592 0.64708370276332083 0.3815160975373047 0.7679876435079952 0.55960476088692912 0.42121858117570837 0.9749936047977138 5.5000000000000009 0.59844824724552781 0.41202506375868281 0.88352182246723754 1.2000000000000017 4.5000000000000009 0.70794967376840401 0.6660732043133194 33.750000000000007 0.2044989568853913 0.60479784873894971 0.81957642593437263 0.31595530242620651 -0.98212955754013376 0.68771755026035952 0.16587474750015932 -0.82413948779581736 0.79895552347742294 0.86471226718721728 0.35354135715641871 -0.82413948779581736
decision_type=2 2 2 2 2 2 2 2 2 2 2 2 2 2 2 2 2 2 2 2 2 2 2 2 2 2 2 2 2 2
left_child=2 3 4 6 7 8 10 18 9 15 17 12 13 -3 22 16 -5 24 -1 -8 21 -16 27 -11 28 26 -21 -7 -2 -30
right_child=1 11 -4 5 -6 14 19 -9 -10 23 -12 -13 -14 -15 20 -17 -18 -19 -20 25 -22 -23 -24 -25 -26 -27 -28 -29 29 -31
leaf_value=-0.0031065708950096479 0.00013893895280718335 -0.00088932214577992763 -0.0056715601394552702 0.0040577737708762263 0.0026574516015588083 0.0044749539284842299 0.0024305833564924146 -0.00034160729324896896 0.0048003673759630557 0.0039589697710615355 0.0032430179335719068 -0.0071572606654626645 0.0017465663458171646 -0.0086798677579411933 0.0059349069605302432 0.004199457756965696 0.0027138057241837127 -0.0036942113719678955 -0.001228510482757527 0.0030027222760980344 0.0069869963534686125 0.0024086425562842135 0.0055165199818678822 0.0050665172822358124 -0.0010748076083823392 0.003042010727004758 0.0054332232269592683 0.0005856435450040696 0.00296289267943157 0.0010246766713474676
leaf_weight=838 459 36 21840 1382 841 447 2287 518 6525 988 303 1000 46 78 1926 3568 1530 47 423 450 1098 90 3171 2435 158 3433 368 57 285 613
leaf_count=838 459 36 21840 1382 841 447 2287 518 6525 988 303 1000 46 78 1926 3568 1530 47 423 450 1098 90 3171 2435 158 3433 368 57 285 613
internal_value=2.74741e-06 0.00381711 -0.00510858 0.00420471 -0.000411227 0.00479558 0.0025704 -0.00186854 0.00440681 0.0041458 0.001173 -0.00673132 -0.00396556 -0.00634978 0.00573368 0.0038232 0.00335683 0.000762336 -0.00248671 0.00296712 0.00621477 0.00578435 0.00532094 0.00475163 0.000910704 0.00325246 0.0041163 0.00405792 0.00115018 0.00165484
internal_weight=57240 32780 24460 31620 2620 23217 8403 1779 16428 9903 1865 1160 160 114 6789 6480 2912 1562 1261 6538 3114 2016 3675 3423 1515 4251 818 504 1357 898
internal_count=57240 32780 24460 31620 2620 23217 8403 1779 16428 9903 1865 1160 160 114 6789 6480 2912 1562 1261 6538 3114 2016 3675 3423 1515 4251 818 504 1357 898
is_linear=0
shrinkage=0.05


Tree=26
num_leaves=31
num_cat=0
split_feature=14 28 28 14 20 14 14 14 28 14 18 21 28 28 22 11 28 14 29 8 28 17 16 28 1 20 10 28 28 5
split_gain=402.962 47.7804 19.8026 13.5367 4.7342 3.61639 2.56725 0.771983 0.642331 0.609738 0.57444 0.505447 0.458433 0.434814 0.828179 0.426473 0.411002 0.374098 0.335617 0.296237 0.272323 1.15993 0.677292 0.384256 0.265298 0.262366 0.353035 0.262146 0.261469 0.260868
threshold=0.28260388653530472 0.39629089145655322 0.1318557721318592 0.62778936677878316 28.500000000000004 0.74688367129694677 0.43270567776136065 0.79788351812878056 0.26659387353423869 0.686464635071795 0.683024313584775 6.5000000000000009 -0.99864786094873803 0.41202506375868281 15.500000000000002 0.5759983078250579 -0.54940789553007929 0.58919246410789217 1.0000000180025095e-35 0.7814200464204778 0.11478523713130605 1.2036180783672095e-09 1.0000000180025095e-35 0.04621408538533487 0.29727051116548481 29.600000000000005 0.26108236682114433 0.3484035575467645 -0.82413948779581736 0.75000000000000011
decision_type=2 2 2 2 2 2 2 2 2 2 2 2 2 2 2 2 2 2 2 2 2 2 2 2 2 2 2 2 2 2
left_child=2 3 4 6 20 9 -2 19 17 27 12 18 -11 14 15 -3 -14 25 -12 -7 22 -22 23 -1 -6 28 -27 -5 -8 -9
right_child=1 13 -4 5 24 7 8 29 -10 10 11 -13 16 -15 -16 -17 -18 -19 -20 -21 21 -23 -24 -25 -26 26 -28 -29 -30 -31
leaf_value=0.0024924123631380672 -0.0003715160436868932 -0.00030811213735324237 -0.0053880015781383244 0.0036191549609052042 -0.0037757399186847361 0.0052424879334094007 0.003323117733677312 0.0053275810635254432 0.00016341822072780298 0.0021916180433080171 0.0033815410119230355 0.0046935284321800311 0.005291198271573351 -0.0067999336570575735 0.0028677238586922765 -0.0073349156008340926 0.0038039871052644096 0.0028157270825936438 0.0044482070567978451 0.0045117067229297437 -0.0077659453407152371 0.0030553249995256206 0.0018014022039267064 0.0070213478472622411 -0.0019399206027113629 -0.0014517241516935986 0.0019256173599764847 0.00098443849527885181 0.0018547400390020092 0.0063408105001624658
leaf_weight=93 976 32 21840 5751 273 3497 420 1475 320 175 3299 1754 2316 1000 34 94 679 3654 1088 3078 32 93 564 123 954 123 196 108 1453 1746
leaf_count=93 976 32 21840 5751 273 3497 420 1475 320 175 3299 1754 2316 1000 34 94 679 3654 1088 3078 32 93 564 123 954 123 196 108 1453 1746
internal_value=2.77323e-06 0.00356404 -0.004939 0.00392448 -0.000334231 0.00447393 0.00200186 0.00522698 0.00237915 0.00398651 0.0042453 0.0039506 0.00481091 -0.00639616 -0.00377091 -0.00565338 0.00495944 0.00249865 0.00364979 0.00490301 0.00240149 0.000146791 0.00274905 0.005148 -0.00236063 0.00196398 0.000591481 0.00357256 0.00219174 0.00588262
internal_weight=57240 33268 23972 32108 2132 24966 7142 9796 6166 15170 9311 6141 3170 1160 160 126 2995 5846 4387 6575 905 125 780 216 1227 2192 319 5859 1873 3221
internal_count=57240 33268 23972 32108 2132 24966 7142 9796 6166 15170 9311 6141 3170 1160 160 126 2995 5846 4387 6575 905 125 780 216 1227 2192 319 5859 1873 3221
is_linear=0
shrinkage=0.05


Tree=27
num_leaves=31
num_cat=0
split_feature=14 27 14 14 31 27 31 27 3 14 14 14 14 1 27 27 20 1 17 14 9 27 27 20 27 3 17 8 3 21
split_gain=363.706 17.4408 10.4547 5.30036 4.66213 25.8685 3.58646 9.07736 2.26921 1.71669 1.70646 0.618816 0.591604 0.563406 0.530181 0.477501 0.465103 0.458212 0.541082 0.443595 0.430398 0.428165 0.394514 0.368941 0.348072 0.320796 0.317669 0.30511 0.300986 0.279589
threshold=0.33236870786281342 0.99053107487289871 0.66578483236203867 0.20695373475386283 9.5000000000000018 -0.91597725483594616 9.5000000000000018 -0.91597725483594616 0.65795776626523483 0.58919246410789217 0.77853156173947113 0.43270567776136065 0.80047479044456382 0.34345435232071453 -0.9905448150984083 -0.97113884758256674 18.500000000000004 0.41416714918228464 0.76066309918185193 0.74688367129694677 0.63356367152677995 -0.94705910369513524 0.58481550752069722 23.500000000000004 -0.94705910369513524 0.86151430785934358 0.80481422515326029 0.66951419172454996 0.36747500641530206 7.5000000000000009
decision_type=2 2 2 2 2 2 2 2 2 2 2 2 2 2 2 2 2 2 2 2 2 2 2 2 2 2 2 2 2 2
left_child=1 3 6 -1 10 12 9 13 -3 11 15 -2 21 -8 26 17 -11 18 23 20 -17 -6 -5 -4 -15 -10 -12 -21 -13 -22
right_child=2 8 4 22 5 -7 7 -9 25 16 14 28 -14 24 -16 19 -18 -19 -20 27 29 -23 -24 -25 -26 -27 -28 -29 -30 -31
leaf_value=-0.0051025595652846624 -8.66048375545232e-05 -0.0021447535289845442 0.0027675272021114184 0.0018253214316638678 0.0048851019377199011 -0.0064101261230396032 0.00085822171724344589 -0.0055892368497212084 0.00055854549449271254 0.0014369599012528855 0.0019752690299156025 0 0.0070280895746324401 0.0033209382199564648 0.0054040724929741773 0.0044811022118509394 0.0031669869085085168 0.0049247019469858284 0.0041201271797947341 0.0055334485596074462 0.0035339425681123939 0.0029468402274346762 -0.0016800312603040765 0.00025285554328953209 0.0010024313905297906 0.0027054984095366786 0.0046786708465261185 0.0043809588782346229 0.0020894772142819283 0.0043505667973670345
leaf_weight=22049 488 445 327 84 1500 667 570 493 248 442 206 188 285 825 4149 3364 6122 285 362 928 4635 400 922 280 220 712 289 2400 1752 1603
leaf_count=22049 488 445 327 84 1500 667 570 493 248 442 206 188 285 825 4149 3364 6122 285 362 928 4635 400 922 280 220 712 289 2400 1752 1603
internal_value=2.79441e-06 -0.00461081 0.00344576 -0.00494045 0.00408528 0.00219258 0.0021954 0.000333439 0.000790685 0.00263066 0.00437125 0.00148531 0.00482583 0.00215111 0.00521335 0.00409431 0.00305237 0.00312139 0.00257391 0.00418752 0.00400549 0.00448495 -0.00137513 0.00162746 0.00284452 0.00216301 0.00358313 0.00470768 0.00188563 0.00374639
internal_weight=57240 24460 32780 23055 21680 2852 11100 2108 1405 8992 18828 2428 2185 1615 4644 14184 6564 1254 969 12930 9602 1900 1006 607 1045 960 495 3328 1940 6238
internal_count=57240 24460 32780 23055 21680 2852 11100 2108 1405 8992 18828 2428 2185 1615 4644 14184 6564 1254 969 12930 9602 1900 1006 607 1045 960 495 3328 1940 6238
is_linear=0
shrinkage=0.05


Tree=28
num_leaves=31
num_cat=0
split_feature=14 27 14 31 27 23 6 14 20 14 27 27 27 31 3 27 27 5 20 3 14 27 14 27 17 11 27 26 27 4
split_gain=328.374 15.5306 11.1599 5.75543 27.2873 2.56689 2.34192 2.19401 2.13595 0.969767 0.680868 0.626666 1.42403 0.662086 0.563711 0.525298 1.69938 0.50118 0.494499 0.490375 0.486492 0.469733 0.46826 0.397678 0.374832 0.344631 0.332117 0.319898 0.317075 0.681115
threshold=0.28260388653530472 0.9916835347852474 0.62833389999358558 9.5000000000000018 -0.91597725483594616 5.0016666666666678 1.0000000180025095e-35 0.74688367129694677 28.500000000000004 0.73989147293434765 -0.9905448150984083 -0.84315017450793706 -0.90893996196865023 9.5000000000000018 0.65193246433705654 0.039769539193789977 -0.91597725483594616 0.75000000000000011 23.500000000000004 0.44361212982263393 0.83477862873238351 -0.99866806308218525 0.43270567776136065 -0.96689237009891416 0.7354850251334315 0.61411427107545047 -0.99866806308218525 62.650000000000013 -0.90893996196865023 0.88352182246723754
decision_type=2 2 2 2 2 2 2 2 2 2 2 2 2 2 2 2 2 2 2 2 2 2 2 2 2 2 2 2 2 2
left_child=1 6 5 7 9 11 -1 14 -3 26 21 12 -2 -14 -4 16 -7 18 -16 -17 -12 -9 -13 -20 -23 -21 -5 -24 29 -6
right_child=2 8 3 4 28 15 -8 10 -10 -11 20 22 13 -15 17 19 -18 -19 23 25 -22 24 27 -25 -26 -27 -28 -29 -30 -31
leaf_value=-0.0021094073599623856 0.0017178540049291699 0.0021780066695750726 0.0027564455717426634 0.0055196803462951713 -0.0062562799113708868 0.0008072402882780879 -0.0048635096185862267 0.0047378941047507344 -0.0021593697271506235 0.0052480935158173356 0.0046613448015294795 -0.00026012396615396533 0.00073938948018163319 -0.0057663187184972637 0.0032340073154788216 -0.00067965233013376428 -0.0050722634013825822 0.0043944987781256292 0.0015949521365895556 0.00098832411692282999 0.0060993396459039437 -0.00046043845250134734 0.0025895137273494778 0.0041134638756148232 0.0029188618218876955 0.0057543709015204433 0.0030277942870410432 0.0014961373572081201 -0.0064261513616164145 0.001445574693465501
leaf_weight=817 854 905 1780 165 73 311 21840 351 410 1330 7049 167 58 103 5263 564 199 2482 180 690 716 94 3683 3755 446 40 1260 887 725 43
leaf_count=817 854 905 1780 165 73 311 21840 351 410 1330 7049 167 58 103 5263 564 199 2482 180 690 716 94 3683 3755 446 40 1260 887 725 43
internal_value=2.87557e-06 -0.00445814 0.00321771 0.00371443 0.00185297 0.00152574 -0.00476479 0.0040165 0.000817153 0.00426136 0.00464261 0.00204182 0.000896249 -0.00337592 0.00361264 -0.000114559 -0.00147552 0.00374189 0.00356401 0.000415198 0.00479638 0.00328552 0.00228481 0.00400145 0.0023125 0.00127441 0.00332884 0.00238005 -0.00601824 -0.00333417
internal_weight=57240 23972 33268 25712 3596 7556 22657 22116 1315 2755 8656 5752 1015 161 13460 1804 510 11680 9198 1294 7765 891 4737 3935 540 730 1425 4570 841 116
internal_count=57240 23972 33268 25712 3596 7556 22657 22116 1315 2755 8656 5752 1015 161 13460 1804 510 11680 9198 1294 7765 891 4737 3935 540 730 1425 4570 841 116
is_linear=0
shrinkage=0.05


Tree=29
num_leaves=31
num_cat=0
split_feature=14 28 28 14 20 14 14 14 3 21 3 21 13 28 28 22 11 8 20 28 20 8 22 20 19 28 28 19 16 28
split_gain=296.382 35.1894 14.5652 10.0218 3.5095 2.66001 1.88428 0.612659 0.599138 0.504607 0.520334 0.419576 0.364813 0.534045 0.349374 0.717243 0.376906 0.307084 0.302086 0.303276 0.318726 0.304765 0.284752 0.333929 0.288928 0.262362 0.248856 1.04828 0.615206 0.34678
threshold=0.28260388653530472 0.39629089145655322 0.1318557721318592 0.62778936677878316 28.500000000000004 0.74688367129694677 0.52120811583377169 0.79788351812878056 0.65193246433705654 6.5000000000000009 0.98953045406473394 7.5000000000000009 0.29311291480012336 -0.82413948779581736 0.41202506375868281 15.500000000000002 0.5759983078250579 0.7814200464204778 32.350000000000001 0.26659387353423869 20.500000000000004 0.80833862158250902 16.500000000000004 24.500000000000004 0.67455286957551364 0.31595530242620651 0.11478523713130605 7.0744110694677831e-10 1.0000000180025095e-35 0.04621408538533487
decision_type=2 2 2 2 2 2 2 2 2 2 2 2 2 2 2 2 2 2 2 2 2 2 2 2 2 2 2 2 2 2
left_child=2 3 4 6 26 8 12 22 11 10 17 -5 -2 -14 15 16 -3 -10 19 20 -8 -22 23 -7 -25 -24 28 -28 29 -1
right_child=1 14 -4 5 -6 7 18 -9 9 -11 -12 -13 13 -15 -16 -17 -18 -19 -20 -21 21 -23 25 24 -26 -27 27 -29 -30 -31
leaf_value=0.0021632961502280851 -0.00062028407371841497 0 -0.004620350912021275 0.0018512524912290347 -0.0020306831087216022 0.0043128093333035617 0.0016480445951366077 0.0050703415858888608 0.0033498036924520976 0.0041622575604926895 0.0039366698363678078 0.0033461995800911021 0.0028223450060663332 0.00012831871849381697 -0.0058520304420948983 0.0030352089018888875 -0.0064666626824758447 0.0025930051898647704 -0.0025314224356642137 0.00045349948241084912 0.0026571172406118903 0.00080050504833576038 0.0052151957741810922 0.0070310073820169742 0.0032788570840037324 0.00051867456759015728 -0.0076018108516486722 0.0026919885449189686 0.0014982537804199686 0.0064608996688018012
leaf_weight=93 713 32 21840 1017 1227 3934 1555 3221 5244 2787 3101 969 255 682 1000 34 94 2052 31 256 3395 255 921 58 1626 36 32 93 564 123
leaf_count=93 713 32 21840 1017 1227 3934 1555 3221 5244 2787 3101 969 255 682 1000 34 94 2052 31 256 3395 255 921 58 1626 36 32 93 564 123
internal_value=2.861e-06 0.0030571 -0.00423527 0.00336644 -0.000285393 0.00383925 0.00171182 0.00448557 0.00342083 0.00354527 0.00337834 0.00258767 0.000223097 0.000875479 -0.00549014 -0.00313303 -0.00489203 0.0031389 0.00215708 0.00218621 0.00226936 0.00253053 0.00419649 0.004048 0.00342016 0.00505005 0.00206929 0 0.00240061 0.0046842
internal_weight=57240 33268 23972 32108 2132 24966 7142 9796 15170 13184 10397 1986 1650 937 1160 160 126 7296 5492 5461 5205 3650 6575 5618 1684 957 905 125 780 216
internal_count=57240 33268 23972 32108 2132 24966 7142 9796 15170 13184 10397 1986 1650 937 1160 160 126 7296 5492 5461 5205 3650 6575 5618 1684 957 905 125 780 216
is_linear=0
shrinkage=0.05


Tree=30
num_leaves=31
num_cat=0
split_feature=6 28 20 27 16 3 1 13 28 16 1 3 15 3 28 27 27 20 31 0 27 27 22 25 28 1 28 27 3 13
split_gain=259.964 30.6528 13.9565 13.6944 4.72486 1.42882 1.04762 1.02676 0.85363 0.727275 0.726007 0.511776 0.424188 0.385203 0.363775 0.362271 0.459662 0.362054 0.346799 0.323317 0.318281 0.313226 0.650633 0.398573 0.306796 0.426119 0.293087 0.290528 0.289569 0.260914
threshold=1.0000000180025095e-35 0.39629089145655322 30.100000000000005 0.9916835347852474 0.72670248569360396 0.87125414909052312 0.3815160975373047 0.26288587237564043 -0.60555643346685839 0.59467034712298117 0.45173108221082175 0.9749936047977138 -0.060004776465383762 0.65193246433705654 -0.99864786094873803 0.72695311118111527 0.69056404122701587 23.500000000000004 5.5000000000000009 34.500000000000007 0.76140650896573492 -0.90893996196865023 15.500000000000002 2.0000000000000031 -0.82413948779581736 0.35972208472707839 -0.94137724084408114 0.79383249484937135 0.94383869630054618 0.6580282266484152
decision_type=2 2 2 2 2 2 2 2 2 2 2 2 2 2 2 2 2 2 2 2 2 2 2 2 2 2 2 2 2 2
left_child=1 2 4 -2 5 9 -5 -4 15 13 14 12 -10 19 -6 16 17 26 -16 -1 -17 22 23 -3 29 -26 -7 -27 -20 -11
right_child=3 21 7 6 10 8 -8 -9 11 24 -12 -13 -14 -15 18 20 -18 -19 28 -21 -22 -23 -24 -25 25 27 -28 -29 -30 -31
leaf_value=0.00074794089942797643 -0.0043893492326215113 -0.0003914993932877464 -0.0018092166282314564 -0.0012383013747504648 0.0024120688839837177 0.0041148856254504635 0.0021065052741777424 0.00061740338893455197 0.0029710993997218802 0.003801810281848532 0.0052386858216865607 0.0032246465140202299 0.0016545885038923109 0.002147229879058955 0.0027491416765077943 0.0063732675005364978 0.0012686128871587873 0.0040611570117704502 0.003698624613435602 0.0035978008178245455 0.0036046236965725301 -0.0055598671500735209 0.0028898609188241016 -0.0066235162204469171 0.0012206149978063309 0.0028773010847854478 0.0026264438589944576 0.0009733175907286856 0.0042586145623101767 0.0025831463294426222
leaf_weight=1216 21840 42 1341 319 436 511 841 637 1108 903 1185 2645 1520 1745 625 241 233 2304 4505 110 243 1000 34 84 718 1881 1263 245 6390 1075
leaf_count=1216 21840 42 1341 319 436 511 841 637 1108 903 1185 2645 1520 1745 625 241 233 2304 4505 110 243 1000 34 84 718 1881 1263 245 6390 1075
internal_value=2.89508e-06 0.00276471 0.00304511 -0.00410808 0.00330418 0.00277474 0.00117766 -0.00102281 0.00317248 0.00226564 0.00402664 0.00272403 0.00221483 0.001654 0.00390503 0.00366254 0.0035062 0.00363109 0.00396035 0.000995686 0.00501925 -0.00521649 -0.00297679 -0.00465365 0.00265247 0.00230352 0.00306394 0.00266343 0.00402852 0.003147
internal_weight=57240 34240 33080 23000 31102 17961 1160 1978 10068 7893 13141 5273 2628 3071 11956 4795 4311 4078 11520 1326 484 1160 160 126 4822 2844 1774 2126 10895 1978
internal_count=57240 34240 33080 23000 31102 17961 1160 1978 10068 7893 13141 5273 2628 3071 11956 4795 4311 4078 11520 1326 484 1160 160 126 4822 2844 1774 2126 10895 1978
is_linear=0
shrinkage=0.05


Tree=31
num_leaves=31
num_cat=0
split_feature=14 28 28 14 1 14 14 14 28 28 18 27 27 27 16 28 21 27 3 10 27 21 14 28 3 28 12 28 9 27
split_gain=241.567 28.6882 11.8059 8.32861 2.92017 2.21945 1.5406 0.618362 0.47265 0.416874 0.493785 0.54558 0.417775 0.40341 0.382449 0.407458 0.374171 0.372877 0.321574 0.343578 0.319278 0.311316 0.326246 0.297626 0.295946 0.292177 0.332927 0.287229 0.286348 0.280287
threshold=0.28260388653530472 0.39629089145655322 0.1318557721318592 0.62778936677878316 0.36830558580577905 0.76365838682445986 0.43270567776136065 0.686464635071795 0.26659387353423869 -0.99864786094873803 0.68475661566694923 -0.065535378769913874 -0.95754239937548935 -0.099819732675876835 0.79717034924987529 -0.98801846520836312 4.5000000000000009 0.3744682635859638 0.43235682955904792 0.26108236682114433 0.51297097409535064 0.45000000000000007 0.7008728422585232 -0.98212955754013376 0.86151430785934358 -0.9292178835113839 0.59962573675489683 -0.91595872546125101 0.72142004296479323 -0.90893996196865023
decision_type=2 2 2 2 2 2 2 2 2 2 2 2 2 2 2 2 2 2 2 2 2 2 2 2 2 2 2 2 2 2
left_child=2 3 4 6 -1 7 -2 -5 18 -9 12 14 -11 -14 15 -12 23 -13 19 -8 -19 22 -17 28 -15 26 -20 -18 -7 -3
right_child=1 29 -4 5 -6 16 8 9 -10 10 11 17 13 24 -16 21 27 20 25 -21 -22 -23 -24 -25 -26 -27 -28 -29 -30 -31
leaf_value=-0.0018498336492771919 -0.00030551427072337607 -0.0028298615957192226 -0.0041698966867263383 0.0027368477626975671 0.0018932444576931851 0.0042307757630201011 -0.0019884002311839222 0.001939292701203222 -1.6826565700045802e-05 0.001891086958675214 0.00074752307577711759 0.0046493308357888298 0.0048232538981514972 0.0022258823651734715 0.0039115128291259049 0.00045580157245300474 0.0056310594958372817 0.0020573362880532847 0.0020356867019356772 0.0013171149717625915 0.004069298013577631 0.0032007802078784066 0.0025942329937364375 0.0040539725628256484 0.0039374864102407333 0.0019130628611214295 0.0044268469762515205 0.004372220838012998 0.0017650466378194868 -0.005282290163215137
leaf_weight=1233 976 160 21840 5859 899 204 87 519 320 246 244 1034 1315 351 999 217 672 396 368 597 474 3227 1472 3408 1456 4517 277 2532 341 1000
leaf_count=1233 976 160 21840 5859 899 204 87 519 320 246 244 1034 1315 351 999 217 672 396 368 597 474 3227 1472 3408 1456 4517 277 2532 341 1000
internal_value=2.9755e-06 0.00276036 -0.0038232 0.0030397 -0.000266582 0.00347074 0.00153111 0.00316892 0.00182345 0.00337956 0.00344381 0.00322277 0.00396835 0.00412784 0.00298562 0.00280334 0.00421953 0.0039817 0.00192588 0.000878658 0.0031701 0.00290308 0.00232605 0.00387305 0.00361267 0.00206241 0.00308594 0.00464188 0.00271538 -0.00495673
internal_weight=57240 33268 23972 32108 2132 24966 7142 17809 6166 11950 11431 8063 3368 3122 6159 5160 7157 1904 5846 684 870 4916 1689 3953 1807 5162 645 3204 545 1160
internal_count=57240 33268 23972 32108 2132 24966 7142 17809 6166 11950 11431 8063 3368 3122 6159 5160 7157 1904 5846 684 870 4916 1689 3953 1807 5162 645 3204 545 1160
is_linear=0
shrinkage=0.05


Tree=32
num_leaves=31
num_cat=0
split_feature=14 28 28 14 2 14 14 28 18 14 14 28 22 27 27 25 27 16 27 27 27 27 9 27 22 25 2 27 28 11
split_gain=218.053 26.2434 12.5448 6.27336 2.27066 1.58921 1.21024 0.523256 0.43156 0.507337 0.425533 0.378555 0.375101 0.434406 0.354237 0.343333 0.338269 0.329237 0.328303 0.286513 0.309944 0.276994 0.275354 0.25083 0.589266 0.360091 0.249586 0.244487 0.517084 0.23942
threshold=0.33236870786281342 0.39629089145655322 0.1318557721318592 0.686464635071795 0.34707435472460618 0.60479784873894971 0.77853156173947113 -0.99864786094873803 0.68475661566694923 0.7008728422585232 0.52120811583377169 -0.54940789553007929 2.5000000000000004 0.57077594689671507 -0.065535378769913874 0.099999999999999992 0.99374995976406788 0.72996325292800857 -0.16799356919963607 0.3744682635859638 0.51297097409535064 -0.77245553105869302 0.66951419172454996 -0.90893996196865023 15.500000000000002 2.0000000000000031 0.30611639470090379 -0.9905448150984083 -0.056951011027366626 0.67429992650780324
decision_type=2 2 2 2 2 2 2 2 2 2 2 2 2 2 2 2 2 2 2 2 2 2 2 2 2 2 2 2 2 2
left_child=2 3 4 5 12 10 7 -5 11 17 -2 21 13 -1 18 -13 -14 -10 -11 -16 29 -9 -20 24 25 -3 -15 28 -8 -21
right_child=1 23 -4 6 -6 -7 27 8 9 14 -12 15 16 26 19 -17 -18 -19 22 20 -22 -23 -24 -25 -26 -27 -28 -29 -30 -31
leaf_value=0.0021094192575470037 0.00043755571570193739 -0.00023598544556519081 -0.0039614161931402483 0.001765645243797985 0.0020124497977327526 0.0024659176820283745 0.0015695826742708513 0.0063967084764119456 0.0012977792883713413 0.003179333267519781 0.0015790036594241841 -0.0021106179839827949 -0.00056580696826359796 -0.0030373503905557733 0.0044532083568559425 0.0030602650768247709 0.0041873301222634021 0.0031707466366574354 0.004154571056382117 0 0.0042198154793268144 0.0039781244247642285 0.00088211573894329115 -0.0050185712242775187 0.0028869876181575613 -0.0061591398445834901 -0.001336805215112693 0.0042957453099762245 0.0043339976369351184 0.0028256001211463318
leaf_weight=78 1162 42 21840 597 754 8361 300 143 619 6233 2990 30 102 273 1088 880 55 412 85 108 349 2555 309 1000 34 84 1358 4661 443 295
leaf_count=78 1162 42 21840 597 754 8361 300 143 619 6233 2990 30 102 273 1088 880 55 412 85 108 349 2555 309 1000 34 84 1358 4661 443 295
internal_value=3.0378e-06 0.00266895 -0.00356921 0.00294017 -0.000295637 0.00206752 0.00351094 0.0032566 0.00332355 0.00313889 0.00126223 0.00380539 -0.00123449 -0.00145188 0.00326876 0.00287563 0.00106008 0.00205944 0.00308891 0.00390804 0.00309872 0.0041135 0.00162647 -0.00470984 -0.00268968 -0.00428919 -0.0016301 0.00415292 0.00323666 0.00209107
internal_weight=57240 32780 24460 31620 2620 12513 19107 13703 13106 9498 4152 3608 1866 1709 8467 910 157 1031 6627 1840 752 2698 394 1160 160 126 1631 5404 743 403
internal_count=57240 32780 24460 31620 2620 12513 19107 13703 13106 9498 4152 3608 1866 1709 8467 910 157 1031 6627 1840 752 2698 394 1160 160 126 1631 5404 743 403
is_linear=0
shrinkage=0.05


Tree=33
num_leaves=31
num_cat=0
